booster[0]:
0:[f59<0.5] yes=1,no=2,missing=1
	1:[f58<0.5] yes=3,no=4,missing=3
		3:[f60<0.5] yes=7,no=8,missing=7
			7:leaf=0.0142059326
			8:[f45<1.5] yes=15,no=16,missing=15
				15:[f30<0.5] yes=23,no=24,missing=23
					23:leaf=0.0697632954
					24:leaf=0.0141012995
				16:leaf=0.027792925
		4:[f63<0.5] yes=9,no=10,missing=9
			9:[f40<1] yes=17,no=18,missing=17
				17:leaf=0.026340371
				18:[f48<1.5] yes=25,no=26,missing=25
					25:leaf=0.0170748066
					26:leaf=0.00880702026
			10:[f20<0.5] yes=19,no=20,missing=19
				19:[f3<0.5] yes=27,no=28,missing=27
					27:leaf=-0.020463638
					28:leaf=0.00356805022
				20:leaf=0.00887129921
	2:[f64<0.5] yes=5,no=6,missing=5
		5:[f35<0.5] yes=11,no=12,missing=11
			11:leaf=-0.0235822108
			12:leaf=-0.0324278884
		6:[f54<0.5] yes=13,no=14,missing=13
			13:[f39<1.5] yes=21,no=22,missing=21
				21:leaf=-0.0379391722
				22:leaf=-0.00916224997
			14:leaf=-0.0668329522
booster[1]:
0:[f59<0.5] yes=1,no=2,missing=1
	1:[f58<0.5] yes=3,no=4,missing=3
		3:[f60<0.5] yes=7,no=8,missing=7
			7:leaf=0.0132588698
			8:[f27<0.5] yes=15,no=16,missing=15
				15:[f30<0.5] yes=25,no=26,missing=25
					25:leaf=0.062114574
					26:leaf=0.0133962333
				16:leaf=0.020157028
		4:[f63<0.5] yes=9,no=10,missing=9
			9:[f40<1] yes=17,no=18,missing=17
				17:leaf=0.0238612778
				18:[f48<1.5] yes=27,no=28,missing=27
					27:leaf=0.0154283065
					28:leaf=0.00810246076
			10:[f20<0.5] yes=19,no=20,missing=19
				19:[f17<0.5] yes=29,no=30,missing=29
					29:leaf=-0.0185096171
					30:leaf=0.00356693263
				20:leaf=0.00842773356
	2:[f64<0.5] yes=5,no=6,missing=5
		5:[f35<0.5] yes=11,no=12,missing=11
			11:leaf=-0.0213311799
			12:[f71<2.5] yes=21,no=22,missing=21
				21:leaf=-0.0297395028
				22:leaf=-0.00845235586
		6:[f54<0.5] yes=13,no=14,missing=13
			13:[f4<0.5] yes=23,no=24,missing=23
				23:leaf=-0.0366170369
				24:leaf=-0.0135055874
			14:leaf=-0.060520947
booster[2]:
0:[f59<0.5] yes=1,no=2,missing=1
	1:[f58<0.5] yes=3,no=4,missing=3
		3:[f60<0.5] yes=7,no=8,missing=7
			7:leaf=0.0123749459
			8:[f45<1.5] yes=15,no=16,missing=15
				15:[f12<0.5] yes=25,no=26,missing=25
					25:leaf=0.057694979
					26:leaf=0.0107832048
				16:[f27<0.5] yes=27,no=28,missing=27
					27:leaf=0.0251781978
					28:leaf=0.00643030135
		4:[f63<0.5] yes=9,no=10,missing=9
			9:[f40<1] yes=17,no=18,missing=17
				17:leaf=0.0216155108
				18:[f48<1.5] yes=29,no=30,missing=29
					29:leaf=0.0139405774
					30:leaf=0.00745426212
			10:[f20<0.5] yes=19,no=20,missing=19
				19:[f3<0.5] yes=31,no=32,missing=31
					31:leaf=-0.0168011189
					32:leaf=0.00431512902
				20:leaf=0.00800634641
	2:[f64<0.5] yes=5,no=6,missing=5
		5:[f35<0.5] yes=11,no=12,missing=11
			11:leaf=-0.01929502
			12:[f45<1.5] yes=21,no=22,missing=21
				21:leaf=-0.0320058502
				22:leaf=-0.0213554818
		6:[f4<0.5] yes=13,no=14,missing=13
			13:[f11<0.5] yes=23,no=24,missing=23
				23:leaf=-0.0565995537
				24:leaf=-0.0227067359
			14:leaf=-0.0232163928
booster[3]:
0:[f59<0.5] yes=1,no=2,missing=1
	1:[f58<0.5] yes=3,no=4,missing=3
		3:[f27<0.5] yes=7,no=8,missing=7
			7:[f42<2.5] yes=15,no=16,missing=15
				15:[f21<0.5] yes=23,no=24,missing=23
					23:leaf=0.0544910319
					24:leaf=0.00802880526
				16:leaf=0.0169134922
			8:leaf=0.0164144915
		4:[f63<0.5] yes=9,no=10,missing=9
			9:[f40<1] yes=17,no=18,missing=17
				17:leaf=0.0195811093
				18:leaf=0.0120933196
			10:[f20<0.5] yes=19,no=20,missing=19
				19:[f17<0.5] yes=25,no=26,missing=25
					25:leaf=-0.01519557
					26:leaf=0.00422864268
				20:leaf=0.00760602951
	2:[f64<0.5] yes=5,no=6,missing=5
		5:[f49<1.5] yes=11,no=12,missing=11
			11:leaf=-0.0200771298
			12:leaf=-0.0314762257
		6:[f66<0.5] yes=13,no=14,missing=13
			13:[f4<0.5] yes=21,no=22,missing=21
				21:leaf=-0.0340666361
				22:leaf=-0.0110574551
			14:leaf=-0.0528245941
booster[4]:
0:[f59<0.5] yes=1,no=2,missing=1
	1:[f58<0.5] yes=3,no=4,missing=3
		3:[f60<0.5] yes=7,no=8,missing=7
			7:leaf=0.0104390187
			8:[f30<0.5] yes=15,no=16,missing=15
				15:[f45<1.5] yes=25,no=26,missing=25
					25:leaf=0.0477518998
					26:leaf=0.0184836574
				16:leaf=0.00711712241
		4:[f63<0.5] yes=9,no=10,missing=9
			9:[f40<1] yes=17,no=18,missing=17
				17:leaf=0.017738184
				18:[f68<0.5] yes=27,no=28,missing=27
					27:leaf=0.0122230304
					28:leaf=0.00807972066
			10:[f45<0.5] yes=19,no=20,missing=19
				19:[f3<0.5] yes=29,no=30,missing=29
					29:leaf=-0.0175091773
					30:leaf=0.00485915085
				20:[f60<0.5] yes=31,no=32,missing=31
					31:leaf=0.00319781131
					32:leaf=-0.0119097596
	2:[f64<0.5] yes=5,no=6,missing=5
		5:[f49<1.5] yes=11,no=12,missing=11
			11:leaf=-0.0181130599
			12:leaf=-0.028958125
		6:[f54<0.5] yes=13,no=14,missing=13
			13:[f39<1.5] yes=21,no=22,missing=21
				21:leaf=-0.0258296281
				22:leaf=-0.00631516567
			14:[f39<0.5] yes=23,no=24,missing=23
				23:leaf=-0.0475749373
				24:leaf=-0.0190676004
booster[5]:
0:[f59<0.5] yes=1,no=2,missing=1
	1:[f58<0.5] yes=3,no=4,missing=3
		3:[f27<0.5] yes=7,no=8,missing=7
			7:[f42<2.5] yes=15,no=16,missing=15
				15:[f12<0.5] yes=27,no=28,missing=27
					27:leaf=0.04523509
					28:leaf=0.00513189752
				16:leaf=0.0137281166
			8:leaf=0.0132665429
		4:[f63<0.5] yes=9,no=10,missing=9
			9:[f40<1] yes=17,no=18,missing=17
				17:leaf=0.01606871
				18:[f48<1.5] yes=29,no=30,missing=29
					29:leaf=0.0103699006
					30:leaf=0.00524407858
			10:[f45<1.5] yes=19,no=20,missing=19
				19:[f10<0.5] yes=31,no=32,missing=31
					31:leaf=-0.0143812718
					32:leaf=0.00167874398
				20:[f20<0.5] yes=33,no=34,missing=33
					33:leaf=-0.00408927398
					34:leaf=0.00706583867
	2:[f64<0.5] yes=5,no=6,missing=5
		5:[f35<0.5] yes=11,no=12,missing=11
			11:leaf=-0.0138077978
			12:[f45<1.5] yes=21,no=22,missing=21
				21:leaf=-0.0248297416
				22:leaf=-0.0157317258
		6:[f66<0.5] yes=13,no=14,missing=13
			13:[f4<0.5] yes=23,no=24,missing=23
				23:leaf=-0.0276563223
				24:leaf=-0.00924879685
			14:[f4<0.5] yes=25,no=26,missing=25
				25:leaf=-0.0466525666
				26:leaf=-0.0187979564
booster[6]:
0:[f59<0.5] yes=1,no=2,missing=1
	1:[f58<0.5] yes=3,no=4,missing=3
		3:[f27<0.5] yes=7,no=8,missing=7
			7:[f42<2.5] yes=15,no=16,missing=15
				15:[f21<0.5] yes=25,no=26,missing=25
					25:leaf=0.0411736928
					26:leaf=0.00297801499
				16:leaf=0.012698506
			8:[f36<1.5] yes=17,no=18,missing=17
				17:leaf=0.0138950339
				18:leaf=0.00370055134
		4:[f63<0.5] yes=9,no=10,missing=9
			9:[f40<1] yes=19,no=20,missing=19
				19:leaf=0.0145563623
				20:[f68<0.5] yes=27,no=28,missing=27
					27:leaf=0.0100767044
					28:leaf=0.0065343976
			10:[f45<0.5] yes=21,no=22,missing=21
				21:[f3<0.5] yes=29,no=30,missing=29
					29:leaf=-0.0147201987
					30:leaf=0.00533525646
				22:[f60<0.5] yes=31,no=32,missing=31
					31:leaf=0.00360078039
					32:leaf=-0.0100973304
	2:[f64<0.5] yes=5,no=6,missing=5
		5:[f49<1.5] yes=11,no=12,missing=11
			11:leaf=-0.0147515433
			12:leaf=-0.0246550944
		6:[f66<0.5] yes=13,no=14,missing=13
			13:[f4<0.5] yes=23,no=24,missing=23
				23:leaf=-0.0251672566
				24:leaf=-0.00863221101
			14:leaf=-0.040081948
booster[7]:
0:[f59<0.5] yes=1,no=2,missing=1
	1:[f58<0.5] yes=3,no=4,missing=3
		3:[f30<0.5] yes=7,no=8,missing=7
			7:[f60<0.5] yes=15,no=16,missing=15
				15:leaf=0.00795680657
				16:[f35<1.5] yes=27,no=28,missing=27
					27:leaf=0.0394085124
					28:leaf=0.0187289156
			8:leaf=0.00244082813
		4:[f63<0.5] yes=9,no=10,missing=9
			9:[f40<1] yes=17,no=18,missing=17
				17:leaf=0.0131863523
				18:[f48<0.5] yes=29,no=30,missing=29
					29:leaf=0.00916021224
					30:leaf=0.00586846238
			10:[f45<1.5] yes=19,no=20,missing=19
				19:[f10<0.5] yes=31,no=32,missing=31
					31:leaf=-0.0120329764
					32:leaf=0.00254817517
				20:[f20<0.5] yes=33,no=34,missing=33
					33:leaf=-0.00322830863
					34:leaf=0.00653250841
	2:[f64<0.5] yes=5,no=6,missing=5
		5:[f49<1.5] yes=11,no=12,missing=11
			11:[f71<2.5] yes=21,no=22,missing=21
				21:leaf=-0.0141731752
				22:leaf=-0.00967731886
			12:leaf=-0.0226826873
		6:[f54<0.5] yes=13,no=14,missing=13
			13:[f39<1.5] yes=23,no=24,missing=23
				23:leaf=-0.0186182205
				24:leaf=-0.00510535715
			14:[f39<0.5] yes=25,no=26,missing=25
				25:leaf=-0.0362172388
				26:leaf=-0.014072977
booster[8]:
0:[f59<0.5] yes=1,no=2,missing=1
	1:[f58<0.5] yes=3,no=4,missing=3
		3:[f27<0.5] yes=7,no=8,missing=7
			7:[f35<1.5] yes=15,no=16,missing=15
				15:[f52<1.5] yes=29,no=30,missing=29
					29:leaf=0.0430102088
					30:leaf=0.0171780679
				16:[f36<0.5] yes=31,no=32,missing=31
					31:leaf=0.0204743017
					32:leaf=0.0025152266
			8:[f36<1.5] yes=17,no=18,missing=17
				17:leaf=0.0120791737
				18:leaf=0.00154509849
		4:[f63<0.5] yes=9,no=10,missing=9
			9:[f40<1] yes=19,no=20,missing=19
				19:leaf=0.0119452849
				20:[f50<1.5] yes=33,no=34,missing=33
					33:leaf=0.0049876729
					34:leaf=0.00819015037
			10:[f45<0.5] yes=21,no=22,missing=21
				21:[f10<0.5] yes=35,no=36,missing=35
					35:leaf=-0.012940282
					36:leaf=0.00237829587
				22:[f60<0.5] yes=37,no=38,missing=37
					37:leaf=0.00384729519
					38:leaf=-0.00857778918
	2:[f64<0.5] yes=5,no=6,missing=5
		5:[f49<1.5] yes=11,no=12,missing=11
			11:[f71<2.5] yes=23,no=24,missing=23
				23:leaf=-0.0127963526
				24:leaf=-0.00879023131
			12:leaf=-0.0208680704
		6:[f66<0.5] yes=13,no=14,missing=13
			13:[f54<0.5] yes=25,no=26,missing=25
				25:leaf=-0.0110685555
				26:leaf=-0.0227581635
			14:[f4<0.5] yes=27,no=28,missing=27
				27:leaf=-0.0356753096
				28:leaf=-0.0131962886
booster[9]:
0:[f59<0.5] yes=1,no=2,missing=1
	1:[f58<0.5] yes=3,no=4,missing=3
		3:[f30<0.5] yes=7,no=8,missing=7
			7:[f54<0.5] yes=15,no=16,missing=15
				15:[f21<0.5] yes=27,no=28,missing=27
					27:leaf=0.0164273418
					28:leaf=0.00176690519
				16:[f44<3] yes=29,no=30,missing=29
					29:leaf=0.0323448032
					30:leaf=0.00146784482
			8:leaf=0.00016827583
		4:[f63<0.5] yes=9,no=10,missing=9
			9:[f40<1] yes=17,no=18,missing=17
				17:leaf=0.0108210212
				18:[f48<0.5] yes=31,no=32,missing=31
					31:leaf=0.00764002604
					32:leaf=0.00462001562
			10:[f3<0.5] yes=19,no=20,missing=19
				19:[f45<0.5] yes=33,no=34,missing=33
					33:leaf=-0.0113726817
					34:leaf=-0.00281147752
				20:leaf=0.00631715683
	2:[f64<0.5] yes=5,no=6,missing=5
		5:[f49<1.5] yes=11,no=12,missing=11
			11:[f35<0.5] yes=21,no=22,missing=21
				21:[f45<1.5] yes=35,no=36,missing=35
					35:leaf=-0.00917405263
					36:leaf=-0.00150387583
				22:[f71<2.5] yes=37,no=38,missing=37
					37:leaf=-0.0124710668
					38:leaf=-0.00260491366
			12:leaf=-0.0191986263
		6:[f66<0.5] yes=13,no=14,missing=13
			13:[f54<0.5] yes=23,no=24,missing=23
				23:leaf=-0.0101461755
				24:leaf=-0.0208074637
			14:[f4<0.5] yes=25,no=26,missing=25
				25:[f27<0.5] yes=39,no=40,missing=39
					39:leaf=-0.0337272063
					40:leaf=-0.00893079955
				26:leaf=-0.0123165362
booster[10]:
0:[f59<0.5] yes=1,no=2,missing=1
	1:[f58<0.5] yes=3,no=4,missing=3
		3:[f42<2.5] yes=7,no=8,missing=7
			7:[f27<0.5] yes=15,no=16,missing=15
				15:[f35<1.5] yes=27,no=28,missing=27
					27:leaf=0.0318870209
					28:leaf=0.0123461122
				16:[f36<1.5] yes=29,no=30,missing=29
					29:leaf=0.00964815635
					30:leaf=0.00139445369
			8:leaf=0.00709301233
		4:[f63<0.5] yes=9,no=10,missing=9
			9:[f40<1] yes=17,no=18,missing=17
				17:leaf=0.00980256964
				18:[f73<0.5] yes=31,no=32,missing=31
					31:leaf=0.00688596675
					32:leaf=0.00401628204
			10:[f20<0.5] yes=19,no=20,missing=19
				19:[f3<0.5] yes=33,no=34,missing=33
					33:leaf=-0.00799450558
					34:leaf=0.00600129832
				20:leaf=0.00615409343
	2:[f64<0.5] yes=5,no=6,missing=5
		5:[f49<1.5] yes=11,no=12,missing=11
			11:[f60<1.5] yes=21,no=22,missing=21
				21:[f40<1] yes=35,no=36,missing=35
					35:leaf=-0.00823770836
					36:leaf=-0.00142868166
				22:[f71<2.5] yes=37,no=38,missing=37
					37:leaf=-0.0112069985
					38:leaf=-0.00247466867
			12:leaf=-0.0176627357
		6:[f66<0.5] yes=13,no=14,missing=13
			13:[f54<0.5] yes=23,no=24,missing=23
				23:leaf=-0.00930066127
				24:leaf=-0.019023966
			14:[f4<0.5] yes=25,no=26,missing=25
				25:[f27<0.5] yes=39,no=40,missing=39
					39:leaf=-0.0306610949
					40:leaf=-0.00848425925
				26:leaf=-0.0114954328
booster[11]:
0:[f59<0.5] yes=1,no=2,missing=1
	1:[f58<0.5] yes=3,no=4,missing=3
		3:[f30<0.5] yes=7,no=8,missing=7
			7:[f42<2.5] yes=15,no=16,missing=15
				15:[f12<0.5] yes=27,no=28,missing=27
					27:leaf=0.0253181159
					28:leaf=-0.000480133313
				16:leaf=0.00656103669
			8:leaf=-0.00143448717
		4:[f63<0.5] yes=9,no=10,missing=9
			9:[f40<1] yes=17,no=18,missing=17
				17:leaf=0.00887997355
				18:[f68<0.5] yes=29,no=30,missing=29
					29:leaf=0.0063663437
					30:leaf=0.00363723189
			10:[f13<0.5] yes=19,no=20,missing=19
				19:[f38<0.5] yes=31,no=32,missing=31
					31:leaf=-0.00875534024
					32:leaf=-0.00101066346
				20:leaf=-0.0178981461
	2:[f64<0.5] yes=5,no=6,missing=5
		5:[f49<1.5] yes=11,no=12,missing=11
			11:[f35<0.5] yes=21,no=22,missing=21
				21:[f45<1.5] yes=33,no=34,missing=33
					33:leaf=-0.00750165014
					34:leaf=-0.00135724701
				22:[f46<1.5] yes=35,no=36,missing=35
					35:leaf=-0.00852786377
					36:leaf=-0.0140925562
			12:leaf=-0.0162497181
		6:[f66<0.5] yes=13,no=14,missing=13
			13:[f37<0.5] yes=23,no=24,missing=23
				23:[f49<0.5] yes=37,no=38,missing=37
					37:leaf=-0.0172748677
					38:leaf=-0.00412487984
				24:leaf=-0.00661457935
			14:[f4<0.5] yes=25,no=26,missing=25
				25:leaf=-0.0268942546
				26:leaf=-0.0107290708
booster[12]:
0:[f59<0.5] yes=1,no=2,missing=1
	1:[f58<0.5] yes=3,no=4,missing=3
		3:[f36<0.5] yes=7,no=8,missing=7
			7:[f54<0.5] yes=15,no=16,missing=15
				15:leaf=0.00926926732
				16:[f52<1.5] yes=29,no=30,missing=29
					29:leaf=0.0344100632
					30:leaf=0.01143541
			8:[f30<0.5] yes=17,no=18,missing=17
				17:[f52<0.5] yes=31,no=32,missing=31
					31:leaf=0.0210890248
					32:leaf=0.00858262647
				18:leaf=-0.00136276183
		4:[f63<0.5] yes=9,no=10,missing=9
			9:[f40<1] yes=19,no=20,missing=19
				19:leaf=0.00804421306
				20:[f50<1.5] yes=33,no=34,missing=33
					33:leaf=0.00297043449
					34:leaf=0.00570342271
			10:[f13<0.5] yes=21,no=22,missing=21
				21:[f38<0.5] yes=35,no=36,missing=35
					35:leaf=-0.00794715527
					36:leaf=-0.000916335441
				22:leaf=-0.0170032382
	2:[f64<0.5] yes=5,no=6,missing=5
		5:[f49<1.5] yes=11,no=12,missing=11
			11:[f71<2.5] yes=23,no=24,missing=23
				23:leaf=-0.00864073914
				24:leaf=-0.00579494564
			12:leaf=-0.0149497408
		6:[f54<0.5] yes=13,no=14,missing=13
			13:[f39<1.5] yes=25,no=26,missing=25
				25:leaf=-0.011827617
				26:leaf=-0.00299359276
			14:[f39<0.5] yes=27,no=28,missing=27
				27:leaf=-0.0228863657
				28:leaf=-0.00888138544
booster[13]:
0:[f59<0.5] yes=1,no=2,missing=1
	1:[f58<0.5] yes=3,no=4,missing=3
		3:[f38<0.5] yes=7,no=8,missing=7
			7:[f52<0.5] yes=15,no=16,missing=15
				15:[f30<0.5] yes=29,no=30,missing=29
					29:leaf=0.0221366044
					30:leaf=-0.00129462488
				16:[f52<1.5] yes=31,no=32,missing=31
					31:leaf=-0.000202497846
					32:leaf=0.0104309591
			8:[f54<0.5] yes=17,no=18,missing=17
				17:leaf=0.00769259548
				18:leaf=0.0318259262
		4:[f63<0.5] yes=9,no=10,missing=9
			9:[f40<1] yes=19,no=20,missing=19
				19:leaf=0.00728711346
				20:[f48<0.5] yes=33,no=34,missing=33
					33:leaf=0.00534977391
					34:leaf=0.00278514624
			10:[f13<0.5] yes=21,no=22,missing=21
				21:[f38<0.5] yes=35,no=36,missing=35
					35:leaf=-0.00721357251
					36:leaf=-0.000830810983
				22:leaf=-0.0161530767
	2:[f64<0.5] yes=5,no=6,missing=5
		5:[f49<1.5] yes=11,no=12,missing=11
			11:[f35<0.5] yes=23,no=24,missing=23
				23:[f74<1.5] yes=37,no=38,missing=37
					37:leaf=-0.00638519181
					38:leaf=-0.00212292629
				24:[f46<1.5] yes=39,no=40,missing=39
					39:leaf=-0.00690630917
					40:leaf=-0.0122738918
			12:leaf=-0.0137537615
		6:[f66<0.5] yes=13,no=14,missing=13
			13:[f37<0.5] yes=25,no=26,missing=25
				25:[f49<0.5] yes=41,no=42,missing=41
					41:leaf=-0.0140740564
					42:leaf=-0.0033272549
				26:leaf=-0.00545226596
			14:[f4<0.5] yes=27,no=28,missing=27
				27:[f27<0.5] yes=43,no=44,missing=43
					43:leaf=-0.0234487467
					44:leaf=-0.00612395303
				28:leaf=-0.00895487424
booster[14]:
0:[f59<0.5] yes=1,no=2,missing=1
	1:[f58<0.5] yes=3,no=4,missing=3
		3:[f27<0.5] yes=7,no=8,missing=7
			7:[f35<1.5] yes=15,no=16,missing=15
				15:[f52<1.5] yes=29,no=30,missing=29
					29:leaf=0.0276983213
					30:leaf=0.00834621768
				16:[f36<0.5] yes=31,no=32,missing=31
					31:leaf=0.0114955762
					32:leaf=-0.000999196316
			8:[f35<1] yes=17,no=18,missing=17
				17:[f36<1.5] yes=33,no=34,missing=33
					33:leaf=0.00112417049
					34:leaf=-0.00210245862
				18:leaf=0.00727114687
		4:[f63<0.5] yes=9,no=10,missing=9
			9:[f40<1] yes=19,no=20,missing=19
				19:leaf=0.00660127029
				20:[f70<1.5] yes=35,no=36,missing=35
					35:leaf=0.00233902992
					36:leaf=0.00483939564
			10:[f74<2.5] yes=21,no=22,missing=21
				21:[f10<0.5] yes=37,no=38,missing=37
					37:leaf=-0.00702709286
					38:leaf=0.00369474175
				22:[f36<1] yes=39,no=40,missing=39
					39:leaf=0.00666142348
					40:leaf=-0.00265240227
	2:[f64<0.5] yes=5,no=6,missing=5
		5:[f69<2.5] yes=11,no=12,missing=11
			11:[f35<0.5] yes=23,no=24,missing=23
				23:[f71<1.5] yes=41,no=42,missing=41
					41:leaf=-0.00288913003
					42:leaf=-0.00609101448
				24:[f45<1.5] yes=43,no=44,missing=43
					43:leaf=-0.0100324294
					44:leaf=-0.00596199185
			12:leaf=-0.0144356508
		6:[f66<0.5] yes=13,no=14,missing=13
			13:[f4<0.5] yes=25,no=26,missing=25
				25:[f49<0.5] yes=45,no=46,missing=45
					45:leaf=-0.012842576
					46:leaf=-0.00489863334
				26:leaf=-0.00393308979
			14:[f4<0.5] yes=27,no=28,missing=27
				27:[f27<0.5] yes=47,no=48,missing=47
					47:leaf=-0.0213170405
					48:leaf=-0.00581775559
				28:leaf=-0.00835788343
booster[15]:
0:[f59<0.5] yes=1,no=2,missing=1
	1:[f58<0.5] yes=3,no=4,missing=3
		3:[f38<0.5] yes=7,no=8,missing=7
			7:[f52<0.5] yes=15,no=16,missing=15
				15:[f30<0.5] yes=27,no=28,missing=27
					27:leaf=0.0184039026
					28:leaf=-0.00261481106
				16:[f52<1.5] yes=29,no=30,missing=29
					29:leaf=-0.000165455043
					30:leaf=0.00870922487
			8:[f54<0.5] yes=17,no=18,missing=17
				17:leaf=0.00651836395
				18:leaf=0.0273880418
		4:[f63<0.5] yes=9,no=10,missing=9
			9:[f40<1] yes=19,no=20,missing=19
				19:leaf=0.00597997382
				20:[f50<1.5] yes=31,no=32,missing=31
					31:leaf=0.00195711968
					32:leaf=0.0043597999
			10:[f13<0.5] yes=21,no=22,missing=21
				21:[f31<0.5] yes=33,no=34,missing=33
					33:leaf=-0.00194603764
					34:leaf=-0.0118974363
				22:leaf=-0.014994069
	2:[f64<0.5] yes=5,no=6,missing=5
		5:[f69<2.5] yes=11,no=12,missing=11
			11:[f51<2.5] yes=23,no=24,missing=23
				23:[f45<1.5] yes=35,no=36,missing=35
					35:leaf=-0.00807998981
					36:leaf=-0.00515619712
				24:[f74<1.5] yes=37,no=38,missing=37
					37:leaf=-0.00503179757
					38:leaf=0.000141147772
			12:leaf=-0.0134732742
		6:[f66<0.5] yes=13,no=14,missing=13
			13:[f4<0.5] yes=25,no=26,missing=25
				25:[f49<0.5] yes=39,no=40,missing=39
					39:leaf=-0.0117188506
					40:leaf=-0.00457205763
				26:leaf=-0.0036708829
			14:leaf=-0.0176875871
booster[16]:
0:[f59<0.5] yes=1,no=2,missing=1
	1:[f58<0.5] yes=3,no=4,missing=3
		3:[f36<0.5] yes=7,no=8,missing=7
			7:[f54<0.5] yes=15,no=16,missing=15
				15:leaf=0.00668032467
				16:[f35<1.5] yes=31,no=32,missing=31
					31:leaf=0.0273652859
					32:leaf=0.0100549376
			8:[f37<0.5] yes=17,no=18,missing=17
				17:[f35<1.5] yes=33,no=34,missing=33
					33:leaf=0.0169479474
					34:leaf=0.00230253348
				18:[f6<0.5] yes=35,no=36,missing=35
					35:leaf=-0.00043561557
					36:leaf=0.0122651635
		4:[f63<0.5] yes=9,no=10,missing=9
			9:[f40<1] yes=19,no=20,missing=19
				19:leaf=0.00541715464
				20:[f48<0.5] yes=37,no=38,missing=37
					37:leaf=0.00415124372
					38:leaf=0.00179279863
			10:[f49<0.5] yes=21,no=22,missing=21
				21:[f36<0.5] yes=39,no=40,missing=39
					39:leaf=0.00484314561
					40:leaf=-0.00418639788
				22:[f48<0.5] yes=41,no=42,missing=41
					41:leaf=0.000177399823
					42:leaf=-0.0109915603
	2:[f64<0.5] yes=5,no=6,missing=5
		5:[f60<3.5] yes=11,no=12,missing=11
			11:[f45<1.5] yes=23,no=24,missing=23
				23:[f51<2.5] yes=43,no=44,missing=43
					43:leaf=-0.00633099256
					44:leaf=-0.00327700423
				24:[f35<0.5] yes=45,no=46,missing=45
					45:leaf=-0.0001358226
					46:leaf=-0.00161213579
			12:[f65<2.5] yes=25,no=26,missing=25
				25:[f70<2.5] yes=47,no=48,missing=47
					47:leaf=-0.0145381112
					48:leaf=-0.0058682044
				26:[f70<2.5] yes=49,no=50,missing=49
					49:leaf=-0.00350946351
					50:leaf=-0.00615725806
		6:[f66<0.5] yes=13,no=14,missing=13
			13:[f4<0.5] yes=27,no=28,missing=27
				27:[f49<0.5] yes=51,no=52,missing=51
					51:leaf=-0.0106934514
					52:leaf=-0.00426725298
				28:leaf=-0.0034261581
			14:[f4<0.5] yes=29,no=30,missing=29
				29:[f27<0.5] yes=53,no=54,missing=53
					53:leaf=-0.0177711677
					54:leaf=-0.00464248797
				30:leaf=-0.00662151817
booster[17]:
0:[f59<0.5] yes=1,no=2,missing=1
	1:[f58<0.5] yes=3,no=4,missing=3
		3:[f38<0.5] yes=7,no=8,missing=7
			7:[f52<0.5] yes=15,no=16,missing=15
				15:[f45<1.5] yes=29,no=30,missing=29
					29:leaf=0.0156174423
					30:leaf=-0.00289575174
				16:[f52<1.5] yes=31,no=32,missing=31
					31:leaf=-0.000257281965
					32:leaf=0.00719948113
			8:[f54<0.5] yes=17,no=18,missing=17
				17:leaf=0.00563845038
				18:[f6<0.5] yes=33,no=34,missing=33
					33:leaf=0.0261223447
					34:leaf=0.00666112313
		4:[f63<0.5] yes=9,no=10,missing=9
			9:[f40<1] yes=19,no=20,missing=19
				19:leaf=0.00490730349
				20:[f73<0.5] yes=35,no=36,missing=35
					35:leaf=0.0037132029
					36:leaf=0.00152627728
			10:[f13<0.5] yes=21,no=22,missing=21
				21:[f31<0.5] yes=37,no=38,missing=37
					37:leaf=-0.00148139836
					38:leaf=-0.010598341
				22:leaf=-0.0136947874
	2:[f64<0.5] yes=5,no=6,missing=5
		5:[f69<2.5] yes=11,no=12,missing=11
			11:[f4<0.5] yes=23,no=24,missing=23
				23:[f45<1.5] yes=39,no=40,missing=39
					39:leaf=-0.00457970193
					40:leaf=-0.00124459388
				24:[f65<2.5] yes=41,no=42,missing=41
					41:leaf=-0.00881718844
					42:leaf=-0.0046446817
			12:leaf=-0.0118948454
		6:[f66<0.5] yes=13,no=14,missing=13
			13:[f4<0.5] yes=25,no=26,missing=25
				25:leaf=-0.00900105014
				26:leaf=-0.00319774705
			14:[f4<0.5] yes=27,no=28,missing=27
				27:[f27<0.5] yes=43,no=44,missing=43
					43:leaf=-0.0161556061
					44:leaf=-0.00441036373
				28:leaf=-0.00618008338
booster[18]:
0:[f59<0.5] yes=1,no=2,missing=1
	1:[f58<0.5] yes=3,no=4,missing=3
		3:[f36<0.5] yes=7,no=8,missing=7
			7:[f54<0.5] yes=15,no=16,missing=15
				15:leaf=0.00571738789
				16:[f35<1.5] yes=29,no=30,missing=29
					29:leaf=0.0235064663
					30:leaf=0.00877431035
			8:[f37<0.5] yes=17,no=18,missing=17
				17:[f35<1.5] yes=31,no=32,missing=31
					31:leaf=0.014339678
					32:leaf=0.00175227073
				18:[f6<0.5] yes=33,no=34,missing=33
					33:leaf=-0.000847038638
					34:leaf=0.0108710295
		4:[f43<1] yes=9,no=10,missing=9
			9:[f12<0.5] yes=19,no=20,missing=19
				19:[f31<0.5] yes=35,no=36,missing=35
					35:leaf=0.00372250448
					36:leaf=-0.00475658476
				20:leaf=-0.00461861258
			10:[f45<0.5] yes=21,no=22,missing=21
				21:[f38<1.5] yes=37,no=38,missing=37
					37:leaf=-0.00883905403
					38:leaf=0.000688238943
				22:[f39<0.5] yes=39,no=40,missing=39
					39:leaf=-0.00334593281
					40:leaf=0.0067412518
	2:[f64<0.5] yes=5,no=6,missing=5
		5:[f69<2.5] yes=11,no=12,missing=11
			11:[f71<2.5] yes=23,no=24,missing=23
				23:[f35<0.5] yes=41,no=42,missing=41
					41:leaf=-0.00360184466
					42:leaf=-0.00550447358
				24:[f8<0.5] yes=43,no=44,missing=43
					43:leaf=-0.00302819908
					44:leaf=-0.000590734184
			12:leaf=-0.0111018559
		6:[f66<0.5] yes=13,no=14,missing=13
			13:[f54<0.5] yes=25,no=26,missing=25
				25:leaf=-0.00446734997
				26:leaf=-0.00915130693
			14:[f4<0.5] yes=27,no=28,missing=27
				27:[f27<0.5] yes=45,no=46,missing=45
					45:leaf=-0.0146869142
					46:leaf=-0.00418984564
				28:leaf=-0.00576807838
booster[19]:
0:[f59<0.5] yes=1,no=2,missing=1
	1:[f58<0.5] yes=3,no=4,missing=3
		3:[f38<0.5] yes=7,no=8,missing=7
			7:[f30<0.5] yes=15,no=16,missing=15
				15:[f52<0.5] yes=29,no=30,missing=29
					29:leaf=0.013280605
					30:leaf=0.0042103068
				16:leaf=-0.0032008111
			8:[f54<0.5] yes=17,no=18,missing=17
				17:leaf=0.0048813941
				18:[f6<0.5] yes=31,no=32,missing=31
					31:leaf=0.0226293504
					32:leaf=0.00588935008
		4:[f43<1] yes=9,no=10,missing=9
			9:[f12<0.5] yes=19,no=20,missing=19
				19:[f31<0.5] yes=33,no=34,missing=33
					33:leaf=0.00335755455
					34:leaf=-0.00451875478
				20:leaf=-0.00427221647
			10:[f45<0.5] yes=21,no=22,missing=21
				21:[f47<0.5] yes=35,no=36,missing=35
					35:leaf=-0.0100082746
					36:leaf=-0.00234365161
				22:[f39<0.5] yes=37,no=38,missing=37
					37:leaf=-0.00306710484
					38:leaf=0.00623565866
	2:[f64<0.5] yes=5,no=6,missing=5
		5:[f69<2.5] yes=11,no=12,missing=11
			11:[f74<0.5] yes=23,no=24,missing=23
				23:[f49<1.5] yes=39,no=40,missing=39
					39:leaf=-0.00365236402
					40:leaf=0.00278415228
				24:[f54<0.5] yes=41,no=42,missing=41
					41:leaf=-0.00347455405
					42:leaf=-0.00781113794
			12:leaf=-0.010361732
		6:[f66<0.5] yes=13,no=14,missing=13
			13:[f54<0.5] yes=25,no=26,missing=25
				25:leaf=-0.004095071
				26:leaf=-0.00836690888
			14:[f38<0.5] yes=27,no=28,missing=27
				27:leaf=-0.0153298769
				28:leaf=-0.00877791177
booster[20]:
0:[f59<0.5] yes=1,no=2,missing=1
	1:[f58<0.5] yes=3,no=4,missing=3
		3:[f36<0.5] yes=7,no=8,missing=7
			7:[f54<0.5] yes=15,no=16,missing=15
				15:leaf=0.0049392553
				16:[f35<1.5] yes=29,no=30,missing=29
					29:leaf=0.0201895442
					30:leaf=0.00775848934
			8:[f37<0.5] yes=17,no=18,missing=17
				17:[f35<1.5] yes=31,no=32,missing=31
					31:leaf=0.0121845156
					32:leaf=0.00107832102
				18:[f6<0.5] yes=33,no=34,missing=33
					33:leaf=-0.00115496328
					34:leaf=0.00966344494
		4:[f43<1] yes=9,no=10,missing=9
			9:[f12<0.5] yes=19,no=20,missing=19
				19:[f31<0.5] yes=35,no=36,missing=35
					35:leaf=0.00302838488
					36:leaf=-0.00429281732
				20:[f35<1.5] yes=37,no=38,missing=37
					37:leaf=-0.0012031839
					38:leaf=-0.00446694344
			10:[f45<0.5] yes=21,no=22,missing=21
				21:[f47<0.5] yes=39,no=40,missing=39
					39:leaf=-0.00915042218
					40:leaf=-0.00214276672
				22:[f32<0.5] yes=41,no=42,missing=41
					41:leaf=0.00283068488
					42:leaf=-0.00822130963
	2:[f64<0.5] yes=5,no=6,missing=5
		5:[f69<2.5] yes=11,no=12,missing=11
			11:[f4<0.5] yes=23,no=24,missing=23
				23:[f45<1.5] yes=43,no=44,missing=43
					43:leaf=-0.00335074286
					44:leaf=-0.000548806216
				24:[f65<2.5] yes=45,no=46,missing=45
					45:leaf=-0.00736027909
					46:leaf=-0.00337200169
			12:leaf=-0.00967094954
		6:[f66<0.5] yes=13,no=14,missing=13
			13:[f39<0.5] yes=25,no=26,missing=25
				25:leaf=-0.00719582522
				26:leaf=-0.00282716914
			14:[f38<0.5] yes=27,no=28,missing=27
				27:leaf=-0.0140523864
				28:leaf=-0.00799765345
booster[21]:
0:[f59<0.5] yes=1,no=2,missing=1
	1:[f58<0.5] yes=3,no=4,missing=3
		3:[f38<0.5] yes=7,no=8,missing=7
			7:[f30<0.5] yes=15,no=16,missing=15
				15:[f52<0.5] yes=29,no=30,missing=29
					29:leaf=0.0111893639
					30:leaf=0.00343194162
				16:leaf=-0.00298302178
			8:[f54<0.5] yes=17,no=18,missing=17
				17:leaf=0.00422668643
				18:[f40<1] yes=31,no=32,missing=31
					31:leaf=0.0218027793
					32:leaf=0.00782593898
		4:[f43<1] yes=9,no=10,missing=9
			9:[f12<0.5] yes=19,no=20,missing=19
				19:[f31<0.5] yes=33,no=34,missing=33
					33:leaf=0.00273148366
					34:leaf=-0.0040781768
				20:[f35<1.5] yes=35,no=36,missing=35
					35:leaf=-0.00114302489
					36:leaf=-0.004169147
			10:[f45<0.5] yes=21,no=22,missing=21
				21:[f38<1.5] yes=37,no=38,missing=37
					37:leaf=-0.00696072727
					38:leaf=0.00143052742
				22:[f32<0.5] yes=39,no=40,missing=39
					39:leaf=0.00258300011
					40:leaf=-0.0078102448
	2:[f64<0.5] yes=5,no=6,missing=5
		5:[f69<2.5] yes=11,no=12,missing=11
			11:[f35<0.5] yes=23,no=24,missing=23
				23:[f71<1.5] yes=41,no=42,missing=41
					41:leaf=-0.000590481504
					42:leaf=-0.00308687589
				24:[f74<1.5] yes=43,no=44,missing=43
					43:leaf=-0.00327806338
					44:leaf=-0.00809400901
			12:leaf=-0.00902621914
		6:[f66<0.5] yes=13,no=14,missing=13
			13:[f54<0.5] yes=25,no=26,missing=25
				25:leaf=-0.00329978392
				26:leaf=-0.00709536904
			14:[f38<0.5] yes=27,no=28,missing=27
				27:leaf=-0.0128813554
				28:leaf=-0.00728675071
booster[22]:
0:[f59<0.5] yes=1,no=2,missing=1
	1:[f58<0.5] yes=3,no=4,missing=3
		3:[f38<0.5] yes=7,no=8,missing=7
			7:[f30<0.5] yes=15,no=16,missing=15
				15:[f52<0.5] yes=29,no=30,missing=29
					29:leaf=0.0102102971
					30:leaf=0.00311994925
				16:leaf=-0.00283387001
			8:[f54<0.5] yes=17,no=18,missing=17
				17:leaf=0.0039449078
				18:[f40<1] yes=31,no=32,missing=31
					31:leaf=0.0203492604
					32:leaf=0.00730420742
		4:[f43<1] yes=9,no=10,missing=9
			9:[f12<0.5] yes=19,no=20,missing=19
				19:[f31<0.5] yes=33,no=34,missing=33
					33:leaf=0.00246368954
					34:leaf=-0.00387426768
				20:leaf=-0.00346133974
			10:[f45<1.5] yes=21,no=22,missing=21
				21:[f17<0.5] yes=35,no=36,missing=35
					35:leaf=-0.00546257524
					36:leaf=0.00529633183
				22:[f29<0.5] yes=37,no=38,missing=37
					37:leaf=0.00296221091
					38:leaf=-0.00252522691
	2:[f64<0.5] yes=5,no=6,missing=5
		5:[f69<2.5] yes=11,no=12,missing=11
			11:[f74<0.5] yes=23,no=24,missing=23
				23:[f49<1.5] yes=39,no=40,missing=39
					39:leaf=-0.00270752236
					40:leaf=0.00317686214
				24:[f45<2] yes=41,no=42,missing=41
					41:leaf=-0.00532445079
					42:leaf=-0.00136823079
			12:leaf=-0.00842447113
		6:[f54<0.5] yes=13,no=14,missing=13
			13:[f39<1.5] yes=25,no=26,missing=25
				25:[f36<0.5] yes=43,no=44,missing=43
					43:leaf=-0.00547002116
					44:leaf=-0.00196900754
				26:leaf=-0.00112543709
			14:[f39<0.5] yes=27,no=28,missing=27
				27:[f13<0.5] yes=45,no=46,missing=45
					45:leaf=-0.00968716294
					46:leaf=-0.00240748236
				28:leaf=-0.00284252386
booster[23]:
0:[f59<0.5] yes=1,no=2,missing=1
	1:[f58<0.5] yes=3,no=4,missing=3
		3:[f36<0.5] yes=7,no=8,missing=7
			7:[f54<0.5] yes=15,no=16,missing=15
				15:leaf=0.00399643788
				16:[f35<1.5] yes=31,no=32,missing=31
					31:leaf=0.0160323139
					32:leaf=0.00647075474
			8:[f37<0.5] yes=17,no=18,missing=17
				17:[f35<1.5] yes=33,no=34,missing=33
					33:leaf=0.00998525415
					34:leaf=0.000134864458
				18:[f40<1] yes=35,no=36,missing=35
					35:leaf=0.00513162464
					36:leaf=-0.00354551221
		4:[f43<1] yes=9,no=10,missing=9
			9:[f12<0.5] yes=19,no=20,missing=19
				19:[f31<0.5] yes=37,no=38,missing=37
					37:leaf=0.00222215033
					38:leaf=-0.00368055399
				20:[f35<1.5] yes=39,no=40,missing=39
					39:leaf=-0.000912806427
					40:leaf=-0.00366044906
			10:[f13<0.5] yes=21,no=22,missing=21
				21:[f17<0.5] yes=41,no=42,missing=41
					41:leaf=-0.00228867284
					42:leaf=0.00503151584
				22:leaf=-0.0109889954
	2:[f61<2.5] yes=5,no=6,missing=5
		5:[f71<0.5] yes=11,no=12,missing=11
			11:[f45<2.5] yes=23,no=24,missing=23
				23:[f45<0.5] yes=43,no=44,missing=43
					43:leaf=-0.0022901569
					44:leaf=-0.00530496193
				24:[f70<2.5] yes=45,no=46,missing=45
					45:leaf=-0.00124851114
					46:leaf=-0.00359192048
			12:[f35<0.5] yes=25,no=26,missing=25
				25:leaf=-0.00217026263
				26:[f44<1] yes=47,no=48,missing=47
					47:leaf=-0.0110939993
					48:leaf=-0.00683918828
		6:[f54<0.5] yes=13,no=14,missing=13
			13:[f74<1.5] yes=27,no=28,missing=27
				27:[f49<0.5] yes=49,no=50,missing=49
					49:leaf=-0.000441855344
					50:leaf=-0.00423235586
				28:leaf=0.00174498954
			14:[f45<1.5] yes=29,no=30,missing=29
				29:[f74<0.5] yes=51,no=52,missing=51
					51:leaf=-0.00221378426
					52:leaf=-0.0046065147
				30:leaf=0.000488248479
booster[24]:
0:[f59<0.5] yes=1,no=2,missing=1
	1:[f58<0.5] yes=3,no=4,missing=3
		3:[f38<0.5] yes=7,no=8,missing=7
			7:[f27<0.5] yes=15,no=16,missing=15
				15:[f52<0.5] yes=29,no=30,missing=29
					29:leaf=0.00944667868
					30:leaf=0.002597732
				16:[f36<1.5] yes=31,no=32,missing=31
					31:leaf=0.00241693459
					32:leaf=-0.00420759944
			8:[f54<0.5] yes=17,no=18,missing=17
				17:leaf=0.00341548328
				18:[f40<1] yes=33,no=34,missing=33
					33:leaf=0.0179238208
					34:leaf=0.00626872806
		4:[f13<0.5] yes=9,no=10,missing=9
			9:[f31<0.5] yes=19,no=20,missing=19
				19:[f12<0.5] yes=35,no=36,missing=35
					35:leaf=0.00154964568
					36:leaf=-0.00305069773
				20:leaf=-0.00762808928
			10:leaf=-0.0104395458
	2:[f61<2.5] yes=5,no=6,missing=5
		5:[f71<0.5] yes=11,no=12,missing=11
			11:[f45<2.5] yes=21,no=22,missing=21
				21:[f70<2.5] yes=37,no=38,missing=37
					37:leaf=-0.00704665855
					38:leaf=-0.00344372285
				22:[f70<2.5] yes=39,no=40,missing=39
					39:leaf=-0.00113926665
					40:leaf=-0.00329259341
			12:[f39<0.5] yes=23,no=24,missing=23
				23:[f44<1] yes=41,no=42,missing=41
					41:leaf=-0.0113275303
					42:leaf=-0.00645078113
				24:[f37<0.5] yes=43,no=44,missing=43
					43:leaf=-0.00422090152
					44:leaf=-0.0010798414
		6:[f54<0.5] yes=13,no=14,missing=13
			13:[f74<1.5] yes=25,no=26,missing=25
				25:[f49<0.5] yes=45,no=46,missing=45
					45:leaf=-0.000401352503
					46:leaf=-0.00389376772
				26:leaf=0.00162865722
			14:[f65<1.5] yes=27,no=28,missing=27
				27:[f74<0.5] yes=47,no=48,missing=47
					47:leaf=-0.00209453469
					48:leaf=-0.00422263844
				28:[f8<0.5] yes=49,no=50,missing=49
					49:leaf=0.000463835895
					50:leaf=-0.000851570803
booster[25]:
0:[f59<0.5] yes=1,no=2,missing=1
	1:[f58<0.5] yes=3,no=4,missing=3
		3:[f38<0.5] yes=7,no=8,missing=7
			7:[f30<0.5] yes=15,no=16,missing=15
				15:[f52<0.5] yes=29,no=30,missing=29
					29:leaf=0.00807691645
					30:leaf=0.00220275158
				16:leaf=-0.00298723578
			8:[f54<0.5] yes=17,no=18,missing=17
				17:leaf=0.00318778562
				18:[f40<1] yes=31,no=32,missing=31
					31:leaf=0.0167288985
					32:leaf=0.00585081195
		4:[f13<0.5] yes=9,no=10,missing=9
			9:[f31<0.5] yes=19,no=20,missing=19
				19:[f32<0.5] yes=33,no=34,missing=33
					33:leaf=0.00125753123
					34:leaf=-0.00455764448
				20:leaf=-0.00711955084
			10:leaf=-0.00991756842
	2:[f61<2.5] yes=5,no=6,missing=5
		5:[f70<1.5] yes=11,no=12,missing=11
			11:[f39<0.5] yes=21,no=22,missing=21
				21:[f44<1] yes=35,no=36,missing=35
					35:leaf=-0.0103987865
					36:leaf=-0.00585945975
				22:[f49<1.5] yes=37,no=38,missing=37
					37:leaf=-0.00166902528
					38:leaf=-0.0046981927
			12:[f45<2.5] yes=23,no=24,missing=23
				23:[f70<2.5] yes=39,no=40,missing=39
					39:leaf=-0.00613700878
					40:leaf=-0.00313065737
				24:[f70<2.5] yes=41,no=42,missing=41
					41:leaf=-0.000457566144
					42:leaf=-0.00301821064
		6:[f54<0.5] yes=13,no=14,missing=13
			13:[f74<1.5] yes=25,no=26,missing=25
				25:[f49<0.5] yes=43,no=44,missing=43
					43:leaf=-0.000364562235
					44:leaf=-0.00358226686
				26:leaf=0.00152007944
			14:[f45<1.5] yes=27,no=28,missing=27
				27:[f74<0.5] yes=45,no=46,missing=45
					45:leaf=-0.00187547377
					46:leaf=-0.00387075241
				28:leaf=0.000440643722
booster[26]:
0:[f59<0.5] yes=1,no=2,missing=1
	1:[f58<0.5] yes=3,no=4,missing=3
		3:[f38<0.5] yes=7,no=8,missing=7
			7:[f27<0.5] yes=15,no=16,missing=15
				15:[f52<0.5] yes=27,no=28,missing=27
					27:leaf=0.00810271967
					28:leaf=0.00216569006
				16:[f36<1.5] yes=29,no=30,missing=29
					29:leaf=0.00191315205
					30:leaf=-0.00440106401
			8:[f54<0.5] yes=17,no=18,missing=17
				17:leaf=0.00297526713
				18:[f40<1] yes=31,no=32,missing=31
					31:leaf=0.0156136397
					32:leaf=0.00546075916
		4:[f43<1] yes=9,no=10,missing=9
			9:[f12<0.5] yes=19,no=20,missing=19
				19:[f54<0.5] yes=33,no=34,missing=33
					33:leaf=0.00125870749
					34:leaf=0.00524702668
				20:[f35<1.5] yes=35,no=36,missing=35
					35:leaf=-0.000777508307
					36:leaf=-0.00329687633
			10:[f13<0.5] yes=21,no=22,missing=21
				21:[f17<0.5] yes=37,no=38,missing=37
					37:leaf=-0.00205673277
					38:leaf=0.00463958085
				22:leaf=-0.00942169037
	2:[f64<0.5] yes=5,no=6,missing=5
		5:[f69<2.5] yes=11,no=12,missing=11
			11:[f74<0.5] yes=23,no=24,missing=23
				23:[f49<1.5] yes=39,no=40,missing=39
					39:leaf=-0.00183741306
					40:leaf=0.00361198606
				24:[f54<0.5] yes=41,no=42,missing=41
					41:leaf=-0.00162872102
					42:leaf=-0.00486629782
			12:leaf=-0.00637285132
		6:[f4<0.5] yes=13,no=14,missing=13
			13:[f43<3] yes=25,no=26,missing=25
				25:[f11<0.5] yes=43,no=44,missing=43
					43:leaf=-0.00544809457
					44:leaf=-0.00189777673
				26:leaf=-0.0105145574
			14:leaf=-0.00207259925
booster[27]:
0:[f59<0.5] yes=1,no=2,missing=1
	1:[f58<0.5] yes=3,no=4,missing=3
		3:[f38<0.5] yes=7,no=8,missing=7
			7:[f30<0.5] yes=15,no=16,missing=15
				15:[f52<0.5] yes=29,no=30,missing=29
					29:leaf=0.00689486368
					30:leaf=0.00180791784
				16:leaf=-0.00324301119
			8:[f54<0.5] yes=17,no=18,missing=17
				17:leaf=0.00277691684
				18:[f40<1] yes=31,no=32,missing=31
					31:leaf=0.0145727275
					32:leaf=0.00509670982
		4:[f13<0.5] yes=9,no=10,missing=9
			9:[f31<0.5] yes=19,no=20,missing=19
				19:[f12<0.5] yes=33,no=34,missing=33
					33:leaf=0.00121884816
					34:leaf=-0.00269882055
				20:leaf=-0.00661831303
			10:leaf=-0.00895060506
	2:[f61<2.5] yes=5,no=6,missing=5
		5:[f66<0.5] yes=11,no=12,missing=11
			11:[f54<0.5] yes=21,no=22,missing=21
				21:[f70<2.5] yes=35,no=36,missing=35
					35:leaf=-0.00104460621
					36:leaf=-0.00271664583
				22:[f74<0.5] yes=37,no=38,missing=37
					37:leaf=-0.00215709931
					38:leaf=-0.0062294174
			12:[f38<0.5] yes=23,no=24,missing=23
				23:[f40<5] yes=39,no=40,missing=39
					39:leaf=-0.00871384051
					40:leaf=-0.00211246544
				24:[f40<3] yes=41,no=42,missing=41
					41:leaf=-0.00452349894
					42:leaf=-0.00139697234
		6:[f54<0.5] yes=13,no=14,missing=13
			13:[f74<1.5] yes=25,no=26,missing=25
				25:[f69<0.5] yes=43,no=44,missing=43
					43:leaf=-0.000404452643
					44:leaf=-0.00403210102
				26:leaf=0.00152732327
			14:[f45<1.5] yes=27,no=28,missing=27
				27:[f74<0.5] yes=45,no=46,missing=45
					45:leaf=-0.00156606757
					46:leaf=-0.00314266421
				28:leaf=0.000510481012
booster[28]:
0:[f59<0.5] yes=1,no=2,missing=1
	1:[f58<0.5] yes=3,no=4,missing=3
		3:[f36<0.5] yes=7,no=8,missing=7
			7:[f45<0.5] yes=15,no=16,missing=15
				15:[f52<1.5] yes=29,no=30,missing=29
					29:leaf=0.0125190411
					30:leaf=0.00413821964
				16:[f29<0.5] yes=31,no=32,missing=31
					31:leaf=0.0041707973
					32:leaf=0.0011446923
			8:[f37<0.5] yes=17,no=18,missing=17
				17:[f35<1.5] yes=33,no=34,missing=33
					33:leaf=0.00739869848
					34:leaf=-0.000796502864
				18:[f40<1] yes=35,no=36,missing=35
					35:leaf=0.0035058558
					36:leaf=-0.00394100696
		4:[f13<0.5] yes=9,no=10,missing=9
			9:[f31<0.5] yes=19,no=20,missing=19
				19:[f32<0.5] yes=37,no=38,missing=37
					37:leaf=0.000990362139
					38:leaf=-0.00415298156
				20:leaf=-0.00617709337
			10:leaf=-0.00850307476
	2:[f61<2.5] yes=5,no=6,missing=5
		5:[f66<0.5] yes=11,no=12,missing=11
			11:[f54<0.5] yes=21,no=22,missing=21
				21:[f70<2.5] yes=39,no=40,missing=39
					39:leaf=-0.00095059193
					40:leaf=-0.00246967818
				22:[f74<0.5] yes=41,no=42,missing=41
					41:leaf=-0.00197220501
					42:leaf=-0.00571029959
			12:[f38<0.5] yes=23,no=24,missing=23
				23:[f40<5] yes=43,no=44,missing=43
					43:leaf=-0.00796693936
					44:leaf=-0.00200684229
				24:[f40<3] yes=45,no=46,missing=45
					45:leaf=-0.00413577026
					46:leaf=-0.00130384089
		6:[f54<0.5] yes=13,no=14,missing=13
			13:[f74<1.5] yes=25,no=26,missing=25
				25:[f49<0.5] yes=47,no=48,missing=47
					47:leaf=-0.00012737923
					48:leaf=-0.00297957752
				26:leaf=0.00142550271
			14:[f65<1.5] yes=27,no=28,missing=27
				27:leaf=-0.00248079305
				28:[f8<0.5] yes=49,no=50,missing=49
					49:leaf=0.000484956807
					50:leaf=-0.000545044255
booster[29]:
0:[f59<0.5] yes=1,no=2,missing=1
	1:[f58<0.5] yes=3,no=4,missing=3
		3:[f38<1.5] yes=7,no=8,missing=7
			7:[f27<0.5] yes=15,no=16,missing=15
				15:[f30<0.5] yes=27,no=28,missing=27
					27:leaf=0.00499322079
					28:leaf=-0.00288380985
				16:[f36<1.5] yes=29,no=30,missing=29
					29:leaf=0.00140520337
					30:leaf=-0.00432870397
			8:leaf=0.0128743825
		4:[f13<0.5] yes=9,no=10,missing=9
			9:[f31<0.5] yes=17,no=18,missing=17
				17:[f60<0.5] yes=31,no=32,missing=31
					31:leaf=0.00230816356
					32:leaf=-0.000186970792
				18:leaf=-0.00576528674
			10:leaf=-0.00807792135
	2:[f61<2.5] yes=5,no=6,missing=5
		5:[f65<2.5] yes=11,no=12,missing=11
			11:[f70<2.5] yes=19,no=20,missing=19
				19:[f39<0.5] yes=33,no=34,missing=33
					33:leaf=-0.00594278099
					34:leaf=-0.00199846621
				20:[f65<0.5] yes=35,no=36,missing=35
					35:leaf=-0.00297621335
					36:leaf=0.000698306656
			12:[f70<2.5] yes=21,no=22,missing=21
				21:[f70<1.5] yes=37,no=38,missing=37
					37:leaf=-0.00185570575
					38:leaf=-0.000107724329
				22:leaf=-0.00216534943
		6:[f54<0.5] yes=13,no=14,missing=13
			13:[f74<1.5] yes=23,no=24,missing=23
				23:[f69<0.5] yes=39,no=40,missing=39
					39:leaf=-0.000314323406
					40:leaf=-0.00356465578
				24:[f46<2.5] yes=41,no=42,missing=41
					41:leaf=0.00158097746
					42:leaf=0.00041472615
			14:[f45<1.5] yes=25,no=26,missing=25
				25:[f74<0.5] yes=43,no=44,missing=43
					43:leaf=-0.00126109051
					44:leaf=-0.00267404271
				26:leaf=0.000460709649
booster[30]:
0:[f59<0.5] yes=1,no=2,missing=1
	1:[f58<0.5] yes=3,no=4,missing=3
		3:[f38<1.5] yes=7,no=8,missing=7
			7:[f27<0.5] yes=15,no=16,missing=15
				15:[f30<0.5] yes=29,no=30,missing=29
					29:leaf=0.004518867
					30:leaf=-0.00273962016
				16:[f36<1.5] yes=31,no=32,missing=31
					31:leaf=0.00131152465
					32:leaf=-0.0041122674
			8:leaf=0.0122306645
		4:[f43<1] yes=9,no=10,missing=9
			9:[f35<1.5] yes=17,no=18,missing=17
				17:[f31<0.5] yes=33,no=34,missing=33
					33:leaf=0.00234834873
					34:leaf=-0.00189404562
				18:[f70<1.5] yes=35,no=36,missing=35
					35:leaf=-0.00207600021
					36:leaf=0.00130235334
			10:[f45<1.5] yes=19,no=20,missing=19
				19:[f17<0.5] yes=37,no=38,missing=37
					37:leaf=-0.00397544121
					38:leaf=0.00418173382
				20:[f29<0.5] yes=39,no=40,missing=39
					39:leaf=0.00275706546
					40:leaf=-0.00242316583
	2:[f61<2.5] yes=5,no=6,missing=5
		5:[f66<0.5] yes=11,no=12,missing=11
			11:[f69<2.5] yes=21,no=22,missing=21
				21:[f39<0.5] yes=41,no=42,missing=41
					41:leaf=-0.00209700502
					42:leaf=-0.000508319121
				22:leaf=-0.00511506107
			12:[f43<3] yes=23,no=24,missing=23
				23:[f54<1.5] yes=43,no=44,missing=43
					43:leaf=-0.0044364878
					44:leaf=-0.00158185919
				24:leaf=-0.00830534939
		6:[f54<0.5] yes=13,no=14,missing=13
			13:[f74<1.5] yes=25,no=26,missing=25
				25:[f69<0.5] yes=45,no=46,missing=45
					45:leaf=-0.000285136077
					46:leaf=-0.00332701206
				26:[f46<2.5] yes=47,no=48,missing=47
					47:leaf=0.00150192832
					48:leaf=0.0003939897
			14:[f65<1.5] yes=27,no=28,missing=27
				27:[f8<0.5] yes=49,no=50,missing=49
					49:leaf=-0.00156391936
					50:leaf=-0.00332924235
				28:[f8<0.5] yes=51,no=52,missing=51
					51:leaf=0.000437673938
					52:leaf=-0.000454738009
booster[31]:
0:[f59<0.5] yes=1,no=2,missing=1
	1:[f58<0.5] yes=3,no=4,missing=3
		3:[f38<1.5] yes=7,no=8,missing=7
			7:[f27<0.5] yes=15,no=16,missing=15
				15:[f52<0.5] yes=27,no=28,missing=27
					27:leaf=0.00602877093
					28:leaf=0.00171748269
				16:[f36<1.5] yes=29,no=30,missing=29
					29:leaf=0.00122408872
					30:leaf=-0.00390665559
			8:leaf=0.0116191329
		4:[f13<0.5] yes=9,no=10,missing=9
			9:[f31<0.5] yes=17,no=18,missing=17
				17:[f12<0.5] yes=31,no=32,missing=31
					31:leaf=0.000907598063
					32:leaf=-0.0023958094
				18:leaf=-0.00518528465
			10:leaf=-0.00747525319
	2:[f35<0.5] yes=5,no=6,missing=5
		5:[f74<1.5] yes=11,no=12,missing=11
			11:[f69<0.5] yes=19,no=20,missing=19
				19:[f51<2.5] yes=33,no=34,missing=33
					33:leaf=-0.000929349742
					34:leaf=-6.73808972e-05
				20:[f40<1] yes=35,no=36,missing=35
					35:leaf=-0.00315522891
					36:leaf=-0.000707773899
			12:[f51<2.5] yes=21,no=22,missing=21
				21:leaf=-0.000350917893
				22:[f46<2.5] yes=37,no=38,missing=37
					37:leaf=0.0014268324
					38:leaf=0.000374290365
		6:[f70<1.5] yes=13,no=14,missing=13
			13:[f43<3] yes=23,no=24,missing=23
				23:[f71<1.5] yes=39,no=40,missing=39
					39:leaf=-0.00379789853
					40:leaf=-0.000878487888
				24:leaf=-0.00775165949
			14:[f69<0.5] yes=25,no=26,missing=25
				25:[f74<0.5] yes=41,no=42,missing=41
					41:leaf=-0.00143989036
					42:leaf=8.12526268e-05
				26:[f70<2.5] yes=43,no=44,missing=43
					43:leaf=-0.00514518563
					44:leaf=-0.00185881637
booster[32]:
0:[f59<0.5] yes=1,no=2,missing=1
	1:[f58<0.5] yes=3,no=4,missing=3
		3:[f38<1.5] yes=7,no=8,missing=7
			7:[f45<1.5] yes=15,no=16,missing=15
				15:[f52<0.5] yes=27,no=28,missing=27
					27:leaf=0.00588763272
					28:leaf=0.00132292695
				16:[f27<0.5] yes=29,no=30,missing=29
					29:leaf=0.000980977318
					30:leaf=-0.00371132209
			8:leaf=0.0110381786
		4:[f13<0.5] yes=9,no=10,missing=9
			9:[f31<0.5] yes=17,no=18,missing=17
				17:[f32<0.5] yes=31,no=32,missing=31
					31:leaf=0.000733107736
					32:leaf=-0.00372215244
				18:leaf=-0.00483959867
			10:leaf=-0.00710149063
	2:[f61<2.5] yes=5,no=6,missing=5
		5:[f65<2.5] yes=11,no=12,missing=11
			11:[f39<0.5] yes=19,no=20,missing=19
				19:[f70<2.5] yes=33,no=34,missing=33
					33:leaf=-0.00461831875
					34:leaf=-0.00177002011
				20:[f49<1.5] yes=35,no=36,missing=35
					35:leaf=-0.000442546007
					36:leaf=-0.00259053358
			12:[f70<2.5] yes=21,no=22,missing=21
				21:[f70<1.5] yes=37,no=38,missing=37
					37:leaf=-0.00146817497
					38:leaf=7.42878256e-05
				22:leaf=-0.00167658576
		6:[f54<0.5] yes=13,no=14,missing=13
			13:[f71<1.5] yes=23,no=24,missing=23
				23:[f8<0.5] yes=39,no=40,missing=39
					39:leaf=0.00116916525
					40:leaf=-0.000395801151
				24:[f49<0.5] yes=41,no=42,missing=41
					41:leaf=-1.50744618e-05
					42:leaf=-0.00289015449
			14:[f45<1.5] yes=25,no=26,missing=25
				25:[f74<0.5] yes=43,no=44,missing=43
					43:leaf=-0.000962745864
					44:leaf=-0.00213874388
				26:leaf=0.000462257856
booster[33]:
0:[f59<0.5] yes=1,no=2,missing=1
	1:[f58<0.5] yes=3,no=4,missing=3
		3:[f38<0.5] yes=7,no=8,missing=7
			7:[f9<0.5] yes=15,no=16,missing=15
				15:[f51<0.5] yes=25,no=26,missing=25
					25:leaf=0.00305662444
					26:leaf=-0.00159576314
				16:leaf=0.00668817153
			8:[f54<0.5] yes=17,no=18,missing=17
				17:[f7<0.5] yes=27,no=28,missing=27
					27:leaf=0.000261366367
					28:leaf=0.00190845726
				18:[f40<1] yes=29,no=30,missing=29
					29:leaf=0.0104602538
					30:leaf=0.0035344481
		4:[f13<0.5] yes=9,no=10,missing=9
			9:[f31<0.5] yes=19,no=20,missing=19
				19:[f60<0.5] yes=31,no=32,missing=31
					31:leaf=0.00183615403
					32:leaf=-0.000249806122
				20:[f36<1] yes=33,no=34,missing=33
					33:leaf=-0.00129809906
					34:leaf=-0.00547733856
			10:leaf=-0.00674641598
	2:[f43<3] yes=5,no=6,missing=5
		5:[f35<0.5] yes=11,no=12,missing=11
			11:[f74<1.5] yes=21,no=22,missing=21
				21:[f69<0.5] yes=35,no=36,missing=35
					35:leaf=-0.000399232289
					36:leaf=-0.00209848839
				22:[f51<2.5] yes=37,no=38,missing=37
					37:leaf=-0.00022643432
					38:leaf=0.00106276572
			12:[f45<1.5] yes=23,no=24,missing=23
				23:[f74<0.5] yes=39,no=40,missing=39
					39:leaf=-0.00126331847
					40:leaf=-0.00351167703
				24:[f70<2.5] yes=41,no=42,missing=41
					41:leaf=-0.000212311264
					42:leaf=-0.00156340562
		6:[f4<0.5] yes=13,no=14,missing=13
			13:leaf=-0.00692699337
			14:leaf=-0.000425887119
booster[34]:
0:[f59<0.5] yes=1,no=2,missing=1
	1:[f58<0.5] yes=3,no=4,missing=3
		3:[f38<1.5] yes=7,no=8,missing=7
			7:[f30<0.5] yes=15,no=16,missing=15
				15:[f52<0.5] yes=25,no=26,missing=25
					25:leaf=0.00459674885
					26:leaf=0.00112436281
				16:leaf=-0.00335129211
			8:leaf=0.00996325631
		4:[f43<1] yes=9,no=10,missing=9
			9:[f48<1.5] yes=17,no=18,missing=17
				17:[f54<0.5] yes=27,no=28,missing=27
					27:leaf=0.000770503189
					28:leaf=0.0043068598
				18:[f41<1] yes=29,no=30,missing=29
					29:leaf=-0.00315146195
					30:leaf=0.00163906661
			10:[f60<0.5] yes=19,no=20,missing=19
				19:[f39<0.5] yes=31,no=32,missing=31
					31:leaf=-0.00142608362
					32:leaf=0.00523395138
				20:[f44<1] yes=33,no=34,missing=33
					33:leaf=-0.00546025811
					34:leaf=0.000382876664
	2:[f43<3] yes=5,no=6,missing=5
		5:[f35<0.5] yes=11,no=12,missing=11
			11:[f74<1.5] yes=21,no=22,missing=21
				21:[f69<0.5] yes=35,no=36,missing=35
					35:leaf=-0.000361804297
					36:leaf=-0.00192361453
				22:[f46<2.5] yes=37,no=38,missing=37
					37:leaf=0.00124389236
					38:leaf=1.92448497e-05
			12:[f45<1.5] yes=23,no=24,missing=23
				23:[f74<0.5] yes=39,no=40,missing=39
					39:leaf=-0.00114601001
					40:leaf=-0.00318001839
				24:[f70<2.5] yes=41,no=42,missing=41
					41:leaf=-0.000193439104
					42:leaf=-0.00142269966
		6:[f4<0.5] yes=13,no=14,missing=13
			13:leaf=-0.00646519428
			14:leaf=-0.00040459336
booster[35]:
0:[f59<0.5] yes=1,no=2,missing=1
	1:[f58<0.5] yes=3,no=4,missing=3
		3:[f38<1.5] yes=7,no=8,missing=7
			7:[f30<0.5] yes=15,no=16,missing=15
				15:[f45<1.5] yes=21,no=22,missing=21
					21:leaf=0.00308093033
					22:leaf=-0.00137719815
				16:leaf=-0.00318372855
			8:leaf=0.00946509279
		4:[f13<0.5] yes=9,no=10,missing=9
			9:[f31<0.5] yes=17,no=18,missing=17
				17:[f32<0.5] yes=23,no=24,missing=23
					23:leaf=0.000599896011
					24:leaf=-0.00332074286
				18:[f36<1] yes=25,no=26,missing=25
					25:leaf=-0.00127171946
					26:leaf=-0.0051321676
			10:leaf=-0.00613608165
	2:[f43<3] yes=5,no=6,missing=5
		5:[f69<2.5] yes=11,no=12,missing=11
			11:[f18<0.5] yes=19,no=20,missing=19
				19:[f66<1.5] yes=27,no=28,missing=27
					27:leaf=-0.00107001304
					28:leaf=-0.0027649668
				20:[f71<1.5] yes=29,no=30,missing=29
					29:leaf=0.000400975347
					30:leaf=-0.000964429637
			12:leaf=-0.00406918721
		6:[f4<0.5] yes=13,no=14,missing=13
			13:leaf=-0.00603418192
			14:leaf=-0.00038436355
booster[36]:
0:[f59<0.5] yes=1,no=2,missing=1
	1:[f58<0.5] yes=3,no=4,missing=3
		3:[f38<0.5] yes=7,no=8,missing=7
			7:[f9<0.5] yes=15,no=16,missing=15
				15:[f51<0.5] yes=23,no=24,missing=23
					23:leaf=0.00243991241
					24:leaf=-0.00189858675
				16:leaf=0.00596988201
			8:[f54<0.5] yes=17,no=18,missing=17
				17:[f7<0.5] yes=25,no=26,missing=25
					25:leaf=8.73208046e-05
					26:leaf=0.0016027689
				18:[f6<0.5] yes=27,no=28,missing=27
					27:leaf=0.00802341755
					28:leaf=0.00176991231
		4:[f13<0.5] yes=9,no=10,missing=9
			9:[f31<0.5] yes=19,no=20,missing=19
				19:[f12<0.5] yes=29,no=30,missing=29
					29:leaf=0.000650614034
					30:leaf=-0.00215790444
				20:[f36<1] yes=31,no=32,missing=31
					31:leaf=-0.0012081333
					32:leaf=-0.00487555889
			10:leaf=-0.00582927791
	2:[f43<3] yes=5,no=6,missing=5
		5:[f69<2.5] yes=11,no=12,missing=11
			11:[f74<0.5] yes=21,no=22,missing=21
				21:[f69<1.5] yes=33,no=34,missing=33
					33:leaf=-0.000901413092
					34:leaf=0.00406319601
				22:[f45<2] yes=35,no=36,missing=35
					35:leaf=-0.00191372936
					36:leaf=-0.000160132535
			12:leaf=-0.00379790808
		6:[f4<0.5] yes=13,no=14,missing=13
			13:leaf=-0.00563190179
			14:leaf=-0.000365145504
booster[37]:
0:[f59<0.5] yes=1,no=2,missing=1
	1:[f58<0.5] yes=3,no=4,missing=3
		3:[f38<1.5] yes=7,no=8,missing=7
			7:[f30<0.5] yes=15,no=16,missing=15
				15:[f52<0.5] yes=21,no=22,missing=21
					21:leaf=0.00383787649
					22:leaf=0.000633992022
				16:leaf=-0.00314653828
			8:leaf=0.00859066844
		4:[f13<0.5] yes=9,no=10,missing=9
			9:[f31<0.5] yes=17,no=18,missing=17
				17:[f60<0.5] yes=23,no=24,missing=23
					23:leaf=0.00148577325
					24:leaf=-0.000271125318
				18:[f36<1] yes=25,no=26,missing=25
					25:leaf=-0.0011477269
					26:leaf=-0.00463178148
			10:leaf=-0.005537814
	2:[f43<3] yes=5,no=6,missing=5
		5:[f69<2.5] yes=11,no=12,missing=11
			11:[f35<0.5] yes=19,no=20,missing=19
				19:[f74<1.5] yes=27,no=28,missing=27
					27:leaf=-0.000555243751
					28:leaf=0.000717777002
				20:[f74<1.5] yes=29,no=30,missing=29
					29:leaf=-0.00104133366
					30:leaf=-0.00331000797
			12:leaf=-0.0035447143
		6:[f4<0.5] yes=13,no=14,missing=13
			13:leaf=-0.00525644235
			14:leaf=-0.000346888613
booster[38]:
0:[f59<0.5] yes=1,no=2,missing=1
	1:[f58<0.5] yes=3,no=4,missing=3
		3:[f38<1.5] yes=7,no=8,missing=7
			7:[f30<0.5] yes=15,no=16,missing=15
				15:[f45<1.5] yes=23,no=24,missing=23
					23:leaf=0.00244829408
					24:leaf=-0.00149736402
				16:leaf=-0.00298921182
			8:leaf=0.00816113409
		4:[f43<1] yes=9,no=10,missing=9
			9:[f73<0.5] yes=17,no=18,missing=17
				17:[f38<0.5] yes=25,no=26,missing=25
					25:leaf=0.000904675107
					26:leaf=0.00382934394
				18:[f50<2] yes=27,no=28,missing=27
					27:leaf=-0.00116934918
					28:leaf=0.00155420904
			10:[f60<0.5] yes=19,no=20,missing=19
				19:[f39<0.5] yes=29,no=30,missing=29
					29:leaf=-0.00117814238
					30:leaf=0.00470260391
				20:[f44<1] yes=31,no=32,missing=31
					31:leaf=-0.00475303503
					32:leaf=0.000409780216
	2:[f43<3] yes=5,no=6,missing=5
		5:[f69<2.5] yes=11,no=12,missing=11
			11:[f42<1] yes=21,no=22,missing=21
				21:[f74<0.5] yes=33,no=34,missing=33
					33:leaf=-0.000269643555
					34:leaf=-0.0010402163
				22:[f39<0.5] yes=35,no=36,missing=35
					35:leaf=-0.0019452984
					36:leaf=-9.76158335e-05
			12:leaf=-0.00330840028
		6:[f4<0.5] yes=13,no=14,missing=13
			13:leaf=-0.00490601268
			14:leaf=-0.000329543662
booster[39]:
0:[f59<0.5] yes=1,no=2,missing=1
	1:[f12<0.5] yes=3,no=4,missing=3
		3:[f54<0.5] yes=7,no=8,missing=7
			7:[f74<0.5] yes=15,no=16,missing=15
				15:[f31<0.5] yes=23,no=24,missing=23
					23:leaf=0.000674809562
					24:leaf=-0.00358210481
				16:[f20<0.5] yes=25,no=26,missing=25
					25:leaf=-0.00514185522
					26:leaf=0.00341848144
			8:[f13<0.5] yes=17,no=18,missing=17
				17:[f61<1.5] yes=27,no=28,missing=27
					27:leaf=0.00429485878
					28:leaf=1.73304234e-05
				18:leaf=-0.00424563698
		4:[f35<1.5] yes=9,no=10,missing=9
			9:[f35<0.5] yes=19,no=20,missing=19
				19:leaf=0.00130161492
				20:leaf=-0.000513990759
			10:leaf=-0.0035940737
	2:[f43<3] yes=5,no=6,missing=5
		5:[f69<2.5] yes=11,no=12,missing=11
			11:[f35<0.5] yes=21,no=22,missing=21
				21:[f71<1.5] yes=29,no=30,missing=29
					29:leaf=0.000336207682
					30:leaf=-0.000596869562
				22:[f74<1.5] yes=31,no=32,missing=31
					31:leaf=-0.000845731061
					32:leaf=-0.002983741
			12:leaf=-0.00308784004
		6:[f4<0.5] yes=13,no=14,missing=13
			13:leaf=-0.00457894616
			14:leaf=-0.000313065946
booster[40]:
0:[f1<0.5] yes=1,no=2,missing=1
	1:[f55<0.5] yes=3,no=4,missing=3
		3:[f49<0.5] yes=7,no=8,missing=7
			7:[f9<0.5] yes=11,no=12,missing=11
				11:[f42<1] yes=19,no=20,missing=19
					19:leaf=9.96123199e-05
					20:leaf=-0.0015778871
				12:leaf=0.00535621634
			8:[f74<0.5] yes=13,no=14,missing=13
				13:[f69<1.5] yes=21,no=22,missing=21
					21:leaf=-0.000689329987
					22:leaf=0.00125674566
				14:[f10<0.5] yes=23,no=24,missing=23
					23:leaf=-0.00331217656
					24:leaf=0.00298463996
		4:[f43<1] yes=9,no=10,missing=9
			9:[f38<0.5] yes=15,no=16,missing=15
				15:leaf=-0.00251660938
				16:[f29<0.5] yes=25,no=26,missing=25
					25:leaf=0.00221501989
					26:leaf=-6.78092256e-05
			10:[f27<0.5] yes=17,no=18,missing=17
				17:leaf=0.00392682059
				18:leaf=0.00105420349
	2:[f35<0.5] yes=5,no=6,missing=5
		5:leaf=0.00753833074
		6:leaf=8.20279165e-05
booster[41]:
0:[f1<0.5] yes=1,no=2,missing=1
	1:[f55<0.5] yes=3,no=4,missing=3
		3:[f49<0.5] yes=7,no=8,missing=7
			7:[f9<0.5] yes=11,no=12,missing=11
				11:[f73<1.5] yes=17,no=18,missing=17
					17:leaf=3.99885539e-05
					18:leaf=-0.00185785873
				12:leaf=0.00508840708
			8:[f48<0.5] yes=13,no=14,missing=13
				13:[f74<1.5] yes=19,no=20,missing=19
					19:leaf=-0.00113857549
					20:leaf=0.0028384428
				14:[f60<0.5] yes=21,no=22,missing=21
					21:leaf=0.000300287094
					22:leaf=-0.00446285494
		4:[f12<0.5] yes=9,no=10,missing=9
			9:[f42<2.5] yes=15,no=16,missing=15
				15:leaf=0.00333366613
				16:[f13<0.5] yes=23,no=24,missing=23
					23:leaf=-6.44177198e-05
					24:leaf=-0.00100707111
			10:leaf=-0.00251618028
	2:[f35<0.5] yes=5,no=6,missing=5
		5:leaf=0.00716141472
		6:leaf=7.7927114e-05
booster[42]:
0:[f1<0.5] yes=1,no=2,missing=1
	1:[f55<0.5] yes=3,no=4,missing=3
		3:[f9<0.5] yes=7,no=8,missing=7
			7:[f17<0.5] yes=11,no=12,missing=11
				11:[f45<1.5] yes=15,no=16,missing=15
					15:leaf=-0.0011157071
					16:leaf=0.000295200676
				12:[f48<0.5] yes=17,no=18,missing=17
					17:leaf=0.000382961327
					18:leaf=0.00173495652
			8:leaf=0.00483398465
		4:[f12<0.5] yes=9,no=10,missing=9
			9:[f42<2.5] yes=13,no=14,missing=13
				13:[f27<0.5] yes=19,no=20,missing=19
					19:leaf=0.00318519142
					20:leaf=0.000834810722
				14:[f13<0.5] yes=21,no=22,missing=21
					21:leaf=-6.11960932e-05
					22:leaf=-0.000956717122
			10:leaf=-0.00239036977
	2:[f35<0.5] yes=5,no=6,missing=5
		5:leaf=0.00680334587
		6:leaf=7.40289688e-05
booster[43]:
0:[f1<0.5] yes=1,no=2,missing=1
	1:[f55<0.5] yes=3,no=4,missing=3
		3:[f9<0.5] yes=7,no=8,missing=7
			7:[f17<0.5] yes=11,no=12,missing=11
				11:[f43<3] yes=15,no=16,missing=15
					15:leaf=-0.000395151525
					16:leaf=-0.00247055665
				12:[f38<0.5] yes=17,no=18,missing=17
					17:leaf=0.000694348826
					18:leaf=0.00303769554
			8:leaf=0.00459228782
		4:[f12<0.5] yes=9,no=10,missing=9
			9:[f42<2.5] yes=13,no=14,missing=13
				13:[f45<0.5] yes=19,no=20,missing=19
					19:leaf=0.00313691096
					20:leaf=0.00143659115
				14:[f13<0.5] yes=21,no=22,missing=21
					21:leaf=-5.81353925e-05
					22:leaf=-0.000908881426
			10:leaf=-0.00227085059
	2:[f35<0.5] yes=5,no=6,missing=5
		5:leaf=0.00646317611
		6:leaf=7.03275218e-05
booster[44]:
0:[f1<0.5] yes=1,no=2,missing=1
	1:[f10<0.5] yes=3,no=4,missing=3
		3:[f62<1.5] yes=7,no=8,missing=7
			7:[f59<0.5] yes=9,no=10,missing=9
				9:[f31<0.5] yes=13,no=14,missing=13
					13:leaf=0.00055872713
					14:leaf=-0.00323425955
				10:[f14<0.5] yes=15,no=16,missing=15
					15:leaf=-0.00049916422
					16:leaf=-0.00270995917
			8:[f43<3] yes=11,no=12,missing=11
				11:[f26<0.5] yes=17,no=18,missing=17
					17:leaf=-0.00107044901
					18:leaf=0.000943575345
				12:leaf=-0.00555548538
		4:leaf=0.00303794607
	2:[f35<0.5] yes=5,no=6,missing=5
		5:leaf=0.00614001742
		6:leaf=6.68108478e-05
booster[45]:
0:[f1<0.5] yes=1,no=2,missing=1
	1:[f9<0.5] yes=3,no=4,missing=3
		3:[f44<5] yes=7,no=8,missing=7
			7:[f73<2.5] yes=9,no=10,missing=9
				9:[f10<0.5] yes=11,no=12,missing=11
					11:leaf=-0.000252870581
					12:leaf=0.00281009986
				10:leaf=-0.00412410311
			8:leaf=0.00410969881
		4:leaf=0.00433473615
	2:[f35<0.5] yes=5,no=6,missing=5
		5:leaf=0.00583301811
		6:leaf=6.34729877e-05
booster[46]:
0:[f1<0.5] yes=1,no=2,missing=1
	1:[f9<0.5] yes=3,no=4,missing=3
		3:[f55<0.5] yes=7,no=8,missing=7
			7:[f38<2.5] yes=9,no=10,missing=9
				9:[f69<0.5] yes=13,no=14,missing=13
					13:leaf=-9.99323456e-05
					14:leaf=-0.00138002634
				10:leaf=0.00393536408
			8:[f43<1] yes=11,no=12,missing=11
				11:[f38<0.5] yes=15,no=16,missing=15
					15:leaf=-0.00203422317
					16:leaf=0.00101717119
				12:[f35<1.5] yes=17,no=18,missing=17
					17:leaf=0.00338003342
					18:leaf=0.0013664508
		4:leaf=0.00411800155
	2:[f35<0.5] yes=5,no=6,missing=5
		5:leaf=0.00554136652
		6:leaf=6.03020198e-05
booster[47]:
0:[f1<0.5] yes=1,no=2,missing=1
	1:[f9<0.5] yes=3,no=4,missing=3
		3:[f44<5] yes=7,no=8,missing=7
			7:[f73<2.5] yes=9,no=10,missing=9
				9:[f10<0.5] yes=11,no=12,missing=11
					11:leaf=-0.000205509365
					12:leaf=0.0026021786
				10:leaf=-0.00384249887
			8:leaf=0.00390920648
		4:leaf=0.00391210336
	2:[f35<0.5] yes=5,no=6,missing=5
		5:leaf=0.00526430039
		6:leaf=5.72860263e-05
booster[48]:
0:[f1<0.5] yes=1,no=2,missing=1
	1:[f38<2.5] yes=3,no=4,missing=3
		3:[f61<0.5] yes=7,no=8,missing=7
			7:[f45<1.5] yes=9,no=10,missing=9
				9:[f10<0.5] yes=13,no=14,missing=13
					13:leaf=-0.00189061358
					14:leaf=0.00272457092
				10:[f4<0.5] yes=15,no=16,missing=15
					15:leaf=0.000727098726
					16:leaf=-0.000477399415
			8:[f60<3.5] yes=11,no=12,missing=11
				11:[f31<0.5] yes=17,no=18,missing=17
					17:leaf=0.000533486251
					18:leaf=-0.00298142154
				12:[f50<1.5] yes=19,no=20,missing=19
					19:leaf=-0.00291028665
					20:leaf=0.0018101841
		4:leaf=0.00374887139
	2:[f35<0.5] yes=5,no=6,missing=5
		5:leaf=0.00500108628
		6:leaf=5.44190407e-05
booster[49]:
0:[f1<0.5] yes=1,no=2,missing=1
	1:[f9<0.5] yes=3,no=4,missing=3
		3:[f44<5] yes=7,no=8,missing=7
			7:[f73<1.5] yes=9,no=10,missing=9
				9:[f35<1.5] yes=11,no=12,missing=11
					11:leaf=0.000402010133
					12:leaf=-0.000530842284
				10:[f40<1] yes=13,no=14,missing=13
					13:leaf=-5.49878932e-05
					14:leaf=-0.00337085314
			8:leaf=0.00368707185
		4:leaf=0.00368982553
	2:[f35<0.5] yes=5,no=6,missing=5
		5:leaf=0.00475103268
		6:leaf=5.17010703e-05
booster[50]:
0:[f59<0.5] yes=1,no=2,missing=1
	1:[f13<0.5] yes=3,no=4,missing=3
		3:[f36<0.5] yes=7,no=8,missing=7
			7:[f38<0.5] yes=15,no=16,missing=15
				15:[f28<0.5] yes=21,no=22,missing=21
					21:leaf=0.000639607897
					22:leaf=-0.004419134
				16:[f74<0.5] yes=23,no=24,missing=23
					23:leaf=4.40880649e-05
					24:leaf=0.00425797468
			8:[f35<1.5] yes=17,no=18,missing=17
				17:[f50<2.5] yes=25,no=26,missing=25
					25:leaf=0.000792582461
					26:leaf=-0.00492956117
				18:[f70<1.5] yes=27,no=28,missing=27
					27:leaf=-0.00240176474
					28:leaf=0.00166836381
		4:[f35<0.5] yes=9,no=10,missing=9
			9:leaf=-0.00379879959
			10:leaf=-0.00081351999
	2:[f43<3] yes=5,no=6,missing=5
		5:[f69<2.5] yes=11,no=12,missing=11
			11:[f54<1.5] yes=19,no=20,missing=19
				19:[f74<0.5] yes=29,no=30,missing=29
					29:leaf=-4.3899312e-05
					30:leaf=-0.000837069296
				20:[f29<0.5] yes=31,no=32,missing=31
					31:leaf=0.00111017236
					32:leaf=0.000155358022
			12:leaf=-0.00228558318
		6:[f4<0.5] yes=13,no=14,missing=13
			13:leaf=-0.00315993326
			14:leaf=-0.000118979813
booster[51]:
0:[f1<0.5] yes=1,no=2,missing=1
	1:[f9<0.5] yes=3,no=4,missing=3
		3:[f44<5] yes=7,no=8,missing=7
			7:[f73<2.5] yes=9,no=10,missing=9
				9:[f37<1.5] yes=11,no=12,missing=11
					11:leaf=-3.33161115e-05
					12:leaf=-0.00229662703
				10:leaf=-0.00345001044
			8:leaf=0.00346308947
		4:leaf=0.0034657002
	2:[f35<0.5] yes=5,no=6,missing=5
		5:leaf=0.00430058269
		6:leaf=1.71363354e-05
booster[52]:
0:[f59<0.5] yes=1,no=2,missing=1
	1:[f32<0.5] yes=3,no=4,missing=3
		3:[f38<0.5] yes=7,no=8,missing=7
			7:[f12<0.5] yes=15,no=16,missing=15
				15:[f74<1.5] yes=21,no=22,missing=21
					21:leaf=0.000433304493
					22:leaf=-0.00263998308
				16:[f35<1.5] yes=23,no=24,missing=23
					23:leaf=-3.70979324e-05
					24:leaf=-0.00215917593
			8:[f47<0.5] yes=17,no=18,missing=17
				17:[f45<0.5] yes=25,no=26,missing=25
					25:leaf=-0.00318554393
					26:leaf=0.00123000552
				18:[f73<0.5] yes=27,no=28,missing=27
					27:leaf=0.00412452361
					28:leaf=0.000752126973
		4:[f35<0.5] yes=9,no=10,missing=9
			9:leaf=-0.00468141679
			10:leaf=-0.000182491538
	2:[f14<0.5] yes=5,no=6,missing=5
		5:[f69<2.5] yes=11,no=12,missing=11
			11:[f30<0.5] yes=19,no=20,missing=19
				19:[f54<1.5] yes=29,no=30,missing=29
					29:leaf=-0.000256253639
					30:leaf=0.000883229193
				20:[f46<1.5] yes=31,no=32,missing=31
					31:leaf=-0.00162652135
					32:leaf=0.000334478915
			12:leaf=-0.00213098992
		6:[f35<2] yes=13,no=14,missing=13
			13:leaf=-0.00107535277
			14:leaf=-0.00297841872
booster[53]:
0:[f31<0.5] yes=1,no=2,missing=1
	1:[f59<0.5] yes=3,no=4,missing=3
		3:[f40<1] yes=7,no=8,missing=7
			7:[f51<0.5] yes=11,no=12,missing=11
				11:[f35<0.5] yes=19,no=20,missing=19
					19:leaf=0.00494357524
					20:leaf=0.00179702637
				12:[f41<1] yes=21,no=22,missing=21
					21:leaf=-0.00123638881
					22:leaf=0.00100411149
			8:[f73<1.5] yes=13,no=14,missing=13
				13:[f49<0.5] yes=23,no=24,missing=23
					23:leaf=0.000577446248
					24:leaf=-0.00161401241
				14:[f3<0.5] yes=25,no=26,missing=25
					25:leaf=-0.00433913711
					26:leaf=0.000611805939
		4:[f14<0.5] yes=9,no=10,missing=9
			9:[f69<2.5] yes=15,no=16,missing=15
				15:[f30<0.5] yes=27,no=28,missing=27
					27:leaf=-0.000153132482
					28:leaf=-0.00114108133
				16:leaf=-0.00198892388
			10:[f35<2] yes=17,no=18,missing=17
				17:leaf=-0.00100366224
				18:leaf=-0.00282949815
	2:[f36<1] yes=5,no=6,missing=5
		5:leaf=-0.000477317721
		6:leaf=-0.00365370326
booster[54]:
0:[f9<0.5] yes=1,no=2,missing=1
	1:[f38<1.5] yes=3,no=4,missing=3
		3:[f31<0.5] yes=5,no=6,missing=5
			5:[f44<5] yes=9,no=10,missing=9
				9:[f73<2.5] yes=15,no=16,missing=15
					15:leaf=-9.60800899e-05
					16:leaf=-0.00295961904
				10:leaf=0.00302109122
			6:leaf=-0.00347101805
		4:[f54<0.5] yes=7,no=8,missing=7
			7:[f23<0.5] yes=11,no=12,missing=11
				11:[f58<0.5] yes=17,no=18,missing=17
					17:leaf=9.71853733e-05
					18:leaf=-0.00125378929
				12:leaf=0.00125308183
			8:[f26<0.5] yes=13,no=14,missing=13
				13:leaf=0.00448476104
				14:leaf=0.00106632558
	2:leaf=0.00322054629
