booster[0]:
0:[f41<1] yes=1,no=2,missing=1
	1:[f40<1] yes=3,no=4,missing=3
		3:[f39<1.5] yes=7,no=8,missing=7
			7:[f25<0.5] yes=13,no=14,missing=13
				13:leaf=0.0752246007
				14:leaf=-0.000343200576
			8:leaf=0.106747232
		4:[f40<3] yes=9,no=10,missing=9
			9:[f35<1.5] yes=15,no=16,missing=15
				15:leaf=0.111832581
				16:leaf=0.0834829435
			10:leaf=0.136933297
	2:[f41<3] yes=5,no=6,missing=5
		5:[f40<1] yes=11,no=12,missing=11
			11:leaf=0.130918428
			12:leaf=0.156800404
		6:leaf=0.182496175
booster[1]:
0:[f41<1] yes=1,no=2,missing=1
	1:[f40<1] yes=3,no=4,missing=3
		3:[f39<1.5] yes=7,no=8,missing=7
			7:[f25<0.5] yes=13,no=14,missing=13
				13:[f35<1.5] yes=17,no=18,missing=17
					17:leaf=0.0721314475
					18:leaf=0.0509928353
				14:leaf=-0.000326040405
			8:leaf=0.0965808332
		4:[f40<3] yes=9,no=10,missing=9
			9:[f43<1] yes=15,no=16,missing=15
				15:[f35<1.5] yes=19,no=20,missing=19
					19:leaf=0.08800482
					20:leaf=0.0552984737
				16:leaf=0.105153956
			10:leaf=0.123631194
	2:[f41<3] yes=5,no=6,missing=5
		5:[f40<1] yes=11,no=12,missing=11
			11:leaf=0.117975354
			12:leaf=0.141347617
		6:leaf=0.164652094
booster[2]:
0:[f41<1] yes=1,no=2,missing=1
	1:[f40<1] yes=3,no=4,missing=3
		3:[f39<1.5] yes=7,no=8,missing=7
			7:[f25<0.5] yes=13,no=14,missing=13
				13:[f35<1.5] yes=17,no=18,missing=17
					17:leaf=0.0650860444
					18:leaf=0.0462335013
				14:leaf=-0.000309738534
			8:leaf=0.0873826668
		4:[f40<3] yes=9,no=10,missing=9
			9:[f43<1] yes=15,no=16,missing=15
				15:[f35<1.5] yes=19,no=20,missing=19
					19:leaf=0.0794882327
					20:leaf=0.0503830574
				16:leaf=0.0948407724
			10:leaf=0.111621313
	2:[f41<3] yes=5,no=6,missing=5
		5:[f40<1] yes=11,no=12,missing=11
			11:leaf=0.10631188
			12:leaf=0.127417699
		6:leaf=0.14855279
booster[3]:
0:[f41<1] yes=1,no=2,missing=1
	1:[f40<1] yes=3,no=4,missing=3
		3:[f39<1.5] yes=7,no=8,missing=7
			7:[f25<0.5] yes=13,no=14,missing=13
				13:[f54<1.5] yes=19,no=20,missing=19
					19:leaf=0.0584465824
					20:leaf=0.0403090715
				14:leaf=-0.000294251746
			8:leaf=0.0790605024
		4:[f40<3] yes=9,no=10,missing=9
			9:[f35<1.5] yes=15,no=16,missing=15
				15:leaf=0.08243718
				16:[f9<0.5] yes=21,no=22,missing=21
					21:leaf=0.064300634
					22:leaf=0.0306391455
			10:leaf=0.100778095
	2:[f41<3] yes=5,no=6,missing=5
		5:[f39<1.5] yes=11,no=12,missing=11
			11:[f40<1] yes=17,no=18,missing=17
				17:leaf=0.0882074088
				18:leaf=0.108046703
			12:leaf=0.123026423
		6:leaf=0.13402763
booster[4]:
0:[f41<1] yes=1,no=2,missing=1
	1:[f40<1] yes=3,no=4,missing=3
		3:[f39<1.5] yes=7,no=8,missing=7
			7:[f25<0.5] yes=15,no=16,missing=15
				15:[f35<1.5] yes=19,no=20,missing=19
					19:leaf=0.053441871
					20:leaf=0.0367051959
				16:leaf=-0.000279539818
			8:leaf=0.0715309307
		4:[f40<3] yes=9,no=10,missing=9
			9:[f43<1] yes=17,no=18,missing=17
				17:leaf=0.0602604561
				18:leaf=0.0778026804
			10:leaf=0.0909882188
	2:[f42<1] yes=5,no=6,missing=5
		5:[f44<1] yes=11,no=12,missing=11
			11:leaf=0.125059351
			12:leaf=0.089189589
		6:[f35<1.5] yes=13,no=14,missing=13
			13:leaf=0.090290688
			14:leaf=0.0629253685
booster[5]:
0:[f41<1] yes=1,no=2,missing=1
	1:[f40<1] yes=3,no=4,missing=3
		3:[f54<0.5] yes=7,no=8,missing=7
			7:[f35<1.5] yes=15,no=16,missing=15
				15:leaf=0.0586083308
				16:leaf=0.0353100076
			8:[f25<0.5] yes=17,no=18,missing=17
				17:[f35<1.5] yes=21,no=22,missing=21
					21:leaf=0.0358725451
					22:leaf=0.0133868558
				18:leaf=-0.000265562529
		4:[f54<1.5] yes=9,no=10,missing=9
			9:[f40<3] yes=19,no=20,missing=19
				19:leaf=0.0676693991
				20:leaf=0.0862760618
			10:leaf=0.0527809151
	2:[f42<1] yes=5,no=6,missing=5
		5:[f44<1] yes=11,no=12,missing=11
			11:leaf=0.11273732
			12:leaf=0.0804298967
		6:[f35<1.5] yes=13,no=14,missing=13
			13:leaf=0.0814049467
			14:leaf=0.0570261143
booster[6]:
0:[f41<1] yes=1,no=2,missing=1
	1:[f42<3] yes=3,no=4,missing=3
		3:[f44<1] yes=7,no=8,missing=7
			7:[f42<1] yes=13,no=14,missing=13
				13:leaf=0.0806567892
				14:[f35<1.5] yes=21,no=22,missing=21
					21:leaf=0.0640174374
					22:leaf=0.0380787775
			8:[f35<1.5] yes=15,no=16,missing=15
				15:[f54<1.5] yes=23,no=24,missing=23
					23:leaf=0.0565663092
					24:leaf=0.0407079272
				16:leaf=0.0372855887
		4:[f46<2.5] yes=9,no=10,missing=9
			9:[f35<1.5] yes=17,no=18,missing=17
				17:[f27<0.5] yes=25,no=26,missing=25
					25:leaf=0.0457803458
					26:leaf=0.0278040059
				18:leaf=0.0234374087
			10:leaf=-0.00025228411
	2:[f41<3] yes=5,no=6,missing=5
		5:[f39<1.5] yes=11,no=12,missing=11
			11:[f40<1] yes=19,no=20,missing=19
				19:leaf=0.0627314076
				20:leaf=0.0786874965
			12:leaf=0.0924304873
		6:leaf=0.100072481
booster[7]:
0:[f41<1] yes=1,no=2,missing=1
	1:[f40<1] yes=3,no=4,missing=3
		3:[f39<1.5] yes=7,no=8,missing=7
			7:[f25<0.5] yes=15,no=16,missing=15
				15:[f54<1.5] yes=29,no=30,missing=29
					29:leaf=0.0379977934
					30:leaf=0.0251599494
				16:leaf=-0.000239670277
			8:[f54<1.5] yes=17,no=18,missing=17
				17:[f25<0.5] yes=31,no=32,missing=31
					31:leaf=0.0593245216
					32:leaf=0.0147372605
				18:leaf=0.0264570806
		4:[f40<3] yes=9,no=10,missing=9
			9:[f43<1] yes=19,no=20,missing=19
				19:[f35<1.5] yes=33,no=34,missing=33
					33:leaf=0.0467295013
					34:leaf=0.027583072
				20:leaf=0.0576750711
			10:leaf=0.0681046471
	2:[f42<1] yes=5,no=6,missing=5
		5:[f44<1] yes=11,no=12,missing=11
			11:[f54<1.5] yes=21,no=22,missing=21
				21:leaf=0.0968879685
				22:leaf=0.0662963316
			12:[f35<1.5] yes=23,no=24,missing=23
				23:leaf=0.0689426512
				24:leaf=0.0492472909
		6:[f35<1.5] yes=13,no=14,missing=13
			13:[f54<1.5] yes=25,no=26,missing=25
				25:leaf=0.0698826984
				26:leaf=0.0491129942
			14:[f19<0.5] yes=27,no=28,missing=27
				27:leaf=0.046402663
				28:leaf=0.01278615
booster[8]:
0:[f41<1] yes=1,no=2,missing=1
	1:[f40<3] yes=3,no=4,missing=3
		3:[f54<0.5] yes=7,no=8,missing=7
			7:[f35<1.5] yes=15,no=16,missing=15
				15:[f44<3] yes=21,no=22,missing=21
					21:leaf=0.0505726822
					22:leaf=0.0354031064
				16:[f42<3] yes=23,no=24,missing=23
					23:leaf=0.0344791263
					24:leaf=0.018509578
			8:[f25<0.5] yes=17,no=18,missing=17
				17:[f26<0.5] yes=25,no=26,missing=25
					25:leaf=0.0313989855
					26:leaf=0.00600198237
				18:leaf=-0.00022768676
		4:[f4<0.5] yes=9,no=10,missing=9
			9:leaf=0.0655471906
			10:leaf=0.0395981856
	2:[f41<3] yes=5,no=6,missing=5
		5:[f39<1.5] yes=11,no=12,missing=11
			11:[f40<1] yes=19,no=20,missing=19
				19:[f54<1.5] yes=27,no=28,missing=27
					27:leaf=0.0531805418
					28:leaf=0.0364116095
				20:[f6<0.5] yes=29,no=30,missing=29
					29:leaf=0.0699514076
					30:leaf=0.052518636
			12:leaf=0.0762452111
		6:[f35<1.5] yes=13,no=14,missing=13
			13:leaf=0.0864210427
			14:leaf=0.0554858819
booster[9]:
0:[f41<1] yes=1,no=2,missing=1
	1:[f40<1] yes=3,no=4,missing=3
		3:[f39<1.5] yes=7,no=8,missing=7
			7:[f25<0.5] yes=15,no=16,missing=15
				15:[f52<1.5] yes=29,no=30,missing=29
					29:leaf=0.0252505876
					30:leaf=0.0365559049
				16:leaf=-0.000216302273
			8:[f25<0.5] yes=17,no=18,missing=17
				17:[f54<1.5] yes=31,no=32,missing=31
					31:leaf=0.049159728
					32:leaf=0.0221178737
				18:leaf=0.011471766
		4:[f54<1.5] yes=9,no=10,missing=9
			9:[f42<1] yes=19,no=20,missing=19
				19:[f44<1] yes=33,no=34,missing=33
					33:leaf=0.0653114542
					34:leaf=0.0421225466
				20:[f35<1.5] yes=35,no=36,missing=35
					35:leaf=0.0458564833
					36:leaf=0.0263521224
			10:[f14<0.5] yes=21,no=22,missing=21
				21:[f9<0.5] yes=37,no=38,missing=37
					37:leaf=0.0376412012
					38:leaf=0.0188594665
				22:leaf=0.0137569448
	2:[f35<1.5] yes=5,no=6,missing=5
		5:[f42<1] yes=11,no=12,missing=11
			11:[f44<1] yes=23,no=24,missing=23
				23:leaf=0.0805045292
				24:leaf=0.0557482429
			12:[f54<1.5] yes=25,no=26,missing=25
				25:leaf=0.0569476262
				26:leaf=0.0393839851
		6:[f21<0.5] yes=13,no=14,missing=13
			13:[f19<0.5] yes=27,no=28,missing=27
				27:leaf=0.0471607409
				28:leaf=0.00948781427
			14:leaf=0.0152407093
booster[10]:
0:[f41<1] yes=1,no=2,missing=1
	1:[f42<3] yes=3,no=4,missing=3
		3:[f44<1] yes=7,no=8,missing=7
			7:[f42<1] yes=15,no=16,missing=15
				15:leaf=0.0559826456
				16:[f39<1.5] yes=27,no=28,missing=27
					27:leaf=0.0357428566
					28:leaf=0.0574454851
			8:[f39<1.5] yes=17,no=18,missing=17
				17:[f52<1.5] yes=29,no=30,missing=29
					29:leaf=0.0279178005
					30:leaf=0.039521005
				18:leaf=0.0437807068
		4:[f46<2.5] yes=9,no=10,missing=9
			9:[f35<1.5] yes=19,no=20,missing=19
				19:[f27<0.5] yes=31,no=32,missing=31
					31:leaf=0.0301903691
					32:leaf=0.0164698809
				20:leaf=0.0144332247
			10:leaf=-0.000205487013
	2:[f39<1.5] yes=5,no=6,missing=5
		5:[f41<3] yes=11,no=12,missing=11
			11:[f40<1] yes=21,no=22,missing=21
				21:[f19<0.5] yes=33,no=34,missing=33
					33:leaf=0.0415434577
					34:leaf=0.0210809615
				22:[f6<0.5] yes=35,no=36,missing=35
					35:leaf=0.0569843426
					36:leaf=0.0426063053
			12:[f54<1.5] yes=23,no=24,missing=23
				23:leaf=0.0653913245
				24:leaf=0.0344259851
		6:[f19<0.5] yes=13,no=14,missing=13
			13:[f21<0.5] yes=25,no=26,missing=25
				25:leaf=0.072361134
				26:leaf=0.0384159535
			14:leaf=0.0308866482
booster[11]:
0:[f41<1] yes=1,no=2,missing=1
	1:[f40<1] yes=3,no=4,missing=3
		3:[f39<1.5] yes=7,no=8,missing=7
			7:[f54<0.5] yes=15,no=16,missing=15
				15:[f27<0.5] yes=25,no=26,missing=25
					25:leaf=0.0252738036
					26:leaf=0.00947657507
				16:[f46<1.5] yes=27,no=28,missing=27
					27:leaf=0.016017979
					28:leaf=0.00217795675
			8:[f54<1.5] yes=17,no=18,missing=17
				17:[f25<0.5] yes=29,no=30,missing=29
					29:leaf=0.0405003913
					30:leaf=0.00938866194
				18:leaf=0.0178582557
		4:[f39<1.5] yes=9,no=10,missing=9
			9:[f54<1.5] yes=19,no=20,missing=19
				19:[f42<1] yes=31,no=32,missing=31
					31:leaf=0.0441451706
					32:leaf=0.0325515792
				20:[f9<0.5] yes=33,no=34,missing=33
					33:leaf=0.027639458
					34:leaf=0.00900807697
			10:leaf=0.0542499311
	2:[f41<3] yes=5,no=6,missing=5
		5:[f39<1.5] yes=11,no=12,missing=11
			11:[f40<1] yes=21,no=22,missing=21
				21:[f54<1.5] yes=35,no=36,missing=35
					35:leaf=0.0386703722
					36:leaf=0.0252763014
				22:[f6<0.5] yes=37,no=38,missing=37
					37:leaf=0.0514535084
					38:leaf=0.0385231934
			12:[f40<1] yes=23,no=24,missing=23
				23:leaf=0.0484321415
				24:leaf=0.0678278953
		6:[f35<1.5] yes=13,no=14,missing=13
			13:leaf=0.0646492541
			14:leaf=0.0412372947
booster[12]:
0:[f41<1] yes=1,no=2,missing=1
	1:[f40<3] yes=3,no=4,missing=3
		3:[f35<1.5] yes=7,no=8,missing=7
			7:[f54<0.5] yes=15,no=16,missing=15
				15:[f44<3] yes=27,no=28,missing=27
					27:leaf=0.0340952463
					28:leaf=0.0226431768
				16:[f25<0.5] yes=29,no=30,missing=29
					29:leaf=0.0215314161
					30:leaf=-0.000304110348
			8:[f12<0.5] yes=17,no=18,missing=17
				17:[f54<1.5] yes=31,no=32,missing=31
					31:leaf=0.0172470473
					32:leaf=0.010135673
				18:leaf=0.0281986576
		4:[f35<1.5] yes=9,no=10,missing=9
			9:leaf=0.0467511527
			10:[f2<0.5] yes=19,no=20,missing=19
				19:leaf=0.0318547338
				20:leaf=0.0128207011
	2:[f35<1.5] yes=5,no=6,missing=5
		5:[f54<1.5] yes=11,no=12,missing=11
			11:[f44<1] yes=21,no=22,missing=21
				21:[f42<1] yes=33,no=34,missing=33
					33:leaf=0.0635953024
					34:leaf=0.0431469828
				22:leaf=0.0412951224
			12:[f19<0.5] yes=23,no=24,missing=23
				23:[f8<0.5] yes=35,no=36,missing=35
					35:leaf=0.0342410468
					36:leaf=0.00991877355
				24:leaf=0.0113756265
		6:[f21<0.5] yes=13,no=14,missing=13
			13:[f19<0.5] yes=25,no=26,missing=25
				25:[f24<0.5] yes=37,no=38,missing=37
					37:leaf=0.0351092704
					38:leaf=0.0166541431
				26:leaf=0.00602585077
			14:leaf=0.00977001246
booster[13]:
0:[f41<1] yes=1,no=2,missing=1
	1:[f40<3] yes=3,no=4,missing=3
		3:[f39<1.5] yes=7,no=8,missing=7
			7:[f42<3] yes=15,no=16,missing=15
				15:[f44<3] yes=27,no=28,missing=27
					27:leaf=0.0269669443
					28:leaf=0.0153049603
				16:[f54<0.5] yes=29,no=30,missing=29
					29:leaf=0.0155517487
					30:leaf=0.00734006707
			8:[f25<0.5] yes=17,no=18,missing=17
				17:[f27<0.5] yes=31,no=32,missing=31
					31:leaf=0.0367165878
					32:leaf=0.0133284647
				18:leaf=0.00721446285
		4:[f4<0.5] yes=9,no=10,missing=9
			9:[f2<0.5] yes=19,no=20,missing=19
				19:leaf=0.048748102
				20:[f45<0.5] yes=33,no=34,missing=33
					33:leaf=0.0362218693
					34:leaf=0.0159706231
			10:leaf=0.023514308
	2:[f39<1.5] yes=5,no=6,missing=5
		5:[f42<1] yes=11,no=12,missing=11
			11:[f44<1] yes=21,no=22,missing=21
				21:leaf=0.0485432781
				22:leaf=0.0308815688
			12:[f54<1.5] yes=23,no=24,missing=23
				23:[f19<0.5] yes=35,no=36,missing=35
					35:leaf=0.0331977531
					36:leaf=0.0139825111
				24:leaf=0.0188677926
		6:[f19<0.5] yes=13,no=14,missing=13
			13:[f21<0.5] yes=25,no=26,missing=25
				25:[f24<0.5] yes=37,no=38,missing=37
					37:leaf=0.0559474193
					38:leaf=0.0226511005
				26:leaf=0.0280900598
			14:leaf=0.0217017177
booster[14]:
0:[f44<1] yes=1,no=2,missing=1
	1:[f42<1] yes=3,no=4,missing=3
		3:[f35<1.5] yes=7,no=8,missing=7
			7:[f43<3] yes=15,no=16,missing=15
				15:leaf=0.0526134372
				16:[f54<1.5] yes=29,no=30,missing=29
					29:leaf=0.0379182138
					30:leaf=0.0197186712
			8:[f31<0.5] yes=17,no=18,missing=17
				17:leaf=0.0334312581
				18:leaf=0.00656462926
		4:[f39<1.5] yes=9,no=10,missing=9
			9:[f42<3] yes=19,no=20,missing=19
				19:[f35<1.5] yes=31,no=32,missing=31
					31:leaf=0.0293075573
					32:leaf=0.019974798
				20:[f49<0.5] yes=33,no=34,missing=33
					33:leaf=0.00948237255
					34:leaf=0.0180428289
			10:[f42<3] yes=21,no=22,missing=21
				21:leaf=0.0448688529
				22:[f47<1.5] yes=35,no=36,missing=35
					35:leaf=0.0280443076
					36:leaf=0.0101393899
	2:[f50<1.5] yes=5,no=6,missing=5
		5:[f52<1.5] yes=11,no=12,missing=11
			11:[f41<1] yes=23,no=24,missing=23
				23:[f40<1] yes=37,no=38,missing=37
					37:leaf=0.0117720328
					38:leaf=0.0181013122
				24:[f35<1.5] yes=39,no=40,missing=39
					39:leaf=0.0276083201
					40:leaf=0.0142885298
			12:[f48<2.5] yes=25,no=26,missing=25
				25:leaf=0.0302680377
				26:leaf=0.00580655364
		6:[f27<0.5] yes=13,no=14,missing=13
			13:[f34<0.5] yes=27,no=28,missing=27
				27:leaf=0.0343018062
				28:leaf=0.00819048285
			14:leaf=0.00632392755
booster[15]:
0:[f44<1] yes=1,no=2,missing=1
	1:[f42<1] yes=3,no=4,missing=3
		3:[f35<1.5] yes=7,no=8,missing=7
			7:[f43<3] yes=15,no=16,missing=15
				15:leaf=0.0474444032
				16:[f54<1.5] yes=31,no=32,missing=31
					31:leaf=0.0343370512
					32:leaf=0.0181411784
			8:[f31<0.5] yes=17,no=18,missing=17
				17:leaf=0.0302334856
				18:leaf=0.00623639813
		4:[f39<1.5] yes=9,no=10,missing=9
			9:[f42<3] yes=19,no=20,missing=19
				19:[f35<1.5] yes=33,no=34,missing=33
					33:leaf=0.026426468
					34:leaf=0.0180824455
				20:[f54<0.5] yes=35,no=36,missing=35
					35:leaf=0.0146978544
					36:leaf=0.00618127687
			10:[f25<0.5] yes=21,no=22,missing=21
				21:[f19<0.5] yes=37,no=38,missing=37
					37:leaf=0.0394109152
					38:leaf=0.0184183903
				22:leaf=0.00634677429
	2:[f54<1.5] yes=5,no=6,missing=5
		5:[f39<1.5] yes=11,no=12,missing=11
			11:[f53<1.5] yes=23,no=24,missing=23
				23:[f44<3] yes=39,no=40,missing=39
					39:leaf=0.0260374993
					40:leaf=0.0164301507
				24:[f33<0.5] yes=41,no=42,missing=41
					41:leaf=0.0161540546
					42:leaf=0.00375611382
			12:[f32<0.5] yes=25,no=26,missing=25
				25:leaf=0.0337294415
				26:leaf=0.0162951294
		6:[f35<1.5] yes=13,no=14,missing=13
			13:[f27<0.5] yes=27,no=28,missing=27
				27:[f32<0.5] yes=43,no=44,missing=43
					43:leaf=0.0168902222
					44:leaf=0.00544767408
				28:[f38<1.5] yes=45,no=46,missing=45
					45:leaf=0.00875018258
					46:leaf=0.00132107735
			14:[f29<0.5] yes=29,no=30,missing=29
				29:leaf=0.00768483896
				30:leaf=-0.000285527116
booster[16]:
0:[f41<1] yes=1,no=2,missing=1
	1:[f40<1] yes=3,no=4,missing=3
		3:[f39<1.5] yes=7,no=8,missing=7
			7:[f52<1.5] yes=15,no=16,missing=15
				15:[f47<0.5] yes=27,no=28,missing=27
					27:leaf=0.00592675945
					28:leaf=0.0124309994
				16:[f35<1.5] yes=29,no=30,missing=29
					29:leaf=0.019828517
					30:leaf=0.0082089128
			8:[f54<1.5] yes=17,no=18,missing=17
				17:[f25<0.5] yes=31,no=32,missing=31
					31:leaf=0.0243279841
					32:leaf=0.00602943311
				18:leaf=0.0107888198
		4:[f39<1.5] yes=9,no=10,missing=9
			9:[f0<0.5] yes=19,no=20,missing=19
				19:[f43<1] yes=33,no=34,missing=33
					33:leaf=0.0165063459
					34:leaf=0.0238107424
				20:leaf=0.0371515788
			10:leaf=0.0360390209
	2:[f39<1.5] yes=5,no=6,missing=5
		5:[f54<1.5] yes=11,no=12,missing=11
			11:[f35<1.5] yes=21,no=22,missing=21
				21:[f53<1.5] yes=35,no=36,missing=35
					35:leaf=0.0335595086
					36:leaf=0.0245500896
				22:[f24<0.5] yes=37,no=38,missing=37
					37:leaf=0.0230208188
					38:leaf=0.00935435109
			12:[f21<0.5] yes=23,no=24,missing=23
				23:[f19<0.5] yes=39,no=40,missing=39
					39:leaf=0.0204933695
					40:leaf=0.00774445524
				24:leaf=0.00727291871
		6:[f19<0.5] yes=13,no=14,missing=13
			13:[f54<1.5] yes=25,no=26,missing=25
				25:[f24<0.5] yes=41,no=42,missing=41
					41:leaf=0.0430319384
					42:leaf=0.0170518477
				26:leaf=0.0239316858
			14:leaf=0.017037008
booster[17]:
0:[f44<1] yes=1,no=2,missing=1
	1:[f42<1] yes=3,no=4,missing=3
		3:[f43<1] yes=7,no=8,missing=7
			7:[f35<1.5] yes=15,no=16,missing=15
				15:leaf=0.0465072468
				16:leaf=0.0281556901
			8:[f35<1.5] yes=17,no=18,missing=17
				17:[f54<1.5] yes=29,no=30,missing=29
					29:leaf=0.0340399444
					30:leaf=0.0209380928
				18:[f31<0.5] yes=31,no=32,missing=31
					31:leaf=0.0218965113
					32:leaf=0.00562824029
		4:[f39<1.5] yes=9,no=10,missing=9
			9:[f42<3] yes=19,no=20,missing=19
				19:[f35<1.5] yes=33,no=34,missing=33
					33:leaf=0.0213931147
					34:leaf=0.0142403888
				20:[f49<0.5] yes=35,no=36,missing=35
					35:leaf=0.00625969563
					36:leaf=0.013868208
			10:[f42<3] yes=21,no=22,missing=21
				21:leaf=0.0334204175
				22:[f47<1.5] yes=37,no=38,missing=37
					37:leaf=0.0211433005
					38:leaf=0.00786904152
	2:[f50<1.5] yes=5,no=6,missing=5
		5:[f52<1.5] yes=11,no=12,missing=11
			11:[f41<1] yes=23,no=24,missing=23
				23:[f35<1.5] yes=39,no=40,missing=39
					39:leaf=0.0116912965
					40:leaf=0.00622331584
				24:[f35<1.5] yes=41,no=42,missing=41
					41:leaf=0.0200131424
					42:leaf=0.00990853086
			12:[f48<2.5] yes=25,no=26,missing=25
				25:[f24<0.5] yes=43,no=44,missing=43
					43:leaf=0.0233301371
					44:leaf=0.00973668508
				26:leaf=0.00380390882
		6:[f27<0.5] yes=13,no=14,missing=13
			13:[f34<0.5] yes=27,no=28,missing=27
				27:leaf=0.0258252211
				28:leaf=0.00666311383
			14:leaf=0.00440952182
booster[18]:
0:[f39<1.5] yes=1,no=2,missing=1
	1:[f42<1] yes=3,no=4,missing=3
		3:[f44<1] yes=7,no=8,missing=7
			7:[f43<1] yes=15,no=16,missing=15
				15:leaf=0.035664726
				16:[f31<0.5] yes=31,no=32,missing=31
					31:leaf=0.0251822229
					32:leaf=0.0108354362
			8:[f50<1.5] yes=17,no=18,missing=17
				17:[f44<3] yes=33,no=34,missing=33
					33:leaf=0.0163155701
					34:leaf=0.00901884399
				18:[f34<0.5] yes=35,no=36,missing=35
					35:leaf=0.0241078269
					36:leaf=0.00632995972
		4:[f54<0.5] yes=9,no=10,missing=9
			9:[f41<1] yes=19,no=20,missing=19
				19:[f35<1.5] yes=37,no=38,missing=37
					37:leaf=0.0149492593
					38:leaf=0.00810223445
				20:[f35<1.5] yes=39,no=40,missing=39
					39:leaf=0.0215117745
					40:leaf=0.0138272792
			10:[f46<1.5] yes=21,no=22,missing=21
				21:[f30<0.5] yes=41,no=42,missing=41
					41:leaf=0.00988690648
					42:leaf=0.00150711939
				22:[f25<0.5] yes=43,no=44,missing=43
					43:leaf=0.000911434472
					44:leaf=-0.0020484149
	2:[f44<1] yes=5,no=6,missing=5
		5:[f42<3] yes=11,no=12,missing=11
			11:[f28<0.5] yes=23,no=24,missing=23
				23:leaf=0.036550723
				24:leaf=0.0152860126
			12:[f47<1.5] yes=25,no=26,missing=25
				25:leaf=0.0193813574
				26:leaf=0.00734444056
		6:[f54<1.5] yes=13,no=14,missing=13
			13:[f32<0.5] yes=27,no=28,missing=27
				27:[f27<0.5] yes=45,no=46,missing=45
					45:leaf=0.0255774241
					46:leaf=0.00713460473
				28:leaf=0.0120182009
			14:[f27<0.5] yes=29,no=30,missing=29
				29:leaf=0.0141279493
				30:leaf=0.00379235158
booster[19]:
0:[f41<3] yes=1,no=2,missing=1
	1:[f39<1.5] yes=3,no=4,missing=3
		3:[f42<3] yes=7,no=8,missing=7
			7:[f44<1] yes=13,no=14,missing=13
				13:[f42<1] yes=23,no=24,missing=23
					23:leaf=0.0237032995
					24:leaf=0.0163387191
				14:[f50<1.5] yes=25,no=26,missing=25
					25:leaf=0.0114349462
					26:leaf=0.0193838347
			8:[f49<0.5] yes=15,no=16,missing=15
				15:[f52<1.5] yes=27,no=28,missing=27
					27:leaf=0.00240747328
					28:leaf=0.0104544228
				16:[f37<1.5] yes=29,no=30,missing=29
					29:leaf=0.0120571312
					30:leaf=0.00340547157
		4:[f40<1] yes=9,no=10,missing=9
			9:[f27<0.5] yes=17,no=18,missing=17
				17:[f25<0.5] yes=31,no=32,missing=31
					31:leaf=0.0201768763
					32:leaf=0.00496728439
				18:leaf=0.00692040566
			10:[f54<1.5] yes=19,no=20,missing=19
				19:[f53<1.5] yes=33,no=34,missing=33
					33:leaf=0.0368973017
					34:leaf=0.0194642041
				20:leaf=0.0161553193
	2:[f39<1.5] yes=5,no=6,missing=5
		5:[f54<1.5] yes=11,no=12,missing=11
			11:[f45<1.5] yes=21,no=22,missing=21
				21:[f16<0.5] yes=35,no=36,missing=35
					35:leaf=0.0285810027
					36:leaf=0.0137622477
				22:leaf=0.00781575497
			12:leaf=0.0121831438
		6:leaf=0.038303107
booster[20]:
0:[f41<3] yes=1,no=2,missing=1
	1:[f39<1.5] yes=3,no=4,missing=3
		3:[f54<0.5] yes=7,no=8,missing=7
			7:[f35<1.5] yes=13,no=14,missing=13
				13:[f40<1] yes=19,no=20,missing=19
					19:leaf=0.0134209646
					20:leaf=0.0191712677
				14:[f53<1.5] yes=21,no=22,missing=21
					21:leaf=0.0129211098
					22:leaf=0.00587099884
			8:[f42<3] yes=15,no=16,missing=15
				15:[f44<1] yes=23,no=24,missing=23
					23:leaf=0.012805583
					24:leaf=0.00666599721
				16:[f46<1.5] yes=25,no=26,missing=25
					25:leaf=0.00470544351
					26:leaf=-0.00145560503
		4:[f40<3] yes=9,no=10,missing=9
			9:[f54<1.5] yes=17,no=18,missing=17
				17:[f32<0.5] yes=27,no=28,missing=27
					27:leaf=0.0215800386
					28:leaf=0.00960356928
				18:[f29<0.5] yes=29,no=30,missing=29
					29:leaf=0.0142150735
					30:leaf=0.0030150176
			10:leaf=0.0388979353
	2:[f39<1.5] yes=5,no=6,missing=5
		5:[f54<1.5] yes=11,no=12,missing=11
			11:leaf=0.0246521812
			12:leaf=0.0112084886
		6:leaf=0.034855824
booster[21]:
0:[f41<1] yes=1,no=2,missing=1
	1:[f40<3] yes=3,no=4,missing=3
		3:[f52<1.5] yes=7,no=8,missing=7
			7:[f50<2] yes=15,no=16,missing=15
				15:[f39<1.5] yes=31,no=32,missing=31
					31:leaf=0.00635333313
					32:leaf=0.0126219979
				16:[f42<3] yes=33,no=34,missing=33
					33:leaf=0.0163549427
					34:leaf=0.00405859342
			8:[f48<1.5] yes=17,no=18,missing=17
				17:leaf=0.0164406206
				18:leaf=0.0043070754
		4:[f35<1.5] yes=9,no=10,missing=9
			9:[f2<0.5] yes=19,no=20,missing=19
				19:[f54<1.5] yes=35,no=36,missing=35
					35:leaf=0.0271814149
					36:leaf=0.0131160645
				20:[f39<1.5] yes=37,no=38,missing=37
					37:leaf=0.00871350616
					38:leaf=0.0245947912
			10:[f2<0.5] yes=21,no=22,missing=21
				21:[f4<0.5] yes=39,no=40,missing=39
					39:leaf=0.0134474356
					40:leaf=0.00605983147
				22:[f47<0.5] yes=41,no=42,missing=41
					41:leaf=0.00497846026
					42:leaf=0.000756859779
	2:[f39<1.5] yes=5,no=6,missing=5
		5:[f54<1.5] yes=11,no=12,missing=11
			11:[f35<1.5] yes=23,no=24,missing=23
				23:[f40<1] yes=43,no=44,missing=43
					43:leaf=0.0167239159
					44:leaf=0.0231070854
				24:[f6<0.5] yes=45,no=46,missing=45
					45:leaf=0.0144188944
					46:leaf=0.00588378776
			12:[f21<0.5] yes=25,no=26,missing=25
				25:[f36<1.5] yes=47,no=48,missing=47
					47:leaf=0.00919538178
					48:leaf=0.0151625201
				26:leaf=0.00325519824
		6:[f42<1] yes=13,no=14,missing=13
			13:[f24<0.5] yes=27,no=28,missing=27
				27:[f23<0.5] yes=49,no=50,missing=49
					49:leaf=0.0311673116
					50:leaf=0.0159331672
				28:leaf=0.0100919008
			14:[f47<1.5] yes=29,no=30,missing=29
				29:leaf=0.0187764671
				30:leaf=0.0072109024
booster[22]:
0:[f44<1] yes=1,no=2,missing=1
	1:[f42<1] yes=3,no=4,missing=3
		3:[f43<1] yes=7,no=8,missing=7
			7:[f54<1.5] yes=15,no=16,missing=15
				15:[f51<1.5] yes=31,no=32,missing=31
					31:leaf=0.0331264138
					32:leaf=0.018255299
				16:leaf=0.0121946633
			8:[f54<1.5] yes=17,no=18,missing=17
				17:[f53<1.5] yes=33,no=34,missing=33
					33:leaf=0.0217793677
					34:leaf=0.0126797399
				18:[f12<0.5] yes=35,no=36,missing=35
					35:leaf=0.0125531061
					36:leaf=4.38690176e-06
		4:[f39<1.5] yes=9,no=10,missing=9
			9:[f42<3] yes=19,no=20,missing=19
				19:[f49<1.5] yes=37,no=38,missing=37
					37:leaf=0.0107572367
					38:leaf=0.0181837697
				20:[f49<0.5] yes=39,no=40,missing=39
					39:leaf=0.00260966457
					40:leaf=0.00848579314
			10:[f42<3] yes=21,no=22,missing=21
				21:leaf=0.0204632971
				22:[f47<1.5] yes=41,no=42,missing=41
					41:leaf=0.0130920056
					42:leaf=0.00391690759
	2:[f50<1.5] yes=5,no=6,missing=5
		5:[f52<1.5] yes=11,no=12,missing=11
			11:[f41<1] yes=23,no=24,missing=23
				23:[f40<1] yes=43,no=44,missing=43
					43:leaf=0.00332562067
					44:leaf=0.00699320901
				24:[f35<1.5] yes=45,no=46,missing=45
					45:leaf=0.0116961328
					46:leaf=0.00421628263
			12:[f40<1] yes=25,no=26,missing=25
				25:[f48<2.5] yes=47,no=48,missing=47
					47:leaf=0.0114786094
					48:leaf=0.00177544949
				26:[f48<0.5] yes=49,no=50,missing=49
					49:leaf=0.0227024909
					50:leaf=0.0116425529
		6:[f42<1] yes=13,no=14,missing=13
			13:[f35<1.5] yes=27,no=28,missing=27
				27:[f48<1.5] yes=51,no=52,missing=51
					51:leaf=0.0218936112
					52:leaf=0.00881623384
				28:[f24<0.5] yes=53,no=54,missing=53
					53:leaf=0.0109155653
					54:leaf=0.00138084299
			14:[f27<0.5] yes=29,no=30,missing=29
				29:[f30<0.5] yes=55,no=56,missing=55
					55:leaf=0.0111557329
					56:leaf=0.00316783204
				30:leaf=0.00244723563
booster[23]:
0:[f39<1.5] yes=1,no=2,missing=1
	1:[f42<1] yes=3,no=4,missing=3
		3:[f44<1] yes=7,no=8,missing=7
			7:[f43<1] yes=13,no=14,missing=13
				13:[f54<1.5] yes=23,no=24,missing=23
					23:leaf=0.0246742256
					24:leaf=0.0112800663
				14:[f31<0.5] yes=25,no=26,missing=25
					25:leaf=0.0152976289
					26:leaf=0.00553860096
			8:[f47<0.5] yes=15,no=16,missing=15
				15:[f35<1.5] yes=27,no=28,missing=27
					27:leaf=0.0086565651
					28:leaf=0.00203687232
				16:[f33<0.5] yes=29,no=30,missing=29
					29:leaf=0.0127137555
					30:leaf=-0.00178442604
		4:[f54<0.5] yes=9,no=10,missing=9
			9:[f49<0.5] yes=17,no=18,missing=17
				17:[f42<3] yes=31,no=32,missing=31
					31:leaf=0.00813180767
					32:leaf=0.00244546845
				18:[f36<1.5] yes=33,no=34,missing=33
					33:leaf=0.00977398455
					34:leaf=0.0155550912
			10:[f46<1.5] yes=19,no=20,missing=19
				19:[f30<0.5] yes=35,no=36,missing=35
					35:leaf=0.00558401458
					36:leaf=-0.000445346028
				20:[f27<0.5] yes=37,no=38,missing=37
					37:leaf=-0.00241593714
					38:leaf=-0.000528204429
	2:[f40<3] yes=5,no=6,missing=5
		5:[f41<3] yes=11,no=12,missing=11
			11:[f40<1] yes=21,no=22,missing=21
				21:[f54<1.5] yes=39,no=40,missing=39
					39:leaf=0.0137044489
					40:leaf=0.00775803626
				22:[f14<0.5] yes=41,no=42,missing=41
					41:leaf=0.0188619737
					42:leaf=0.00443483004
			12:leaf=0.0273159426
		6:leaf=0.031195363
booster[24]:
0:[f41<1] yes=1,no=2,missing=1
	1:[f40<1] yes=3,no=4,missing=3
		3:[f52<1.5] yes=7,no=8,missing=7
			7:[f37<1.5] yes=15,no=16,missing=15
				15:[f35<1.5] yes=29,no=30,missing=29
					29:leaf=0.00631302688
					30:leaf=0.00070693047
				16:[f27<0.5] yes=31,no=32,missing=31
					31:leaf=-0.00162744673
					32:leaf=0.00255578361
			8:[f35<1.5] yes=17,no=18,missing=17
				17:[f36<1.5] yes=33,no=34,missing=33
					33:leaf=0.0119239883
					34:leaf=0.00501736626
				18:[f30<0.5] yes=35,no=36,missing=35
					35:leaf=0.0035066444
					36:leaf=-0.000233030325
		4:[f39<1.5] yes=9,no=10,missing=9
			9:[f0<0.5] yes=19,no=20,missing=19
				19:[f52<1.5] yes=37,no=38,missing=37
					37:leaf=0.00741099892
					38:leaf=0.0129267564
				20:[f47<0.5] yes=39,no=40,missing=39
					39:leaf=0.0205728617
					40:leaf=0.00527032046
			10:[f14<0.5] yes=21,no=22,missing=21
				21:[f9<0.5] yes=41,no=42,missing=41
					41:leaf=0.0194581263
					42:leaf=0.00432508579
				22:leaf=0.00421308866
	2:[f50<1.5] yes=5,no=6,missing=5
		5:[f52<1.5] yes=11,no=12,missing=11
			11:[f41<3] yes=23,no=24,missing=23
				23:[f35<1.5] yes=43,no=44,missing=43
					43:leaf=0.0103661073
					44:leaf=0.00447838753
				24:[f39<1.5] yes=45,no=46,missing=45
					45:leaf=0.012346196
					46:leaf=0.0221833233
			12:[f35<1.5] yes=25,no=26,missing=25
				25:[f42<1] yes=47,no=48,missing=47
					47:leaf=0.0247534756
					48:leaf=0.0110218814
				26:[f6<0.5] yes=49,no=50,missing=49
					49:leaf=0.011149846
					50:leaf=0.00204896927
		6:[f48<1.5] yes=13,no=14,missing=13
			13:[f21<0.5] yes=27,no=28,missing=27
				27:[f24<0.5] yes=51,no=52,missing=51
					51:leaf=0.0206196792
					52:leaf=0.00962620415
				28:leaf=0.00646601571
			14:leaf=0.00597614842
booster[25]:
0:[f44<1] yes=1,no=2,missing=1
	1:[f42<1] yes=3,no=4,missing=3
		3:[f43<1] yes=7,no=8,missing=7
			7:[f35<1.5] yes=15,no=16,missing=15
				15:[f51<1.5] yes=31,no=32,missing=31
					31:leaf=0.0260912683
					32:leaf=0.0109988842
				16:[f45<1.5] yes=33,no=34,missing=33
					33:leaf=0.0144478949
					34:leaf=0.00279943948
			8:[f35<1.5] yes=17,no=18,missing=17
				17:[f53<1.5] yes=35,no=36,missing=35
					35:leaf=0.0165290162
					36:leaf=0.00952619221
				18:[f48<1.5] yes=37,no=38,missing=37
					37:leaf=0.00930127967
					38:leaf=0.00296402373
		4:[f39<1.5] yes=9,no=10,missing=9
			9:[f42<3] yes=19,no=20,missing=19
				19:[f49<1.5] yes=39,no=40,missing=39
					39:leaf=0.00785275269
					40:leaf=0.0143703837
				20:[f49<0.5] yes=41,no=42,missing=41
					41:leaf=0.00159992743
					42:leaf=0.00606756331
			10:[f25<0.5] yes=21,no=22,missing=21
				21:[f19<0.5] yes=43,no=44,missing=43
					43:leaf=0.0148559576
					44:leaf=0.00652759383
				22:leaf=0.00181210041
	2:[f50<1.5] yes=5,no=6,missing=5
		5:[f52<1.5] yes=11,no=12,missing=11
			11:[f41<1] yes=23,no=24,missing=23
				23:[f45<1.5] yes=45,no=46,missing=45
					45:leaf=0.00376869855
					46:leaf=-0.00290003419
				24:[f35<1.5] yes=47,no=48,missing=47
					47:leaf=0.0083466908
					48:leaf=0.00280860555
			12:[f40<1] yes=25,no=26,missing=25
				25:[f48<2.5] yes=49,no=50,missing=49
					49:leaf=0.00844411366
					50:leaf=0.00110474823
				26:[f48<0.5] yes=51,no=52,missing=51
					51:leaf=0.0184033345
					52:leaf=0.0087666465
		6:[f42<1] yes=13,no=14,missing=13
			13:[f35<1.5] yes=27,no=28,missing=27
				27:[f48<1.5] yes=53,no=54,missing=53
					53:leaf=0.0173189752
					54:leaf=0.00707347412
				28:[f24<0.5] yes=55,no=56,missing=55
					55:leaf=0.008380129
					56:leaf=0.000728648913
			14:[f27<0.5] yes=29,no=30,missing=29
				29:[f30<0.5] yes=57,no=58,missing=57
					57:leaf=0.00826213043
					58:leaf=0.00228719111
				30:leaf=0.00207481394
booster[26]:
0:[f39<1.5] yes=1,no=2,missing=1
	1:[f42<1] yes=3,no=4,missing=3
		3:[f44<1] yes=7,no=8,missing=7
			7:[f43<1] yes=13,no=14,missing=13
				13:[f48<0.5] yes=25,no=26,missing=25
					25:leaf=0.011993573
					26:leaf=0.0216370597
				14:[f52<1.5] yes=27,no=28,missing=27
					27:leaf=0.00976448413
					28:leaf=0.0145757934
			8:[f44<3] yes=15,no=16,missing=15
				15:[f53<1.5] yes=29,no=30,missing=29
					29:leaf=0.00972320698
					30:leaf=0.00382335484
				16:[f48<0.5] yes=31,no=32,missing=31
					31:leaf=0.00626601512
					32:leaf=-0.000200055059
		4:[f49<1.5] yes=9,no=10,missing=9
			9:[f35<1.5] yes=17,no=18,missing=17
				17:[f54<0.5] yes=33,no=34,missing=33
					33:leaf=0.00719527388
					34:leaf=0.0032633394
				18:[f20<0.5] yes=35,no=36,missing=35
					35:leaf=0.00187304267
					36:leaf=0.00528803794
			10:[f53<1.5] yes=19,no=20,missing=19
				19:[f54<1.5] yes=37,no=38,missing=37
					37:leaf=0.0143438904
					38:leaf=0.000864189875
				20:[f37<1.5] yes=39,no=40,missing=39
					39:leaf=0.00707236165
					40:leaf=-0.00423767557
	2:[f40<3] yes=5,no=6,missing=5
		5:[f41<3] yes=11,no=12,missing=11
			11:[f40<1] yes=21,no=22,missing=21
				21:[f27<0.5] yes=41,no=42,missing=41
					41:leaf=0.00983174518
					42:leaf=0.00207323232
				22:[f45<1.5] yes=43,no=44,missing=43
					43:leaf=0.0149368616
					44:leaf=0.00600810954
			12:[f16<0.5] yes=23,no=24,missing=23
				23:leaf=0.0233781934
				24:leaf=0.00917398091
		6:leaf=0.0252262242
booster[27]:
0:[f50<2] yes=1,no=2,missing=1
	1:[f52<1.5] yes=3,no=4,missing=3
		3:[f44<1] yes=7,no=8,missing=7
			7:[f35<1.5] yes=15,no=16,missing=15
				15:[f47<0.5] yes=29,no=30,missing=29
					29:leaf=0.0109654842
					30:leaf=0.00606211601
				16:[f42<1] yes=31,no=32,missing=31
					31:leaf=0.00635650754
					32:leaf=0.00134506985
			8:[f18<0.5] yes=17,no=18,missing=17
				17:[f35<1.5] yes=33,no=34,missing=33
					33:leaf=0.00420996873
					34:leaf=-8.13345177e-05
				18:[f46<0.5] yes=35,no=36,missing=35
					35:leaf=0.0124891102
					36:leaf=0.00310278242
		4:[f42<1] yes=9,no=10,missing=9
			9:[f44<3] yes=19,no=20,missing=19
				19:[f35<1.5] yes=37,no=38,missing=37
					37:leaf=0.0179957654
					38:leaf=0.00976992678
				20:leaf=0.00392284896
			10:[f37<1.5] yes=21,no=22,missing=21
				21:[f47<2.5] yes=39,no=40,missing=39
					39:leaf=0.0084813498
					40:leaf=0.0001046896
				22:[f2<0.5] yes=41,no=42,missing=41
					41:leaf=0.00594502455
					42:leaf=-0.0051375567
	2:[f41<1] yes=5,no=6,missing=5
		5:[f40<1] yes=11,no=12,missing=11
			11:[f26<0.5] yes=23,no=24,missing=23
				23:[f45<0.5] yes=43,no=44,missing=43
					43:leaf=0.00756486645
					44:leaf=0.0034626741
				24:leaf=-0.00119167566
			12:[f35<1.5] yes=25,no=26,missing=25
				25:[f11<0.5] yes=45,no=46,missing=45
					45:leaf=0.0149340499
					46:leaf=0.00696979789
				26:[f2<0.5] yes=47,no=48,missing=47
					47:leaf=0.00519223232
					48:leaf=-0.00108227727
		6:[f48<1.5] yes=13,no=14,missing=13
			13:[f21<0.5] yes=27,no=28,missing=27
				27:[f24<0.5] yes=49,no=50,missing=49
					49:leaf=0.0160692148
					50:leaf=0.00771178026
				28:leaf=0.00491656875
			14:leaf=0.00441439962
booster[28]:
0:[f39<1.5] yes=1,no=2,missing=1
	1:[f50<2] yes=3,no=4,missing=3
		3:[f52<1.5] yes=7,no=8,missing=7
			7:[f40<3] yes=13,no=14,missing=13
				13:[f41<1] yes=25,no=26,missing=25
					25:leaf=0.00213262229
					26:leaf=0.00597293489
				14:[f35<1.5] yes=27,no=28,missing=27
					27:leaf=0.0118120341
					28:leaf=0.00507015502
			8:[f42<1] yes=15,no=16,missing=15
				15:[f44<3] yes=29,no=30,missing=29
					29:leaf=0.013648768
					30:leaf=0.00360902329
				16:[f45<1.5] yes=31,no=32,missing=31
					31:leaf=0.00685113063
					32:leaf=0.00151014328
		4:[f42<3] yes=9,no=10,missing=9
			9:[f2<0.5] yes=17,no=18,missing=17
				17:[f44<1] yes=33,no=34,missing=33
					33:leaf=0.0131870974
					34:leaf=0.0086938832
				18:leaf=-0.00102816231
			10:[f26<0.5] yes=19,no=20,missing=19
				19:leaf=0.00292433123
				20:leaf=-0.00113209488
	2:[f40<3] yes=5,no=6,missing=5
		5:[f41<3] yes=11,no=12,missing=11
			11:[f54<1.5] yes=21,no=22,missing=21
				21:[f40<1] yes=35,no=36,missing=35
					35:leaf=0.00848834217
					36:leaf=0.0126137538
				22:[f29<0.5] yes=37,no=38,missing=37
					37:leaf=0.00567588815
					38:leaf=0.000472807878
			12:[f16<0.5] yes=23,no=24,missing=23
				23:[f49<1.5] yes=39,no=40,missing=39
					39:leaf=0.021224346
					40:leaf=0.00584152946
				24:leaf=0.0079948036
		6:leaf=0.0218247008
booster[29]:
0:[f39<1.5] yes=1,no=2,missing=1
	1:[f42<1] yes=3,no=4,missing=3
		3:[f44<1] yes=7,no=8,missing=7
			7:[f43<1] yes=13,no=14,missing=13
				13:[f48<0.5] yes=23,no=24,missing=23
					23:leaf=0.00885258056
					24:leaf=0.0175398197
				14:[f22<0.5] yes=25,no=26,missing=25
					25:leaf=0.00857780315
					26:leaf=0.00293937232
			8:[f47<0.5] yes=15,no=16,missing=15
				15:[f35<1.5] yes=27,no=28,missing=27
					27:leaf=0.00446529733
					28:leaf=-0.000469226128
				16:[f33<0.5] yes=29,no=30,missing=29
					29:leaf=0.00752704544
					30:leaf=-0.00250642304
		4:[f49<1.5] yes=9,no=10,missing=9
			9:[f35<1.5] yes=17,no=18,missing=17
				17:[f37<1.5] yes=31,no=32,missing=31
					31:leaf=0.00530267134
					32:leaf=0.0016483342
				18:[f20<0.5] yes=33,no=34,missing=33
					33:leaf=0.000969756569
					34:leaf=0.00379413064
			10:[f53<1.5] yes=19,no=20,missing=19
				19:[f54<1.5] yes=35,no=36,missing=35
					35:leaf=0.0114810979
					36:leaf=0.000647097826
				20:[f37<1.5] yes=37,no=38,missing=37
					37:leaf=0.00579204923
					38:leaf=-0.00434292573
	2:[f40<3] yes=5,no=6,missing=5
		5:[f41<3] yes=11,no=12,missing=11
			11:[f54<1.5] yes=21,no=22,missing=21
				21:[f53<1.5] yes=39,no=40,missing=39
					39:leaf=0.00997495372
					40:leaf=0.00591595192
				22:[f27<0.5] yes=41,no=42,missing=41
					41:leaf=0.00518735452
					42:leaf=0.000258624554
			12:leaf=0.01693202
		6:leaf=0.0200059842
booster[30]:
0:[f50<2] yes=1,no=2,missing=1
	1:[f52<1.5] yes=3,no=4,missing=3
		3:[f41<3] yes=7,no=8,missing=7
			7:[f40<3] yes=15,no=16,missing=15
				15:[f35<1.5] yes=29,no=30,missing=29
					29:leaf=0.00397787057
					30:leaf=0.000436348841
				16:[f35<1.5] yes=31,no=32,missing=31
					31:leaf=0.010276949
					32:leaf=0.00366845727
			8:[f39<1.5] yes=17,no=18,missing=17
				17:[f49<0.5] yes=33,no=34,missing=33
					33:leaf=0.00333987153
					34:leaf=0.00841402914
				18:[f47<0.5] yes=35,no=36,missing=35
					35:leaf=0.0157474913
					36:leaf=0.00349088921
		4:[f42<1] yes=9,no=10,missing=9
			9:[f44<3] yes=19,no=20,missing=19
				19:[f35<1.5] yes=37,no=38,missing=37
					37:leaf=0.0138292238
					38:leaf=0.00712293247
				20:leaf=0.00300052878
			10:[f29<0.5] yes=21,no=22,missing=21
				21:[f45<1.5] yes=39,no=40,missing=39
					39:leaf=0.00704523502
					40:leaf=0.0030188642
				22:[f35<1.5] yes=41,no=42,missing=41
					41:leaf=0.00272483239
					42:leaf=0.000140750417
	2:[f41<1] yes=5,no=6,missing=5
		5:[f40<1] yes=11,no=12,missing=11
			11:[f45<0.5] yes=23,no=24,missing=23
				23:[f35<1.5] yes=43,no=44,missing=43
					43:leaf=0.00585734658
					44:leaf=0.00164864061
				24:[f26<0.5] yes=45,no=46,missing=45
					45:leaf=0.00211211061
					46:leaf=-0.00115790369
			12:[f35<1.5] yes=25,no=26,missing=25
				25:[f11<0.5] yes=47,no=48,missing=47
					47:leaf=0.0116785718
					48:leaf=0.00514030037
				26:[f2<0.5] yes=49,no=50,missing=49
					49:leaf=0.00412157178
					50:leaf=-0.00102524168
		6:[f48<1.5] yes=13,no=14,missing=13
			13:[f21<0.5] yes=27,no=28,missing=27
				27:[f35<1.5] yes=51,no=52,missing=51
					51:leaf=0.0130638927
					52:leaf=0.00807486195
				28:leaf=0.00350680365
			14:leaf=0.00314076361
booster[31]:
0:[f39<1.5] yes=1,no=2,missing=1
	1:[f54<0.5] yes=3,no=4,missing=3
		3:[f49<0.5] yes=7,no=8,missing=7
			7:[f44<3] yes=13,no=14,missing=13
				13:[f42<1] yes=25,no=26,missing=25
					25:leaf=0.00678978255
					26:leaf=0.00262190565
				14:[f48<0.5] yes=27,no=28,missing=27
					27:leaf=0.00273758173
					28:leaf=-0.00251691206
			8:[f53<1.5] yes=15,no=16,missing=15
				15:[f36<1.5] yes=29,no=30,missing=29
					29:leaf=0.00716652349
					30:leaf=0.0119752092
				16:[f44<1] yes=31,no=32,missing=31
					31:leaf=0.00535091432
					32:leaf=8.71244629e-05
		4:[f43<1] yes=9,no=10,missing=9
			9:[f46<1.5] yes=17,no=18,missing=17
				17:[f30<0.5] yes=33,no=34,missing=33
					33:leaf=0.00165777688
					34:leaf=-0.00234687724
				18:[f42<1] yes=35,no=36,missing=35
					35:leaf=0.000773410022
					36:leaf=-0.00431643566
			10:[f43<3] yes=19,no=20,missing=19
				19:[f48<1.5] yes=37,no=38,missing=37
					37:leaf=0.00549091678
					38:leaf=-0.00132285804
				20:[f46<0.5] yes=39,no=40,missing=39
					39:leaf=-0.00236198655
					40:leaf=0.0020965219
	2:[f40<3] yes=5,no=6,missing=5
		5:[f41<3] yes=11,no=12,missing=11
			11:[f40<1] yes=21,no=22,missing=21
				21:[f46<1.5] yes=41,no=42,missing=41
					41:leaf=0.00621645572
					42:leaf=0.00254286081
				22:[f45<1.5] yes=43,no=44,missing=43
					43:leaf=0.0100282645
					44:leaf=0.00345145771
			12:[f16<0.5] yes=23,no=24,missing=23
				23:[f49<1.5] yes=45,no=46,missing=45
					45:leaf=0.0167355035
					46:leaf=0.00391547708
				24:leaf=0.00569172716
		6:leaf=0.0172941927
booster[32]:
0:[f41<1] yes=1,no=2,missing=1
	1:[f40<1] yes=3,no=4,missing=3
		3:[f51<0.5] yes=7,no=8,missing=7
			7:[f35<1.5] yes=15,no=16,missing=15
				15:[f36<1.5] yes=27,no=28,missing=27
					27:leaf=0.00377289997
					28:leaf=0.000198599417
				16:[f54<1.5] yes=29,no=30,missing=29
					29:leaf=0.000772328407
					30:leaf=-0.00363015733
			8:[f36<1.5] yes=17,no=18,missing=17
				17:[f43<1] yes=31,no=32,missing=31
					31:leaf=-0.00498171942
					32:leaf=-0.00125944766
				18:[f30<0.5] yes=33,no=34,missing=33
					33:leaf=0.00425762543
					34:leaf=-0.000196552282
		4:[f35<1.5] yes=9,no=10,missing=9
			9:[f42<1] yes=19,no=20,missing=19
				19:[f44<1] yes=35,no=36,missing=35
					35:leaf=0.0101053389
					36:leaf=0.00487039564
				20:[f37<1.5] yes=37,no=38,missing=37
					37:leaf=0.00491295196
					38:leaf=0.000301674008
			10:[f0<0.5] yes=21,no=22,missing=21
				21:[f52<1.5] yes=39,no=40,missing=39
					39:leaf=0.000567711948
					40:leaf=0.00412652502
				22:leaf=0.00540058641
	2:[f50<1.5] yes=5,no=6,missing=5
		5:[f15<0.5] yes=11,no=12,missing=11
			11:[f52<1.5] yes=23,no=24,missing=23
				23:[f21<0.5] yes=41,no=42,missing=41
					41:leaf=0.00484137889
					42:leaf=0.000159304152
				24:[f35<1.5] yes=43,no=44,missing=43
					43:leaf=0.0100358753
					44:leaf=0.00470572989
			12:leaf=0.0189755764
		6:[f48<1.5] yes=13,no=14,missing=13
			13:[f21<0.5] yes=25,no=26,missing=25
				25:[f35<1.5] yes=45,no=46,missing=45
					45:leaf=0.0109842755
					46:leaf=0.00675988942
				26:leaf=0.00297840848
			14:leaf=0.00247872272
booster[33]:
0:[f39<1.5] yes=1,no=2,missing=1
	1:[f54<0.5] yes=3,no=4,missing=3
		3:[f49<0.5] yes=7,no=8,missing=7
			7:[f0<0.5] yes=13,no=14,missing=13
				13:[f51<1.5] yes=25,no=26,missing=25
					25:leaf=0.00373609178
					26:leaf=0.00105860562
				14:leaf=0.0121037643
			8:[f53<1.5] yes=15,no=16,missing=15
				15:[f40<1] yes=27,no=28,missing=27
					27:leaf=0.00535185728
					28:leaf=0.00912444573
				16:[f44<1] yes=29,no=30,missing=29
					29:leaf=0.00438240496
					30:leaf=-0.000189269296
		4:[f36<1.5] yes=9,no=10,missing=9
			9:[f47<0.5] yes=17,no=18,missing=17
				17:[f24<0.5] yes=31,no=32,missing=31
					31:leaf=-0.00165290094
					32:leaf=0.00470131636
				18:[f43<1] yes=33,no=34,missing=33
					33:leaf=0.000534032588
					34:leaf=0.00546311075
			10:[f40<1] yes=19,no=20,missing=19
				19:[f46<0.5] yes=35,no=36,missing=35
					35:leaf=-0.00204671617
					36:leaf=0.00139638665
				20:[f9<0.5] yes=37,no=38,missing=37
					37:leaf=0.00574368611
					38:leaf=-0.00429115305
	2:[f40<3] yes=5,no=6,missing=5
		5:[f41<3] yes=11,no=12,missing=11
			11:[f40<1] yes=21,no=22,missing=21
				21:[f27<0.5] yes=39,no=40,missing=39
					39:leaf=0.0049339938
					40:leaf=-0.000200470284
				22:[f45<1.5] yes=41,no=42,missing=41
					41:leaf=0.00840324536
					42:leaf=0.00282771303
			12:[f16<0.5] yes=23,no=24,missing=23
				23:[f49<1.5] yes=43,no=44,missing=43
					43:leaf=0.0143602109
					44:leaf=0.003477633
				24:leaf=0.00498952111
		6:leaf=0.0151704913
booster[34]:
0:[f41<1] yes=1,no=2,missing=1
	1:[f40<1] yes=3,no=4,missing=3
		3:[f37<1.5] yes=7,no=8,missing=7
			7:[f35<1.5] yes=13,no=14,missing=13
				13:[f27<0.5] yes=25,no=26,missing=25
					25:leaf=0.0028221691
					26:leaf=-0.00160506577
				14:[f54<1.5] yes=27,no=28,missing=27
					27:leaf=-0.000546349911
					28:leaf=-0.00351515226
			8:[f27<0.5] yes=15,no=16,missing=15
				15:leaf=-0.00340812281
				16:leaf=0.000641171122
		4:[f35<1.5] yes=9,no=10,missing=9
			9:[f42<1] yes=17,no=18,missing=17
				17:[f40<3] yes=29,no=30,missing=29
					29:leaf=0.00443279371
					30:leaf=0.00938426424
				18:[f37<1.5] yes=31,no=32,missing=31
					31:leaf=0.00393365975
					32:leaf=-3.7034355e-05
			10:[f0<0.5] yes=19,no=20,missing=19
				19:[f46<0.5] yes=33,no=34,missing=33
					33:leaf=0.00184879161
					34:leaf=-0.000688126951
				20:leaf=0.0047186017
	2:[f15<0.5] yes=5,no=6,missing=5
		5:[f50<1.5] yes=11,no=12,missing=11
			11:[f52<1.5] yes=21,no=22,missing=21
				21:[f35<1.5] yes=35,no=36,missing=35
					35:leaf=0.00426066108
					36:leaf=0.00129044824
				22:[f6<0.5] yes=37,no=38,missing=37
					37:leaf=0.00793229789
					38:leaf=0.00139209337
			12:[f48<1.5] yes=23,no=24,missing=23
				23:[f21<0.5] yes=39,no=40,missing=39
					39:leaf=0.00860865321
					40:leaf=0.00249084248
				24:[f8<0.5] yes=41,no=42,missing=41
					41:leaf=0.000521755253
					42:leaf=0.00257484312
		6:leaf=0.0170534775
booster[35]:
0:[f39<1.5] yes=1,no=2,missing=1
	1:[f44<1] yes=3,no=4,missing=3
		3:[f42<1] yes=7,no=8,missing=7
			7:[f43<1] yes=13,no=14,missing=13
				13:[f48<0.5] yes=25,no=26,missing=25
					25:leaf=0.00489433296
					26:leaf=0.0123825325
				14:[f22<0.5] yes=27,no=28,missing=27
					27:leaf=0.00477311574
					28:leaf=0.000521108101
			8:[f37<1.5] yes=15,no=16,missing=15
				15:[f35<1.5] yes=29,no=30,missing=29
					29:leaf=0.00449368544
					30:leaf=0.00105545763
				16:[f20<0.5] yes=31,no=32,missing=31
					31:leaf=-0.00285225641
					32:leaf=0.00361315417
		4:[f47<0.5] yes=9,no=10,missing=9
			9:[f35<1.5] yes=17,no=18,missing=17
				17:[f53<1.5] yes=33,no=34,missing=33
					33:leaf=0.00235500862
					34:leaf=-0.000696427829
				18:[f49<1.5] yes=35,no=36,missing=35
					35:leaf=-0.00274421694
					36:leaf=0.00355276652
			10:[f42<1] yes=19,no=20,missing=19
				19:[f37<1.5] yes=37,no=38,missing=37
					37:leaf=0.00323830545
					38:leaf=0.00781948306
				20:[f51<1.5] yes=39,no=40,missing=39
					39:leaf=0.0022169142
					40:leaf=-0.00136003795
	2:[f40<3] yes=5,no=6,missing=5
		5:[f41<3] yes=11,no=12,missing=11
			11:[f40<1] yes=21,no=22,missing=21
				21:[f46<1.5] yes=41,no=42,missing=41
					41:leaf=0.004282929
					42:leaf=0.00126388227
				22:[f14<0.5] yes=43,no=44,missing=43
					43:leaf=0.00684588263
					44:leaf=0.000344538683
			12:[f16<0.5] yes=23,no=24,missing=23
				23:[f49<1.5] yes=45,no=46,missing=45
					45:leaf=0.0123522561
					46:leaf=0.0030907155
				24:leaf=0.00437282724
		6:leaf=0.0133430725
booster[36]:
0:[f54<0.5] yes=1,no=2,missing=1
	1:[f35<1.5] yes=3,no=4,missing=3
		3:[f42<1] yes=7,no=8,missing=7
			7:[f53<1.5] yes=15,no=16,missing=15
				15:[f44<3] yes=29,no=30,missing=29
					29:leaf=0.00770116365
					30:leaf=0.00259568612
				16:[f41<3] yes=31,no=32,missing=31
					31:leaf=0.00198839651
					32:leaf=0.00919800997
			8:[f6<0.5] yes=17,no=18,missing=17
				17:[f37<1.5] yes=33,no=34,missing=33
					33:leaf=0.00320015918
					34:leaf=9.93325593e-05
				18:[f48<0.5] yes=35,no=36,missing=35
					35:leaf=0.00409005629
					36:leaf=0.00919782277
		4:[f49<1.5] yes=9,no=10,missing=9
			9:[f1<0.5] yes=19,no=20,missing=19
				19:[f41<3] yes=37,no=38,missing=37
					37:leaf=0.000307642797
					38:leaf=0.00411343575
				20:[f45<0.5] yes=39,no=40,missing=39
					39:leaf=0.00195885892
					40:leaf=0.00820167083
			10:[f41<1] yes=21,no=22,missing=21
				21:[f11<0.5] yes=41,no=42,missing=41
					41:leaf=0.000186055899
					42:leaf=0.00136706827
				22:leaf=0.00850960519
	2:[f45<0.5] yes=5,no=6,missing=5
		5:[f7<0.5] yes=11,no=12,missing=11
			11:[f46<0.5] yes=23,no=24,missing=23
				23:[f37<1.5] yes=43,no=44,missing=43
					43:leaf=-0.00201096828
					44:leaf=0.000713210087
				24:[f37<1.5] yes=45,no=46,missing=45
					45:leaf=0.00110737141
					46:leaf=-0.0026874363
			12:leaf=0.00449403515
		6:[f46<0.5] yes=13,no=14,missing=13
			13:[f49<0.5] yes=25,no=26,missing=25
				25:[f44<1] yes=47,no=48,missing=47
					47:leaf=0.00122466532
					48:leaf=-0.00248033996
				26:[f30<0.5] yes=49,no=50,missing=49
					49:leaf=0.00724215154
					50:leaf=-0.00057594775
			14:[f41<1] yes=27,no=28,missing=27
				27:[f39<1.5] yes=51,no=52,missing=51
					51:leaf=-0.00294509321
					52:leaf=0.00345481932
				28:[f39<1.5] yes=53,no=54,missing=53
					53:leaf=0.00425425544
					54:leaf=0.0003682971
booster[37]:
0:[f50<2] yes=1,no=2,missing=1
	1:[f52<1.5] yes=3,no=4,missing=3
		3:[f41<3] yes=7,no=8,missing=7
			7:[f44<1] yes=15,no=16,missing=15
				15:[f40<3] yes=27,no=28,missing=27
					27:leaf=0.00188339583
					28:leaf=0.00531227514
				16:[f48<0.5] yes=29,no=30,missing=29
					29:leaf=0.00158411625
					30:leaf=-0.000949191977
			8:[f15<0.5] yes=17,no=18,missing=17
				17:[f49<0.5] yes=31,no=32,missing=31
					31:leaf=0.00109357841
					32:leaf=0.00532273483
				18:leaf=0.0137491105
		4:[f42<1] yes=9,no=10,missing=9
			9:[f44<3] yes=19,no=20,missing=19
				19:[f45<2.5] yes=33,no=34,missing=33
					33:leaf=0.0075817341
					34:leaf=-0.000206422803
				20:[f46<0.5] yes=35,no=36,missing=35
					35:leaf=0.000143760451
					36:leaf=0.00113044085
			10:[f49<1.5] yes=21,no=22,missing=21
				21:[f35<1.5] yes=37,no=38,missing=37
					37:leaf=0.00299701071
					38:leaf=8.41311048e-05
				22:leaf=0.00737518072
	2:[f42<3] yes=5,no=6,missing=5
		5:[f44<1] yes=11,no=12,missing=11
			11:[f47<1.5] yes=23,no=24,missing=23
				23:[f37<1.5] yes=39,no=40,missing=39
					39:leaf=0.00818489678
					40:leaf=0.00324857677
				24:[f7<0.5] yes=41,no=42,missing=41
					41:leaf=-0.00100169179
					42:leaf=0.00170480018
			12:[f45<0.5] yes=25,no=26,missing=25
				25:[f35<1.5] yes=43,no=44,missing=43
					43:leaf=0.00664852047
					44:leaf=0.00074741448
				26:[f46<0.5] yes=45,no=46,missing=45
					45:leaf=0.00306359027
					46:leaf=-0.000352023053
		6:[f26<0.5] yes=13,no=14,missing=13
			13:leaf=0.000502725481
			14:leaf=-0.00129850511
booster[38]:
0:[f39<1.5] yes=1,no=2,missing=1
	1:[f49<0.5] yes=3,no=4,missing=3
		3:[f0<0.5] yes=7,no=8,missing=7
			7:[f44<3] yes=13,no=14,missing=13
				13:[f42<3] yes=25,no=26,missing=25
					25:leaf=0.00183313049
					26:leaf=-0.00126106862
				14:[f48<0.5] yes=27,no=28,missing=27
					27:leaf=0.00145214598
					28:leaf=-0.00318725966
			8:[f38<1.5] yes=15,no=16,missing=15
				15:leaf=0.00271914015
				16:leaf=0.0111829042
		4:[f36<1.5] yes=9,no=10,missing=9
			9:[f54<1.5] yes=17,no=18,missing=17
				17:[f53<1.5] yes=29,no=30,missing=29
					29:leaf=0.00381461577
					30:leaf=0.00127594685
				18:[f47<0.5] yes=31,no=32,missing=31
					31:leaf=-0.001581038
					32:leaf=0.0035842699
			10:[f40<1] yes=19,no=20,missing=19
				19:[f53<1.5] yes=33,no=34,missing=33
					33:leaf=0.00386751443
					34:leaf=-0.000713852467
				20:[f44<1] yes=35,no=36,missing=35
					35:leaf=0.00933831278
					36:leaf=0.00362423435
	2:[f40<3] yes=5,no=6,missing=5
		5:[f41<3] yes=11,no=12,missing=11
			11:[f40<1] yes=21,no=22,missing=21
				21:[f45<1.5] yes=37,no=38,missing=37
					37:leaf=0.00225876737
					38:leaf=0.00513455598
				22:[f42<1] yes=39,no=40,missing=39
					39:leaf=0.00633797282
					40:leaf=0.0028654628
			12:[f47<0.5] yes=23,no=24,missing=23
				23:[f49<1.5] yes=41,no=42,missing=41
					41:leaf=0.0104388511
					42:leaf=0.00378011889
				24:leaf=0.00331841293
		6:leaf=0.0111253299
booster[39]:
0:[f41<1] yes=1,no=2,missing=1
	1:[f40<1] yes=3,no=4,missing=3
		3:[f51<0.5] yes=7,no=8,missing=7
			7:[f48<0.5] yes=13,no=14,missing=13
				13:[f42<3] yes=25,no=26,missing=25
					25:leaf=0.00275553926
					26:leaf=-0.000756940281
				14:[f26<0.5] yes=27,no=28,missing=27
					27:leaf=-0.000592704106
					28:leaf=0.00326597923
			8:[f36<1.5] yes=15,no=16,missing=15
				15:[f43<1] yes=29,no=30,missing=29
					29:leaf=-0.00468555279
					30:leaf=-0.00178106583
				16:[f26<0.5] yes=31,no=32,missing=31
					31:leaf=-9.65547588e-05
					32:leaf=0.00452119717
		4:[f0<0.5] yes=9,no=10,missing=9
			9:[f39<1.5] yes=17,no=18,missing=17
				17:[f52<1.5] yes=33,no=34,missing=33
					33:leaf=0.000977549353
					34:leaf=0.00370474136
				18:[f14<0.5] yes=35,no=36,missing=35
					35:leaf=0.00562109379
					36:leaf=-0.000168216226
			10:[f38<1.5] yes=19,no=20,missing=19
				19:leaf=0.00408797292
				20:leaf=0.0106237652
	2:[f15<0.5] yes=5,no=6,missing=5
		5:[f50<1.5] yes=11,no=12,missing=11
			11:[f49<1.5] yes=21,no=22,missing=21
				21:[f35<1.5] yes=37,no=38,missing=37
					37:leaf=0.00272582471
					38:leaf=0.000461052696
				22:[f44<1] yes=39,no=40,missing=39
					39:leaf=0.00724008819
					40:leaf=0.00108944345
			12:[f49<0.5] yes=23,no=24,missing=23
				23:[f39<1.5] yes=41,no=42,missing=41
					41:leaf=0.00251179934
					42:leaf=0.00701204548
				24:[f37<1.5] yes=43,no=44,missing=43
					43:leaf=0.00766304974
					44:leaf=0.00219823513
		6:leaf=0.0133408783
booster[40]:
0:[f39<1.5] yes=1,no=2,missing=1
	1:[f50<2] yes=3,no=4,missing=3
		3:[f52<1.5] yes=7,no=8,missing=7
			7:[f0<0.5] yes=13,no=14,missing=13
				13:[f41<1] yes=25,no=26,missing=25
					25:leaf=-5.60576627e-05
					26:leaf=0.00172869617
				14:[f38<1.5] yes=27,no=28,missing=27
					27:leaf=0.00376093877
					28:leaf=0.0100925807
			8:[f42<1] yes=15,no=16,missing=15
				15:[f44<3] yes=29,no=30,missing=29
					29:leaf=0.00510465773
					30:leaf=0.00050457241
				16:[f49<1.5] yes=31,no=32,missing=31
					31:leaf=0.0012232411
					32:leaf=0.00627071504
		4:[f45<0.5] yes=9,no=10,missing=9
			9:[f17<0.5] yes=17,no=18,missing=17
				17:[f42<1] yes=33,no=34,missing=33
					33:leaf=0.00746010756
					34:leaf=0.00340489089
				18:leaf=-0.00161214673
			10:[f44<3] yes=19,no=20,missing=19
				19:[f2<0.5] yes=35,no=36,missing=35
					35:leaf=0.00334598287
					36:leaf=-0.00203064084
				20:[f24<0.5] yes=37,no=38,missing=37
					37:leaf=0.000249516976
					38:leaf=-0.00177098904
	2:[f40<3] yes=5,no=6,missing=5
		5:[f41<3] yes=11,no=12,missing=11
			11:[f42<3] yes=21,no=22,missing=21
				21:[f53<1.5] yes=39,no=40,missing=39
					39:leaf=0.00396592682
					40:leaf=0.00113305857
				22:[f47<0.5] yes=41,no=42,missing=41
					41:leaf=0.00308391056
					42:leaf=-0.00216365117
			12:[f15<0.5] yes=23,no=24,missing=23
				23:[f53<1.5] yes=43,no=44,missing=43
					43:leaf=0.00575737376
					44:leaf=0.00138018129
				24:leaf=0.0118726613
		6:leaf=0.00967962388
booster[41]:
0:[f54<0.5] yes=1,no=2,missing=1
	1:[f35<1.5] yes=3,no=4,missing=3
		3:[f42<1] yes=7,no=8,missing=7
			7:[f40<3] yes=13,no=14,missing=13
				13:[f53<1.5] yes=25,no=26,missing=25
					25:leaf=0.00439307559
					26:leaf=0.0011106875
				14:[f45<2.5] yes=27,no=28,missing=27
					27:leaf=0.00872333068
					28:leaf=-0.000679278397
			8:[f6<0.5] yes=15,no=16,missing=15
				15:[f37<1.5] yes=29,no=30,missing=29
					29:leaf=0.00193605595
					30:leaf=-0.000570717326
				16:[f38<1.5] yes=31,no=32,missing=31
					31:leaf=0.00272578257
					32:leaf=0.00764529733
		4:[f49<1.5] yes=9,no=10,missing=9
			9:[f1<0.5] yes=17,no=18,missing=17
				17:[f41<3] yes=33,no=34,missing=33
					33:leaf=-0.000387715467
					34:leaf=0.00277010212
				18:[f45<0.5] yes=35,no=36,missing=35
					35:leaf=0.00139415264
					36:leaf=0.00664116163
			10:[f41<1] yes=19,no=20,missing=19
				19:[f11<0.5] yes=37,no=38,missing=37
					37:leaf=5.94377525e-05
					38:leaf=0.00110963581
				20:leaf=0.00615381496
	2:[f3<0.5] yes=5,no=6,missing=5
		5:[f45<0.5] yes=11,no=12,missing=11
			11:[f7<0.5] yes=21,no=22,missing=21
				21:[f49<1.5] yes=39,no=40,missing=39
					39:leaf=-0.000319430052
					40:leaf=-0.00259135081
				22:leaf=0.00348551269
			12:[f46<0.5] yes=23,no=24,missing=23
				23:[f49<0.5] yes=41,no=42,missing=41
					41:leaf=-0.000596080034
					42:leaf=0.00447083823
				24:[f41<1] yes=43,no=44,missing=43
					43:leaf=-0.00171198219
					44:leaf=0.00212179939
		6:leaf=0.00511870394
booster[42]:
0:[f15<0.5] yes=1,no=2,missing=1
	1:[f1<0.5] yes=3,no=4,missing=3
		3:[f50<2] yes=5,no=6,missing=5
			5:[f52<1.5] yes=9,no=10,missing=9
				9:[f49<0.5] yes=15,no=16,missing=15
					15:leaf=4.28042003e-05
					16:leaf=0.00166422373
				10:[f2<0.5] yes=17,no=18,missing=17
					17:leaf=0.0029852069
					18:leaf=-0.000533203769
			6:[f45<0.5] yes=11,no=12,missing=11
				11:[f17<0.5] yes=19,no=20,missing=19
					19:leaf=0.00486701913
					20:leaf=-0.00179754104
				12:[f44<1] yes=21,no=22,missing=21
					21:leaf=0.00346009992
					22:leaf=0.000801985792
		4:[f45<1.5] yes=7,no=8,missing=7
			7:[f46<1.5] yes=13,no=14,missing=13
				13:leaf=0.0101753576
				14:leaf=0.00132445095
			8:leaf=-0.00141573744
	2:leaf=0.0117021082
booster[43]:
0:[f15<0.5] yes=1,no=2,missing=1
	1:[f1<0.5] yes=3,no=4,missing=3
		3:[f35<1.5] yes=5,no=6,missing=5
			5:[f54<0.5] yes=9,no=10,missing=9
				9:[f40<1] yes=15,no=16,missing=15
					15:leaf=0.00145751587
					16:leaf=0.00312994281
				10:[f43<1] yes=17,no=18,missing=17
					17:leaf=-0.00070206396
					18:leaf=0.00155072624
			6:[f49<1.5] yes=11,no=12,missing=11
				11:[f41<3] yes=19,no=20,missing=19
					19:leaf=-0.000606165442
					20:leaf=0.00268155034
				12:[f41<1] yes=21,no=22,missing=21
					21:leaf=0.000614133489
					22:leaf=0.00508545339
		4:[f45<1.5] yes=7,no=8,missing=7
			7:[f46<1.5] yes=13,no=14,missing=13
				13:leaf=0.00930317491
				14:leaf=0.00125823019
			8:leaf=-0.00132135558
	2:leaf=0.0109219709
booster[44]:
0:[f39<1.5] yes=1,no=2,missing=1
	1:[f49<0.5] yes=3,no=4,missing=3
		3:[f0<0.5] yes=7,no=8,missing=7
			7:[f2<0.5] yes=15,no=16,missing=15
				15:[f44<3] yes=31,no=32,missing=31
					31:leaf=0.000739738287
					32:leaf=-0.00180602446
				16:[f45<1.5] yes=33,no=34,missing=33
					33:leaf=-0.00366523978
					34:leaf=-0.00134943728
			8:[f38<1.5] yes=17,no=18,missing=17
				17:leaf=0.00169390836
				18:leaf=0.0089931488
		4:[f36<1.5] yes=9,no=10,missing=9
			9:[f54<1.5] yes=19,no=20,missing=19
				19:[f44<1] yes=35,no=36,missing=35
					35:leaf=0.00248429459
					36:leaf=0.000658852165
				20:[f46<0.5] yes=37,no=38,missing=37
					37:leaf=0.00101752498
					38:leaf=-0.00286365859
			10:[f40<1] yes=21,no=22,missing=21
				21:[f53<1.5] yes=39,no=40,missing=39
					39:leaf=0.00210649217
					40:leaf=-0.00142422912
				22:[f44<1] yes=41,no=42,missing=41
					41:leaf=0.00699493894
					42:leaf=0.00222777482
	2:[f42<1] yes=5,no=6,missing=5
		5:[f43<3] yes=11,no=12,missing=11
			11:[f44<3] yes=23,no=24,missing=23
				23:[f43<1] yes=43,no=44,missing=43
					43:leaf=0.00908934418
					44:leaf=0.0044410238
				24:[f53<1.5] yes=45,no=46,missing=45
					45:leaf=0.00215342431
					46:leaf=-0.000599285006
			12:[f32<0.5] yes=25,no=26,missing=25
				25:[f54<1.5] yes=47,no=48,missing=47
					47:leaf=0.00289546652
					48:leaf=-0.000443077093
				26:[f46<1.5] yes=49,no=50,missing=49
					49:leaf=2.02337906e-05
					50:leaf=-0.00135265
		6:[f49<0.5] yes=13,no=14,missing=13
			13:[f42<3] yes=27,no=28,missing=27
				27:[f29<0.5] yes=51,no=52,missing=51
					51:leaf=0.0024985231
					52:leaf=-0.000642971194
				28:[f54<1.5] yes=53,no=54,missing=53
					53:leaf=-0.0024988919
					54:leaf=-0.000373864168
			14:[f25<0.5] yes=29,no=30,missing=29
				29:[f44<1] yes=55,no=56,missing=55
					55:leaf=0.00451520132
					56:leaf=0.00109606981
				30:leaf=-0.00113649969
booster[45]:
0:[f15<0.5] yes=1,no=2,missing=1
	1:[f50<2] yes=3,no=4,missing=3
		3:[f52<1.5] yes=5,no=6,missing=5
			5:[f0<0.5] yes=9,no=10,missing=9
				9:[f49<0.5] yes=17,no=18,missing=17
					17:leaf=-0.000279102096
					18:leaf=0.0011822813
				10:[f38<1.5] yes=19,no=20,missing=19
					19:leaf=0.00281675346
					20:leaf=0.00854349136
			6:[f49<1.5] yes=11,no=12,missing=11
				11:[f42<1] yes=21,no=22,missing=21
					21:leaf=0.00307380944
					22:leaf=0.00102069299
				12:[f40<1] yes=23,no=24,missing=23
					23:leaf=0.00245730486
					24:leaf=0.00949919596
		4:[f42<1] yes=7,no=8,missing=7
			7:[f35<1.5] yes=13,no=14,missing=13
				13:[f17<0.5] yes=25,no=26,missing=25
					25:leaf=0.00499292091
					26:leaf=0.00101144321
				14:[f40<3] yes=27,no=28,missing=27
					27:leaf=-0.000291377306
					28:leaf=0.00520908833
			8:[f44<1] yes=15,no=16,missing=15
				15:[f42<3] yes=29,no=30,missing=29
					29:leaf=0.00323807006
					30:leaf=-0.00153245532
				16:[f45<0.5] yes=31,no=32,missing=31
					31:leaf=0.00099809689
					32:leaf=-0.000397733849
	2:leaf=0.00982065219
booster[46]:
0:[f39<1.5] yes=1,no=2,missing=1
	1:[f44<3] yes=3,no=4,missing=3
		3:[f42<1] yes=7,no=8,missing=7
			7:[f40<3] yes=13,no=14,missing=13
				13:[f53<1.5] yes=23,no=24,missing=23
					23:leaf=0.00186028855
					24:leaf=-0.000309148105
				14:[f35<1.5] yes=25,no=26,missing=25
					25:leaf=0.0049867807
					26:leaf=0.00160743727
			8:[f49<1.5] yes=15,no=16,missing=15
				15:[f45<1.5] yes=27,no=28,missing=27
					27:leaf=0.000380118232
					28:leaf=-0.00138034706
				16:[f37<1.5] yes=29,no=30,missing=29
					29:leaf=0.00401329575
					30:leaf=-0.00263775
		4:[f48<0.5] yes=9,no=10,missing=9
			9:[f38<1.5] yes=17,no=18,missing=17
				17:[f49<1.5] yes=31,no=32,missing=31
					31:leaf=0.000508073252
					32:leaf=-0.00363473897
				18:[f54<1.5] yes=33,no=34,missing=33
					33:leaf=0.00396646978
					34:leaf=-0.00132219796
			10:[f46<0.5] yes=19,no=20,missing=19
				19:[f30<0.5] yes=35,no=36,missing=35
					35:leaf=-0.00229690829
					36:leaf=0.00228347792
				20:[f14<0.5] yes=37,no=38,missing=37
					37:leaf=-0.00411049789
					38:leaf=-0.0008226395
	2:[f40<3] yes=5,no=6,missing=5
		5:[f15<0.5] yes=11,no=12,missing=11
			11:[f53<1.5] yes=21,no=22,missing=21
				21:[f41<1] yes=39,no=40,missing=39
					39:leaf=0.0010766089
					40:leaf=0.00352346711
				22:[f45<1.5] yes=41,no=42,missing=41
					41:leaf=8.00951311e-05
					42:leaf=0.00375126
			12:leaf=0.00914678629
		6:leaf=0.00654758234
booster[47]:
0:[f15<0.5] yes=1,no=2,missing=1
	1:[f1<0.5] yes=3,no=4,missing=3
		3:[f35<1.5] yes=5,no=6,missing=5
			5:[f54<0.5] yes=9,no=10,missing=9
				9:[f40<1] yes=15,no=16,missing=15
					15:leaf=0.000952336937
					16:leaf=0.00232711411
				10:[f43<1] yes=17,no=18,missing=17
					17:leaf=-0.00084413524
					18:leaf=0.00105989166
			6:[f41<3] yes=11,no=12,missing=11
				11:[f20<0.5] yes=19,no=20,missing=19
					19:leaf=-0.000782032148
					20:leaf=0.00254413881
				12:[f5<0.5] yes=21,no=22,missing=21
					21:leaf=0.00286615198
					22:leaf=-0.00139907596
		4:[f45<1.5] yes=7,no=8,missing=7
			7:[f46<0.5] yes=13,no=14,missing=13
				13:[f51<1.5] yes=23,no=24,missing=23
					23:leaf=0.00933660846
					24:leaf=0.00231251726
				14:leaf=0.00291708717
			8:leaf=-0.00159554486
	2:leaf=0.00879903696
booster[48]:
0:[f15<0.5] yes=1,no=2,missing=1
	1:[f50<2] yes=3,no=4,missing=3
		3:[f52<1.5] yes=5,no=6,missing=5
			5:[f0<0.5] yes=9,no=10,missing=9
				9:[f41<1] yes=17,no=18,missing=17
					17:leaf=-0.000382436265
					18:leaf=0.000873861951
				10:[f38<1.5] yes=19,no=20,missing=19
					19:leaf=0.00226584193
					20:leaf=0.00775061874
			6:[f49<1.5] yes=11,no=12,missing=11
				11:[f2<0.5] yes=21,no=22,missing=21
					21:leaf=0.00179859193
					22:leaf=-0.0010291338
				12:[f40<1] yes=23,no=24,missing=23
					23:leaf=0.0019257149
					24:leaf=0.00812508725
		4:[f42<1] yes=7,no=8,missing=7
			7:[f40<1] yes=13,no=14,missing=13
				13:[f35<1.5] yes=25,no=26,missing=25
					25:leaf=0.00238188356
					26:leaf=-0.000425879931
				14:[f45<0.5] yes=27,no=28,missing=27
					27:leaf=0.00627648085
					28:leaf=0.00240191142
			8:[f20<0.5] yes=15,no=16,missing=15
				15:[f10<0.5] yes=29,no=30,missing=29
					29:leaf=0.000285851012
					30:leaf=0.003574264
				16:[f45<0.5] yes=31,no=32,missing=31
					31:leaf=0.00457914872
					32:leaf=0.000863111054
	2:leaf=0.00821243133
booster[49]:
0:[f39<1.5] yes=1,no=2,missing=1
	1:[f49<0.5] yes=3,no=4,missing=3
		3:[f0<0.5] yes=7,no=8,missing=7
			7:[f45<1.5] yes=13,no=14,missing=13
				13:[f2<0.5] yes=25,no=26,missing=25
					25:leaf=0.000473240711
					26:leaf=-0.00358333113
				14:[f46<0.5] yes=27,no=28,missing=27
					27:leaf=-0.000995586044
					28:leaf=-0.00492319651
			8:[f38<1.5] yes=15,no=16,missing=15
				15:leaf=0.000970824563
				16:leaf=0.00736309309
		4:[f36<1.5] yes=9,no=10,missing=9
			9:[f5<0.5] yes=17,no=18,missing=17
				17:[f51<1.5] yes=29,no=30,missing=29
					29:leaf=7.37165028e-05
					30:leaf=0.00189310219
				18:leaf=0.00508797774
			10:[f40<1] yes=19,no=20,missing=19
				19:[f19<0.5] yes=31,no=32,missing=31
					31:leaf=0.000809131481
					32:leaf=-0.0032947422
				20:[f44<1] yes=33,no=34,missing=33
					33:leaf=0.00562917162
					34:leaf=0.00131472829
	2:[f40<3] yes=5,no=6,missing=5
		5:[f41<3] yes=11,no=12,missing=11
			11:[f13<0.5] yes=21,no=22,missing=21
				21:[f53<1.5] yes=35,no=36,missing=35
					35:leaf=0.00161732163
					36:leaf=-2.52851441e-05
				22:leaf=0.00471907854
			12:[f15<0.5] yes=23,no=24,missing=23
				23:[f45<0.5] yes=37,no=38,missing=37
					37:leaf=0.0008499861
					38:leaf=0.0036986589
				24:leaf=0.00783888157
		6:leaf=0.005477536
booster[50]:
0:[f44<1] yes=1,no=2,missing=1
	1:[f37<1.5] yes=3,no=4,missing=3
		3:[f48<0.5] yes=7,no=8,missing=7
			7:[f49<0.5] yes=15,no=16,missing=15
				15:[f43<3] yes=31,no=32,missing=31
					31:leaf=-0.000887127884
					32:leaf=0.00390036963
				16:[f40<3] yes=33,no=34,missing=33
					33:leaf=0.00123057666
					34:leaf=0.00483503053
			8:[f35<1.5] yes=17,no=18,missing=17
				17:[f43<3] yes=35,no=36,missing=35
					35:leaf=0.00471757632
					36:leaf=0.000118101729
				18:[f49<0.5] yes=37,no=38,missing=37
					37:leaf=-0.000556951796
					38:leaf=0.00226273551
		4:[f20<0.5] yes=9,no=10,missing=9
			9:[f42<1] yes=19,no=20,missing=19
				19:[f40<3] yes=39,no=40,missing=39
					39:leaf=-0.00140571268
					40:leaf=0.00159481529
				20:[f49<1.5] yes=41,no=42,missing=41
					41:leaf=-0.00415843166
					42:leaf=-0.00040366649
			10:[f53<1.5] yes=21,no=22,missing=21
				21:[f54<1.5] yes=43,no=44,missing=43
					43:leaf=0.00242525944
					44:leaf=0.000327771908
				22:leaf=-0.000487416983
	2:[f48<0.5] yes=5,no=6,missing=5
		5:[f27<0.5] yes=11,no=12,missing=11
			11:[f53<1.5] yes=23,no=24,missing=23
				23:[f42<1] yes=45,no=46,missing=45
					45:leaf=0.0025256637
					46:leaf=0.000860366039
				24:[f49<0.5] yes=47,no=48,missing=47
					47:leaf=0.00325059379
					48:leaf=-0.00168222119
			12:[f38<1.5] yes=25,no=26,missing=25
				25:leaf=-0.00117212534
				26:leaf=-0.00473490544
		6:[f44<3] yes=13,no=14,missing=13
			13:[f37<1.5] yes=27,no=28,missing=27
				27:[f47<0.5] yes=49,no=50,missing=49
					49:leaf=-0.0013786176
					50:leaf=0.000371316186
				28:[f32<0.5] yes=51,no=52,missing=51
					51:leaf=0.00137141719
					52:leaf=-0.00301492214
			14:[f46<0.5] yes=29,no=30,missing=29
				29:[f30<0.5] yes=53,no=54,missing=53
					53:leaf=-0.00191166997
					54:leaf=0.00211714511
				30:[f14<0.5] yes=55,no=56,missing=55
					55:leaf=-0.00379099185
					56:leaf=-0.00074384216
booster[51]:
0:[f15<0.5] yes=1,no=2,missing=1
	1:[f1<0.5] yes=3,no=4,missing=3
		3:[f50<2] yes=5,no=6,missing=5
			5:[f41<3] yes=9,no=10,missing=9
				9:[f35<1.5] yes=15,no=16,missing=15
					15:leaf=0.00051769166
					16:leaf=-0.000782590068
				10:[f45<0.5] yes=17,no=18,missing=17
					17:leaf=0.000822663307
					18:leaf=0.00278376765
			6:[f45<0.5] yes=11,no=12,missing=11
				11:[f17<0.5] yes=19,no=20,missing=19
					19:leaf=0.00287030172
					20:leaf=-0.00223786826
				12:[f44<1] yes=21,no=22,missing=21
					21:leaf=0.00179669808
					22:leaf=-2.81777648e-05
		4:[f45<1.5] yes=7,no=8,missing=7
			7:[f46<0.5] yes=13,no=14,missing=13
				13:[f51<1.5] yes=23,no=24,missing=23
					23:leaf=0.00775332469
					24:leaf=0.0018167973
				14:[f36<1.5] yes=25,no=26,missing=25
					25:leaf=0.00106850464
					26:leaf=0.00310151582
			8:leaf=-0.001463747
	2:leaf=0.0070621646
booster[52]:
0:[f39<1.5] yes=1,no=2,missing=1
	1:[f0<0.5] yes=3,no=4,missing=3
		3:[f45<1.5] yes=7,no=8,missing=7
			7:[f44<3] yes=15,no=16,missing=15
				15:[f1<0.5] yes=29,no=30,missing=29
					29:leaf=0.000679421879
					30:leaf=0.00452127447
				16:[f47<0.5] yes=31,no=32,missing=31
					31:leaf=-0.00238554133
					32:leaf=0.000414299138
			8:[f40<3] yes=17,no=18,missing=17
				17:[f49<0.5] yes=33,no=34,missing=33
					33:leaf=-0.00114464923
					34:leaf=0.00199887971
				18:[f36<1.5] yes=35,no=36,missing=35
					35:leaf=-0.00519036083
					36:leaf=-0.00126524572
		4:[f38<1.5] yes=9,no=10,missing=9
			9:[f48<1.5] yes=19,no=20,missing=19
				19:leaf=0.00211307104
				20:leaf=0.000588095223
			10:leaf=0.00673317909
	2:[f42<1] yes=5,no=6,missing=5
		5:[f32<0.5] yes=11,no=12,missing=11
			11:[f44<3] yes=21,no=22,missing=21
				21:[f43<1] yes=37,no=38,missing=37
					37:leaf=0.00591827463
					38:leaf=0.00251874165
				22:[f45<1.5] yes=39,no=40,missing=39
					39:leaf=-0.000520542264
					40:leaf=0.00194698572
			12:[f47<0.5] yes=23,no=24,missing=23
				23:leaf=-0.00143096049
				24:leaf=0.000125783685
		6:[f49<0.5] yes=13,no=14,missing=13
			13:[f42<3] yes=25,no=26,missing=25
				25:[f29<0.5] yes=41,no=42,missing=41
					41:leaf=0.00137341698
					42:leaf=-0.00104452774
				26:[f54<1.5] yes=43,no=44,missing=43
					43:leaf=-0.00270114257
					44:leaf=-0.000445481157
			14:[f25<0.5] yes=27,no=28,missing=27
				27:[f44<1] yes=45,no=46,missing=45
					45:leaf=0.00299447565
					46:leaf=0.000493083382
				28:leaf=-0.00138939626
booster[53]:
0:[f15<0.5] yes=1,no=2,missing=1
	1:[f42<3] yes=3,no=4,missing=3
		3:[f44<1] yes=5,no=6,missing=5
			5:[f37<1.5] yes=9,no=10,missing=9
				9:[f48<0.5] yes=17,no=18,missing=17
					17:leaf=0.000944416504
					18:leaf=0.00264017866
				10:[f2<0.5] yes=19,no=20,missing=19
					19:leaf=-0.000823763025
					20:leaf=-0.00630121818
			6:[f48<0.5] yes=11,no=12,missing=11
				11:[f53<1.5] yes=21,no=22,missing=21
					21:leaf=0.00151479465
					22:leaf=-0.000207079604
				12:[f44<3] yes=23,no=24,missing=23
					23:leaf=-0.000401150202
					24:leaf=-0.00207953202
		4:[f48<0.5] yes=7,no=8,missing=7
			7:[f49<0.5] yes=13,no=14,missing=13
				13:[f52<1.5] yes=25,no=26,missing=25
					25:leaf=-0.00389518379
					26:leaf=-0.000694677234
				14:[f38<1.5] yes=27,no=28,missing=27
					27:leaf=-0.00122324703
					28:leaf=0.000685469306
			8:[f19<0.5] yes=15,no=16,missing=15
				15:[f45<1.5] yes=29,no=30,missing=29
					29:leaf=0.00164146896
					30:leaf=-0.00037310124
				16:[f39<1.5] yes=31,no=32,missing=31
					31:leaf=-0.00316570699
					32:leaf=0.00340939756
	2:leaf=0.00637142686
booster[54]:
0:[f15<0.5] yes=1,no=2,missing=1
	1:[f50<2] yes=3,no=4,missing=3
		3:[f52<1.5] yes=5,no=6,missing=5
			5:[f0<0.5] yes=9,no=10,missing=9
				9:[f49<0.5] yes=17,no=18,missing=17
					17:leaf=-0.000554251194
					18:leaf=0.000419998396
				10:[f38<1.5] yes=19,no=20,missing=19
					19:leaf=0.00174840202
					20:leaf=0.00626450777
			6:[f49<1.5] yes=11,no=12,missing=11
				11:[f2<0.5] yes=21,no=22,missing=21
					21:leaf=0.00122151279
					22:leaf=-0.00106942363
				12:[f40<1] yes=23,no=24,missing=23
					23:leaf=0.00140727358
					24:leaf=0.00658956403
		4:[f42<1] yes=7,no=8,missing=7
			7:[f35<1.5] yes=13,no=14,missing=13
				13:[f17<0.5] yes=25,no=26,missing=25
					25:leaf=0.0031710125
					26:leaf=8.65419715e-05
				14:[f40<3] yes=27,no=28,missing=27
					27:leaf=-0.000745512545
					28:leaf=0.00369782862
			8:[f20<0.5] yes=15,no=16,missing=15
				15:[f10<0.5] yes=29,no=30,missing=29
					29:leaf=-0.000224230302
					30:leaf=0.00275860634
				16:[f45<0.5] yes=31,no=32,missing=31
					31:leaf=0.00367524847
					32:leaf=0.000365129119
	2:leaf=0.00594665995
booster[55]:
0:[f35<1.5] yes=1,no=2,missing=1
	1:[f37<1.5] yes=3,no=4,missing=3
		3:[f44<1] yes=7,no=8,missing=7
			7:[f48<0.5] yes=15,no=16,missing=15
				15:[f49<0.5] yes=29,no=30,missing=29
					29:leaf=-0.000247263903
					30:leaf=0.00155624177
				16:[f43<3] yes=31,no=32,missing=31
					31:leaf=0.00365662505
					32:leaf=-0.000346511079
			8:[f48<0.5] yes=17,no=18,missing=17
				17:[f27<0.5] yes=33,no=34,missing=33
					33:leaf=0.00133748341
					34:leaf=-0.00362156634
				18:[f53<1.5] yes=35,no=36,missing=35
					35:leaf=-0.00037503356
					36:leaf=-0.00232910807
		4:[f23<0.5] yes=9,no=10,missing=9
			9:[f2<0.5] yes=19,no=20,missing=19
				19:[f52<1.5] yes=37,no=38,missing=37
					37:leaf=-0.000793752901
					38:leaf=0.0018155888
				20:leaf=-0.00593268871
			10:[f47<0.5] yes=21,no=22,missing=21
				21:leaf=0.00109983981
				22:leaf=0.00444683619
	2:[f49<1.5] yes=5,no=6,missing=5
		5:[f41<3] yes=11,no=12,missing=11
			11:[f40<1] yes=23,no=24,missing=23
				23:[f47<0.5] yes=39,no=40,missing=39
					39:leaf=-0.00247831992
					40:leaf=-0.000595288642
				24:[f13<0.5] yes=41,no=42,missing=41
					41:leaf=3.78911113e-06
					42:leaf=-0.00302255154
			12:[f47<0.5] yes=25,no=26,missing=25
				25:[f52<1.5] yes=43,no=44,missing=43
					43:leaf=-0.00187327061
					44:leaf=0.000842976558
				26:[f45<0.5] yes=45,no=46,missing=45
					45:leaf=0.000419660442
					46:leaf=0.00458299322
		6:[f41<1] yes=13,no=14,missing=13
			13:[f11<0.5] yes=27,no=28,missing=27
				27:[f10<0.5] yes=47,no=48,missing=47
					47:leaf=-0.000403124111
					48:leaf=6.67214408e-05
				28:leaf=0.000780671835
			14:leaf=0.00324137928
booster[56]:
0:[f42<1] yes=1,no=2,missing=1
	1:[f40<3] yes=3,no=4,missing=3
		3:[f41<3] yes=7,no=8,missing=7
			7:[f50<1.5] yes=15,no=16,missing=15
				15:[f48<0.5] yes=31,no=32,missing=31
					31:leaf=0.000649049063
					32:leaf=-0.0012156656
				16:[f35<1.5] yes=33,no=34,missing=33
					33:leaf=0.00273441989
					34:leaf=-0.00071069994
			8:[f46<1.5] yes=17,no=18,missing=17
				17:[f36<1.5] yes=35,no=36,missing=35
					35:leaf=0.00264249812
					36:leaf=0.000201813396
				18:[f5<0.5] yes=37,no=38,missing=37
					37:leaf=0.000223541268
					38:leaf=-0.00262593431
		4:[f35<1.5] yes=9,no=10,missing=9
			9:[f45<2.5] yes=19,no=20,missing=19
				19:[f37<1.5] yes=39,no=40,missing=39
					39:leaf=0.00482517295
					40:leaf=0.00175322802
				20:leaf=-0.000823974609
			10:[f45<1.5] yes=21,no=22,missing=21
				21:[f54<1.5] yes=41,no=42,missing=41
					41:leaf=0.00216972828
					42:leaf=-0.000547293806
				22:leaf=-0.00233994727
	2:[f37<1.5] yes=5,no=6,missing=5
		5:[f49<1.5] yes=11,no=12,missing=11
			11:[f44<1] yes=23,no=24,missing=23
				23:[f48<1.5] yes=43,no=44,missing=43
					43:leaf=0.000149339772
					44:leaf=0.00400776695
				24:[f47<0.5] yes=45,no=46,missing=45
					45:leaf=-0.00151181105
					46:leaf=4.99318085e-05
			12:[f47<0.5] yes=25,no=26,missing=25
				25:[f54<1.5] yes=47,no=48,missing=47
					47:leaf=0.00399312424
					48:leaf=0.000796087552
				26:[f6<0.5] yes=49,no=50,missing=49
					49:leaf=-0.0010685384
					50:leaf=0.00157384877
		6:[f48<0.5] yes=13,no=14,missing=13
			13:[f20<0.5] yes=27,no=28,missing=27
				27:[f47<0.5] yes=51,no=52,missing=51
					51:leaf=-0.0055197645
					52:leaf=-0.00153416989
				28:[f45<1.5] yes=53,no=54,missing=53
					53:leaf=0.000360107428
					54:leaf=0.00149054534
			14:[f10<0.5] yes=29,no=30,missing=29
				29:[f19<0.5] yes=55,no=56,missing=55
					55:leaf=0.000680766767
					56:leaf=-0.00143684749
				30:leaf=-0.00279313326
booster[57]:
0:[f15<0.5] yes=1,no=2,missing=1
	1:[f42<3] yes=3,no=4,missing=3
		3:[f35<1.5] yes=5,no=6,missing=5
			5:[f37<1.5] yes=9,no=10,missing=9
				9:[f44<1] yes=17,no=18,missing=17
					17:leaf=0.00165716687
					18:leaf=0.000196717257
				10:[f23<0.5] yes=19,no=20,missing=19
					19:leaf=-0.000506697979
					20:leaf=0.00275781751
			6:[f49<1.5] yes=11,no=12,missing=11
				11:[f23<0.5] yes=21,no=22,missing=21
					21:leaf=-0.000412819878
					22:leaf=-0.00283816806
				12:[f41<1] yes=23,no=24,missing=23
					23:leaf=0.000377039134
					24:leaf=0.00272610434
		4:[f48<0.5] yes=7,no=8,missing=7
			7:[f49<0.5] yes=13,no=14,missing=13
				13:[f52<1.5] yes=25,no=26,missing=25
					25:leaf=-0.00331871142
					26:leaf=-0.0006009668
				14:[f38<1.5] yes=27,no=28,missing=27
					27:leaf=-0.00124792336
					28:leaf=0.000498064386
			8:[f19<0.5] yes=15,no=16,missing=15
				15:[f36<1.5] yes=29,no=30,missing=29
					29:leaf=0.000437112962
					30:leaf=0.00239509647
				16:[f39<1.5] yes=31,no=32,missing=31
					31:leaf=-0.00291658356
					32:leaf=0.00302762981
	2:leaf=0.00521163968
booster[58]:
0:[f39<1.5] yes=1,no=2,missing=1
	1:[f2<0.5] yes=3,no=4,missing=3
		3:[f40<3] yes=7,no=8,missing=7
			7:[f54<0.5] yes=15,no=16,missing=15
				15:[f53<1.5] yes=31,no=32,missing=31
					31:leaf=0.000573878118
					32:leaf=-0.000435949973
				16:[f49<1.5] yes=33,no=34,missing=33
					33:leaf=-0.000539412547
					34:leaf=-0.00324304402
			8:[f35<1.5] yes=17,no=18,missing=17
				17:[f45<2.5] yes=35,no=36,missing=35
					35:leaf=0.00327151432
					36:leaf=-0.000865638256
				18:[f45<1.5] yes=37,no=38,missing=37
					37:leaf=0.00148711528
					38:leaf=-0.00215643644
		4:[f36<1.5] yes=9,no=10,missing=9
			9:[f46<0.5] yes=19,no=20,missing=19
				19:[f35<1.5] yes=39,no=40,missing=39
					39:leaf=-0.00560359191
					40:leaf=-0.0016495029
				20:[f46<2] yes=41,no=42,missing=41
					41:leaf=0.00101059081
					42:leaf=-0.00159282691
			10:[f49<0.5] yes=21,no=22,missing=21
				21:[f48<0.5] yes=43,no=44,missing=43
					43:leaf=-0.00290145073
					44:leaf=-0.000289326912
				22:leaf=0.00515255332
	2:[f42<1] yes=5,no=6,missing=5
		5:[f32<0.5] yes=11,no=12,missing=11
			11:[f45<2.5] yes=23,no=24,missing=23
				23:[f54<1.5] yes=45,no=46,missing=45
					45:leaf=0.00253522373
					46:leaf=-0.000650239002
				24:leaf=-0.00144077546
			12:[f47<0.5] yes=25,no=26,missing=25
				25:leaf=-0.00143477914
				26:leaf=-3.15904629e-07
		6:[f47<0.5] yes=13,no=14,missing=13
			13:[f44<1] yes=27,no=28,missing=27
				27:[f53<1.5] yes=47,no=48,missing=47
					47:leaf=0.0022254379
					48:leaf=-9.11235838e-05
				28:[f30<0.5] yes=49,no=50,missing=49
					49:leaf=-0.000580051565
					50:leaf=0.00240324135
			14:[f42<3] yes=29,no=30,missing=29
				29:[f6<0.5] yes=51,no=52,missing=51
					51:leaf=0.000677956734
					52:leaf=-0.00221248879
				30:[f27<0.5] yes=53,no=54,missing=53
					53:leaf=-0.00244676485
					54:leaf=-0.00063350203
booster[59]:
0:[f15<0.5] yes=1,no=2,missing=1
	1:[f40<1] yes=3,no=4,missing=3
		3:[f48<0.5] yes=5,no=6,missing=5
			5:[f42<3] yes=9,no=10,missing=9
				9:[f31<0.5] yes=17,no=18,missing=17
					17:leaf=0.00104976841
					18:leaf=-0.00293042278
				10:[f49<0.5] yes=19,no=20,missing=19
					19:leaf=-0.00284147146
					20:leaf=-0.000591288263
			6:[f20<0.5] yes=11,no=12,missing=11
				11:[f26<0.5] yes=21,no=22,missing=21
					21:leaf=-0.00106108282
					22:leaf=0.00154144771
				12:[f45<0.5] yes=23,no=24,missing=23
					23:leaf=0.00235294504
					24:leaf=-0.000141101234
		4:[f48<0.5] yes=7,no=8,missing=7
			7:[f52<1.5] yes=13,no=14,missing=13
				13:[f38<1.5] yes=25,no=26,missing=25
					25:leaf=-0.000723469071
					26:leaf=0.000982632162
				14:[f38<1.5] yes=27,no=28,missing=27
					27:leaf=0.00259642
					28:leaf=-0.00138740137
			8:[f41<1] yes=15,no=16,missing=15
				15:[f0<0.5] yes=29,no=30,missing=29
					29:leaf=0.000391150417
					30:leaf=0.00387431984
				16:[f38<1.5] yes=31,no=32,missing=31
					31:leaf=0.00150506804
					32:leaf=0.00573033094
	2:leaf=0.00476056756
booster[60]:
0:[f39<1.5] yes=1,no=2,missing=1
	1:[f2<0.5] yes=3,no=4,missing=3
		3:[f40<3] yes=7,no=8,missing=7
			7:[f38<1.5] yes=13,no=14,missing=13
				13:[f48<1.5] yes=25,no=26,missing=25
					25:leaf=-1.27509647e-05
					26:leaf=-0.0012605082
				14:[f6<0.5] yes=27,no=28,missing=27
					27:leaf=0.000243579998
					28:leaf=0.00466859667
			8:[f36<1.5] yes=15,no=16,missing=15
				15:[f54<1.5] yes=29,no=30,missing=29
					29:leaf=0.00177995302
					30:leaf=-0.00102789409
				16:[f45<2] yes=31,no=32,missing=31
					31:leaf=0.00463288836
					32:leaf=-0.000952172268
		4:[f36<1.5] yes=9,no=10,missing=9
			9:[f46<0.5] yes=17,no=18,missing=17
				17:[f35<1.5] yes=33,no=34,missing=33
					33:leaf=-0.00532960473
					34:leaf=-0.00156561134
				18:[f46<2] yes=35,no=36,missing=35
					35:leaf=0.00102943182
					36:leaf=-0.0014438153
			10:[f49<0.5] yes=19,no=20,missing=19
				19:[f48<0.5] yes=37,no=38,missing=37
					37:leaf=-0.0027704516
					38:leaf=-0.000294417143
				20:leaf=0.00476510543
	2:[f15<0.5] yes=5,no=6,missing=5
		5:[f40<1] yes=11,no=12,missing=11
			11:[f45<1.5] yes=21,no=22,missing=21
				21:[f53<1.5] yes=39,no=40,missing=39
					39:leaf=0.000412958674
					40:leaf=-0.00129605667
				22:[f41<1] yes=41,no=42,missing=41
					41:leaf=-0.00018453598
					42:leaf=0.00258675939
			12:[f6<0.5] yes=23,no=24,missing=23
				23:[f45<1.5] yes=43,no=44,missing=43
					43:leaf=0.00260249316
					44:leaf=-0.000331369054
				24:[f50<1.5] yes=45,no=46,missing=45
					45:leaf=-0.00251821685
					46:leaf=0.00190808775
		6:leaf=0.00500581274
booster[61]:
0:[f15<0.5] yes=1,no=2,missing=1
	1:[f50<2] yes=3,no=4,missing=3
		3:[f52<1.5] yes=5,no=6,missing=5
			5:[f0<0.5] yes=9,no=10,missing=9
				9:[f41<3] yes=17,no=18,missing=17
					17:leaf=-0.000316435675
					18:leaf=0.000946192944
				10:[f38<1.5] yes=19,no=20,missing=19
					19:leaf=0.00117170101
					20:leaf=0.00499804039
			6:[f49<1.5] yes=11,no=12,missing=11
				11:[f12<0.5] yes=21,no=22,missing=21
					21:leaf=0.000435486174
					22:leaf=0.00356615498
				12:[f40<1] yes=23,no=24,missing=23
					23:leaf=0.000622288382
					24:leaf=0.00533500919
		4:[f45<0.5] yes=7,no=8,missing=7
			7:[f17<0.5] yes=13,no=14,missing=13
				13:[f42<1] yes=25,no=26,missing=25
					25:leaf=0.00304722576
					26:leaf=0.000783830241
				14:leaf=-0.00227926578
			8:[f24<0.5] yes=15,no=16,missing=15
				15:[f42<1] yes=27,no=28,missing=27
					27:leaf=0.00112246757
					28:leaf=-8.69554642e-05
				16:[f35<1.5] yes=29,no=30,missing=29
					29:leaf=-0.000542193651
					30:leaf=-0.00248389249
	2:leaf=0.00427676039
booster[62]:
0:[f15<0.5] yes=1,no=2,missing=1
	1:[f1<0.5] yes=3,no=4,missing=3
		3:[f35<1.5] yes=5,no=6,missing=5
			5:[f42<3] yes=9,no=10,missing=9
				9:[f47<2.5] yes=17,no=18,missing=17
					17:leaf=0.000506448967
					18:leaf=-0.00257787108
				10:[f26<0.5] yes=19,no=20,missing=19
					19:leaf=-0.00145603006
					20:leaf=0.00118612952
			6:[f49<1.5] yes=11,no=12,missing=11
				11:[f41<3] yes=21,no=22,missing=21
					21:leaf=-0.000817494874
					22:leaf=0.00111043011
				12:[f50<1.5] yes=23,no=24,missing=23
					23:leaf=0.00045869351
					24:leaf=0.00285534072
		4:[f49<0.5] yes=7,no=8,missing=7
			7:[f45<1.5] yes=13,no=14,missing=13
				13:[f36<1.5] yes=25,no=26,missing=25
					25:leaf=-0.000157046321
					26:leaf=0.00165445812
				14:leaf=-0.00119456451
			8:[f51<1.5] yes=15,no=16,missing=15
				15:leaf=0.00513576297
				16:leaf=0.000913453114
	2:leaf=0.0039916439
booster[63]:
0:[f39<1.5] yes=1,no=2,missing=1
	1:[f2<0.5] yes=3,no=4,missing=3
		3:[f40<3] yes=7,no=8,missing=7
			7:[f50<2] yes=13,no=14,missing=13
				13:[f22<0.5] yes=25,no=26,missing=25
					25:leaf=-7.713987e-05
					26:leaf=-0.00245534978
				14:[f45<0.5] yes=27,no=28,missing=27
					27:leaf=0.00131829677
					28:leaf=-3.00992633e-05
			8:[f36<1.5] yes=15,no=16,missing=15
				15:[f54<1.5] yes=29,no=30,missing=29
					29:leaf=0.00152707566
					30:leaf=-0.000910391391
				16:[f45<2] yes=31,no=32,missing=31
					31:leaf=0.00412215618
					32:leaf=-0.000866615796
		4:[f36<1.5] yes=9,no=10,missing=9
			9:[f46<0.5] yes=17,no=18,missing=17
				17:[f35<1.5] yes=33,no=34,missing=33
					33:leaf=-0.00501202745
					34:leaf=-0.0014183562
				18:[f46<2] yes=35,no=36,missing=35
					35:leaf=0.000930863607
					36:leaf=-0.00141871569
			10:[f49<0.5] yes=19,no=20,missing=19
				19:[f48<0.5] yes=37,no=38,missing=37
					37:leaf=-0.00252067647
					38:leaf=-0.000326788431
				20:leaf=0.00447975425
	2:[f15<0.5] yes=5,no=6,missing=5
		5:[f40<1] yes=11,no=12,missing=11
			11:[f45<1.5] yes=21,no=22,missing=21
				21:[f52<1.5] yes=39,no=40,missing=39
					39:leaf=-0.000350375631
					40:leaf=0.00103411463
				22:[f41<1] yes=41,no=42,missing=41
					41:leaf=-0.000192268693
					42:leaf=0.00228556921
			12:[f6<0.5] yes=23,no=24,missing=23
				23:[f48<0.5] yes=43,no=44,missing=43
					43:leaf=0.00120767986
					44:leaf=0.00329119316
				24:[f50<1.5] yes=45,no=46,missing=45
					45:leaf=-0.00238807197
					46:leaf=0.00179171562
		6:leaf=0.00434210291
booster[64]:
0:[f15<0.5] yes=1,no=2,missing=1
	1:[f40<1] yes=3,no=4,missing=3
		3:[f48<0.5] yes=5,no=6,missing=5
			5:[f42<3] yes=9,no=10,missing=9
				9:[f31<0.5] yes=17,no=18,missing=17
					17:leaf=0.000851116318
					18:leaf=-0.00277534337
				10:[f49<0.5] yes=19,no=20,missing=19
					19:leaf=-0.0024818813
					20:leaf=-0.000499968883
			6:[f49<1.5] yes=11,no=12,missing=11
				11:[f42<3] yes=21,no=22,missing=21
					21:leaf=-0.0010056051
					22:leaf=0.000621739775
				12:[f18<0.5] yes=23,no=24,missing=23
					23:leaf=0.00205177325
					24:leaf=1.26600271e-05
		4:[f45<1.5] yes=7,no=8,missing=7
			7:[f47<2.5] yes=13,no=14,missing=13
				13:[f54<1.5] yes=25,no=26,missing=25
					25:leaf=0.00103457225
					26:leaf=-0.000433427107
				14:leaf=-0.00399261294
			8:[f38<1.5] yes=15,no=16,missing=15
				15:[f13<0.5] yes=27,no=28,missing=27
					27:leaf=-0.00187084998
					28:leaf=0.00186944602
				16:leaf=0.00398314791
	2:leaf=0.00358337583
booster[65]:
0:[f39<1.5] yes=1,no=2,missing=1
	1:[f0<0.5] yes=3,no=4,missing=3
		3:[f45<1.5] yes=7,no=8,missing=7
			7:[f44<3] yes=13,no=14,missing=13
				13:[f5<0.5] yes=25,no=26,missing=25
					25:leaf=0.000183369775
					26:leaf=0.00207720045
				14:[f47<0.5] yes=27,no=28,missing=27
					27:leaf=-0.00192314235
					28:leaf=0.00023709792
			8:[f24<0.5] yes=15,no=16,missing=15
				15:[f43<1] yes=29,no=30,missing=29
					29:leaf=-0.00229327916
					30:leaf=-0.000233429979
				16:leaf=0.00274888286
		4:[f37<1.5] yes=9,no=10,missing=9
			9:[f47<0.5] yes=17,no=18,missing=17
				17:leaf=0.00410697469
				18:leaf=0.000619143248
			10:[f45<1] yes=19,no=20,missing=19
				19:leaf=-0.000168466577
				20:leaf=0.000390434259
	2:[f15<0.5] yes=5,no=6,missing=5
		5:[f53<1.5] yes=11,no=12,missing=11
			11:[f29<0.5] yes=21,no=22,missing=21
				21:[f43<3] yes=31,no=32,missing=31
					31:leaf=0.00139656384
					32:leaf=-0.000347458001
				22:[f49<0.5] yes=33,no=34,missing=33
					33:leaf=-0.000998024247
					34:leaf=0.000259989494
			12:[f45<1.5] yes=23,no=24,missing=23
				23:[f23<0.5] yes=35,no=36,missing=35
					35:leaf=-5.31655096e-05
					36:leaf=-0.00353315286
				24:leaf=0.0026132823
		6:leaf=0.00394582748
booster[66]:
0:[f41<1] yes=1,no=2,missing=1
	1:[f52<1.5] yes=3,no=4,missing=3
		3:[f0<0.5] yes=7,no=8,missing=7
			7:[f45<1.5] yes=15,no=16,missing=15
				15:[f10<0.5] yes=31,no=32,missing=31
					31:leaf=-0.000419272954
					32:leaf=0.00106028921
				16:[f50<1.5] yes=33,no=34,missing=33
					33:leaf=-0.00255306531
					34:leaf=0.00053454045
			8:[f38<1.5] yes=17,no=18,missing=17
				17:[f48<1.5] yes=35,no=36,missing=35
					35:leaf=0.00123344956
					36:leaf=-0.000160038471
				18:leaf=0.00424195547
		4:[f12<0.5] yes=9,no=10,missing=9
			9:[f47<1.5] yes=19,no=20,missing=19
				19:[f2<0.5] yes=37,no=38,missing=37
					37:leaf=0.00042085789
					38:leaf=-0.0018159172
				20:[f47<2.5] yes=39,no=40,missing=39
					39:leaf=0.00316682458
					40:leaf=-0.00200229883
			10:[f38<1.5] yes=21,no=22,missing=21
				21:leaf=0.00377908954
				22:leaf=0.000913977623
	2:[f49<1.5] yes=5,no=6,missing=5
		5:[f35<1.5] yes=11,no=12,missing=11
			11:[f47<0.5] yes=23,no=24,missing=23
				23:[f21<0.5] yes=41,no=42,missing=41
					41:leaf=0.00127993803
					42:leaf=-0.00167964248
				24:[f23<0.5] yes=43,no=44,missing=43
					43:leaf=-0.000545192219
					44:leaf=0.00235152035
			12:[f18<0.5] yes=25,no=26,missing=25
				25:[f23<0.5] yes=45,no=46,missing=45
					45:leaf=-0.000501768664
					46:leaf=-0.00248227827
				26:[f45<0.5] yes=47,no=48,missing=47
					47:leaf=8.39948698e-05
					48:leaf=0.00341934571
		6:[f8<0.5] yes=13,no=14,missing=13
			13:[f37<1.5] yes=27,no=28,missing=27
				27:[f21<0.5] yes=49,no=50,missing=49
					49:leaf=0.00312641123
					50:leaf=-0.000526982534
				28:[f5<0.5] yes=51,no=52,missing=51
					51:leaf=-0.000272723031
					52:leaf=0.00188724999
			14:[f37<1.5] yes=29,no=30,missing=29
				29:[f53<1.5] yes=53,no=54,missing=53
					53:leaf=-0.00290933251
					54:leaf=-0.000704169273
				30:leaf=0.000593626522
booster[67]:
0:[f15<0.5] yes=1,no=2,missing=1
	1:[f1<0.5] yes=3,no=4,missing=3
		3:[f50<2] yes=5,no=6,missing=5
			5:[f0<0.5] yes=9,no=10,missing=9
				9:[f52<1.5] yes=17,no=18,missing=17
					17:leaf=-0.000236524429
					18:leaf=0.000491978193
				10:[f38<1.5] yes=19,no=20,missing=19
					19:leaf=0.00085194112
					20:leaf=0.00402985839
			6:[f45<0.5] yes=11,no=12,missing=11
				11:[f17<0.5] yes=21,no=22,missing=21
					21:leaf=0.00150432473
					22:leaf=-0.00221967697
				12:[f24<0.5] yes=23,no=24,missing=23
					23:leaf=0.000248670229
					24:leaf=-0.0017967344
		4:[f49<0.5] yes=7,no=8,missing=7
			7:[f48<0.5] yes=13,no=14,missing=13
				13:leaf=-0.000848929107
				14:[f35<1.5] yes=25,no=26,missing=25
					25:leaf=0.00131413934
					26:leaf=-0.000279545784
			8:[f51<1.5] yes=15,no=16,missing=15
				15:leaf=0.00440550456
				16:leaf=0.000574219215
	2:leaf=0.00318235578
booster[68]:
0:[f35<1.5] yes=1,no=2,missing=1
	1:[f37<1.5] yes=3,no=4,missing=3
		3:[f44<1] yes=7,no=8,missing=7
			7:[f48<0.5] yes=15,no=16,missing=15
				15:[f12<0.5] yes=27,no=28,missing=27
					27:leaf=-6.9978727e-05
					28:leaf=0.00417151442
				16:[f43<3] yes=29,no=30,missing=29
					29:leaf=0.00227741688
					30:leaf=-0.00061475148
			8:[f48<0.5] yes=17,no=18,missing=17
				17:[f27<0.5] yes=31,no=32,missing=31
					31:leaf=0.000757255766
					32:leaf=-0.00248537073
				18:[f53<1.5] yes=33,no=34,missing=33
					33:leaf=-0.000420300756
					34:leaf=-0.00189713237
		4:[f44<1] yes=9,no=10,missing=9
			9:[f20<0.5] yes=19,no=20,missing=19
				19:[f5<0.5] yes=35,no=36,missing=35
					35:leaf=-0.00194112759
					36:leaf=0.00180470943
				20:[f53<1.5] yes=37,no=38,missing=37
					37:leaf=0.00142833241
					38:leaf=-0.000458943861
			10:[f41<1] yes=21,no=22,missing=21
				21:[f49<1.5] yes=39,no=40,missing=39
					39:leaf=6.91338646e-05
					40:leaf=-0.00507276459
				22:[f47<0.5] yes=41,no=42,missing=41
					41:leaf=0.00138724572
					42:leaf=0.00385035877
	2:[f23<0.5] yes=5,no=6,missing=5
		5:[f13<0.5] yes=11,no=12,missing=11
			11:[f51<1.5] yes=23,no=24,missing=23
				23:[f44<3] yes=43,no=44,missing=43
					43:leaf=0.000388883695
					44:leaf=-0.00126589881
				24:[f49<0.5] yes=45,no=46,missing=45
					45:leaf=-0.00201286073
					46:leaf=2.99215316e-07
			12:[f45<0.5] yes=25,no=26,missing=25
				25:leaf=-0.00614119181
				26:leaf=0.00201760535
		6:[f53<1.5] yes=13,no=14,missing=13
			13:leaf=-0.00118810532
			14:leaf=-0.00337276468
booster[69]:
0:[f42<1] yes=1,no=2,missing=1
	1:[f40<3] yes=3,no=4,missing=3
		3:[f54<1.5] yes=7,no=8,missing=7
			7:[f53<1.5] yes=15,no=16,missing=15
				15:[f23<0.5] yes=31,no=32,missing=31
					31:leaf=0.000515570398
					32:leaf=0.00241963868
				16:[f41<3] yes=33,no=34,missing=33
					33:leaf=-0.00122090348
					34:leaf=0.00292603811
			8:[f49<1.5] yes=17,no=18,missing=17
				17:[f24<0.5] yes=35,no=36,missing=35
					35:leaf=-0.000794578169
					36:leaf=0.0024899065
				18:leaf=-0.00386275048
		4:[f35<1.5] yes=9,no=10,missing=9
			9:[f50<1.5] yes=19,no=20,missing=19
				19:[f45<0.5] yes=37,no=38,missing=37
					37:leaf=0.000929555681
					38:leaf=0.00348707545
				20:[f1<0.5] yes=39,no=40,missing=39
					39:leaf=-3.10540199e-05
					40:leaf=-0.000548374665
			10:[f50<1.5] yes=21,no=22,missing=21
				21:[f46<0.5] yes=41,no=42,missing=41
					41:leaf=-0.00130305893
					42:leaf=0.000732813263
				22:leaf=0.00250077248
	2:[f49<1.5] yes=5,no=6,missing=5
		5:[f48<1.5] yes=11,no=12,missing=11
			11:[f51<0.5] yes=23,no=24,missing=23
				23:[f43<1] yes=43,no=44,missing=43
					43:leaf=-0.00050889299
					44:leaf=0.000463091768
				24:[f47<0.5] yes=45,no=46,missing=45
					45:leaf=0.000293977879
					46:leaf=-0.00224548741
			12:[f38<1.5] yes=25,no=26,missing=25
				25:[f36<1.5] yes=47,no=48,missing=47
					47:leaf=0.000735071138
					48:leaf=-0.00201416016
				26:leaf=0.00514696445
		6:[f37<1.5] yes=13,no=14,missing=13
			13:[f47<0.5] yes=27,no=28,missing=27
				27:[f54<1.5] yes=49,no=50,missing=49
					49:leaf=0.00285320706
					50:leaf=0.000444996374
				28:[f6<0.5] yes=51,no=52,missing=51
					51:leaf=-0.00109060411
					52:leaf=0.00126337411
			14:[f48<0.5] yes=29,no=30,missing=29
				29:leaf=-0.00352071947
				30:leaf=0.00059691671
booster[70]:
0:[f39<1.5] yes=1,no=2,missing=1
	1:[f2<0.5] yes=3,no=4,missing=3
		3:[f40<3] yes=7,no=8,missing=7
			7:[f38<1.5] yes=13,no=14,missing=13
				13:[f19<0.5] yes=23,no=24,missing=23
					23:leaf=-0.000172652508
					24:leaf=-0.00259208679
				14:[f6<0.5] yes=25,no=26,missing=25
					25:leaf=9.31872637e-05
					26:leaf=0.00383889489
			8:[f36<1.5] yes=15,no=16,missing=15
				15:[f54<1.5] yes=27,no=28,missing=27
					27:leaf=0.00109976402
					28:leaf=-0.000791943108
				16:[f45<2] yes=29,no=30,missing=29
					29:leaf=0.00336472993
					30:leaf=-0.000807464123
		4:[f36<1.5] yes=9,no=10,missing=9
			9:[f46<0.5] yes=17,no=18,missing=17
				17:[f35<1.5] yes=31,no=32,missing=31
					31:leaf=-0.00443309126
					32:leaf=-0.00134717626
				18:[f46<2] yes=33,no=34,missing=33
					33:leaf=0.000918561243
					34:leaf=-0.00131353736
			10:[f49<0.5] yes=19,no=20,missing=19
				19:[f48<0.5] yes=35,no=36,missing=35
					35:leaf=-0.00190492871
					36:leaf=-0.000124472383
				20:leaf=0.00404087314
	2:[f13<0.5] yes=5,no=6,missing=5
		5:[f15<0.5] yes=11,no=12,missing=11
			11:[f53<1.5] yes=21,no=22,missing=21
				21:[f41<1] yes=37,no=38,missing=37
					37:leaf=1.38133764e-05
					38:leaf=0.00109661266
				22:[f45<1.5] yes=39,no=40,missing=39
					39:leaf=-0.000911551702
					40:leaf=0.0024000525
			12:leaf=0.00326524978
		6:leaf=0.00306253834
booster[71]:
0:[f15<0.5] yes=1,no=2,missing=1
	1:[f40<1] yes=3,no=4,missing=3
		3:[f48<0.5] yes=7,no=8,missing=7
			7:[f42<3] yes=11,no=12,missing=11
				11:[f31<0.5] yes=19,no=20,missing=19
					19:leaf=0.000674023351
					20:leaf=-0.00249222922
				12:[f49<0.5] yes=21,no=22,missing=21
					21:leaf=-0.00209597568
					22:leaf=-0.00041131975
			8:[f42<3] yes=13,no=14,missing=13
				13:[f20<0.5] yes=23,no=24,missing=23
					23:leaf=-0.000997657771
					24:leaf=0.000493226456
				14:[f46<0.5] yes=25,no=26,missing=25
					25:leaf=-0.000267846044
					26:leaf=0.00154542632
		4:[f48<0.5] yes=9,no=10,missing=9
			9:[f52<1.5] yes=15,no=16,missing=15
				15:[f38<1.5] yes=27,no=28,missing=27
					27:leaf=-0.000744924881
					28:leaf=0.000566121831
				16:[f38<1.5] yes=29,no=30,missing=29
					29:leaf=0.00181579299
					30:leaf=-0.0014776726
			10:[f5<0.5] yes=17,no=18,missing=17
				17:[f49<0.5] yes=31,no=32,missing=31
					31:leaf=0.000199534275
					32:leaf=0.00147809472
				18:[f36<1.5] yes=33,no=34,missing=33
					33:leaf=0.00485392427
					34:leaf=0.000544357288
	2:[f36<1.5] yes=5,no=6,missing=5
		5:leaf=0.00310199265
		6:leaf=0.000798857247
booster[72]:
0:[f42<1] yes=1,no=2,missing=1
	1:[f40<3] yes=3,no=4,missing=3
		3:[f54<1.5] yes=7,no=8,missing=7
			7:[f53<1.5] yes=15,no=16,missing=15
				15:[f23<0.5] yes=31,no=32,missing=31
					31:leaf=0.000438730844
					32:leaf=0.00223995256
				16:[f41<3] yes=33,no=34,missing=33
					33:leaf=-0.00107531121
					34:leaf=0.0025944591
			8:[f46<1.5] yes=17,no=18,missing=17
				17:[f24<0.5] yes=35,no=36,missing=35
					35:leaf=-0.00159808097
					36:leaf=0.00234034075
				18:[f43<1] yes=37,no=38,missing=37
					37:leaf=-0.000142681602
					38:leaf=0.0021944365
		4:[f35<1.5] yes=9,no=10,missing=9
			9:[f50<1.5] yes=19,no=20,missing=19
				19:[f45<0.5] yes=39,no=40,missing=39
					39:leaf=0.000662234088
					40:leaf=0.00297254813
				20:leaf=-0.000464638084
			10:[f50<1.5] yes=21,no=22,missing=21
				21:[f46<0.5] yes=41,no=42,missing=41
					41:leaf=-0.00126104557
					42:leaf=0.000572707271
				22:leaf=0.00220481167
	2:[f37<1.5] yes=5,no=6,missing=5
		5:[f49<1.5] yes=11,no=12,missing=11
			11:[f48<1.5] yes=23,no=24,missing=23
				23:[f43<1] yes=43,no=44,missing=43
					43:leaf=-0.000656137185
					44:leaf=0.000316618214
				24:[f38<1.5] yes=45,no=46,missing=45
					45:leaf=3.62570827e-05
					46:leaf=0.0046993657
			12:[f47<0.5] yes=25,no=26,missing=25
				25:[f53<1.5] yes=47,no=48,missing=47
					47:leaf=0.00273169554
					48:leaf=0.000866537099
				26:[f6<0.5] yes=49,no=50,missing=49
					49:leaf=-0.00102592411
					50:leaf=0.00124608283
		6:[f48<0.5] yes=13,no=14,missing=13
			13:[f20<0.5] yes=27,no=28,missing=27
				27:[f50<0.5] yes=51,no=52,missing=51
					51:leaf=-0.00367726618
					52:leaf=-0.000293821096
				28:[f51<1.5] yes=53,no=54,missing=53
					53:leaf=0.000320474326
					54:leaf=0.00125392084
			14:[f53<1.5] yes=29,no=30,missing=29
				29:[f19<0.5] yes=55,no=56,missing=55
					55:leaf=0.000706830411
					56:leaf=-0.000963634287
				30:[f10<0.5] yes=57,no=58,missing=57
					57:leaf=-0.000475180161
					58:leaf=-0.00231366162
booster[73]:
0:[f39<1.5] yes=1,no=2,missing=1
	1:[f22<0.5] yes=3,no=4,missing=3
		3:[f2<0.5] yes=7,no=8,missing=7
			7:[f40<3] yes=13,no=14,missing=13
				13:[f38<1.5] yes=23,no=24,missing=23
					23:leaf=-0.00017035089
					24:leaf=0.000424337864
				14:[f36<1.5] yes=25,no=26,missing=25
					25:leaf=0.000468996819
					26:leaf=0.00219079433
			8:[f36<1.5] yes=15,no=16,missing=15
				15:[f46<0.5] yes=27,no=28,missing=27
					27:leaf=-0.00319789886
					28:leaf=-0.00010789236
				16:[f49<0.5] yes=29,no=30,missing=29
					29:leaf=-0.00137512386
					30:leaf=0.00378084788
		4:[f46<0.5] yes=9,no=10,missing=9
			9:[f35<1.5] yes=17,no=18,missing=17
				17:leaf=-0.00374600594
				18:leaf=-0.000823789858
			10:[f45<0.5] yes=19,no=20,missing=19
				19:leaf=0.00227481127
				20:leaf=0.000163698205
	2:[f13<0.5] yes=5,no=6,missing=5
		5:[f15<0.5] yes=11,no=12,missing=11
			11:[f40<3] yes=21,no=22,missing=21
				21:[f6<0.5] yes=31,no=32,missing=31
					31:leaf=0.000317124766
					32:leaf=-0.0012057483
				22:[f52<1.5] yes=33,no=34,missing=33
					33:leaf=0.000463962555
					34:leaf=0.00282506156
			12:leaf=0.00281716581
		6:leaf=0.00292925444
booster[74]:
0:[f39<1.5] yes=1,no=2,missing=1
	1:[f19<0.5] yes=3,no=4,missing=3
		3:[f22<0.5] yes=7,no=8,missing=7
			7:[f41<1] yes=13,no=14,missing=13
				13:[f36<1.5] yes=21,no=22,missing=21
					21:leaf=-0.000382363796
					22:leaf=0.000377114862
				14:[f21<0.5] yes=23,no=24,missing=23
					23:leaf=0.000439137366
					24:leaf=-0.00125733018
			8:[f46<0.5] yes=15,no=16,missing=15
				15:[f35<1.5] yes=25,no=26,missing=25
					25:leaf=-0.00346505339
					26:leaf=-0.000782603049
				16:[f45<0.5] yes=27,no=28,missing=27
					27:leaf=0.00216107373
					28:leaf=0.000155508518
		4:[f38<1.5] yes=9,no=10,missing=9
			9:[f35<1.5] yes=17,no=18,missing=17
				17:leaf=-0.00259950175
				18:leaf=-0.00070270896
			10:leaf=0.000754517328
	2:[f13<0.5] yes=5,no=6,missing=5
		5:[f15<0.5] yes=11,no=12,missing=11
			11:[f40<3] yes=19,no=20,missing=19
				19:[f30<0.5] yes=29,no=30,missing=29
					29:leaf=0.000138386953
					30:leaf=0.00180998247
				20:[f49<1.5] yes=31,no=32,missing=31
					31:leaf=0.000663099287
					32:leaf=0.00315567269
			12:leaf=0.00267630816
		6:leaf=0.00273397355
booster[75]:
0:[f31<0.5] yes=1,no=2,missing=1
	1:[f35<1.5] yes=3,no=4,missing=3
		3:[f42<1] yes=7,no=8,missing=7
			7:[f53<1.5] yes=11,no=12,missing=11
				11:[f23<0.5] yes=19,no=20,missing=19
					19:leaf=0.000542309077
					20:leaf=0.00235353061
				12:[f45<1.5] yes=21,no=22,missing=21
					21:leaf=-0.000548021868
					22:leaf=0.00266792299
			8:[f47<2.5] yes=13,no=14,missing=13
				13:[f37<1.5] yes=23,no=24,missing=23
					23:leaf=0.000204458716
					24:leaf=-0.000824704883
				14:leaf=-0.00349387713
		4:[f23<0.5] yes=9,no=10,missing=9
			9:[f13<0.5] yes=15,no=16,missing=15
				15:[f51<1.5] yes=25,no=26,missing=25
					25:leaf=0.000194938984
					26:leaf=-0.000927945774
				16:[f45<0.5] yes=27,no=28,missing=27
					27:leaf=-0.0056458055
					28:leaf=0.00194252736
			10:[f45<0.5] yes=17,no=18,missing=17
				17:leaf=-0.000641620194
				18:[f45<1.5] yes=29,no=30,missing=29
					29:leaf=-0.00276260381
					30:leaf=-0.000751388085
	2:[f35<1.5] yes=5,no=6,missing=5
		5:leaf=-0.00215346226
		6:leaf=0.000268244738
booster[76]:
0:[f40<1] yes=1,no=2,missing=1
	1:[f46<1.5] yes=3,no=4,missing=3
		3:[f48<0.5] yes=7,no=8,missing=7
			7:[f42<3] yes=15,no=16,missing=15
				15:[f36<1.5] yes=31,no=32,missing=31
					31:leaf=0.000885578047
					32:leaf=-0.000638575235
				16:[f51<1.5] yes=33,no=34,missing=33
					33:leaf=-0.000303732028
					34:leaf=-0.00290819793
			8:[f42<3] yes=17,no=18,missing=17
				17:[f15<0.5] yes=35,no=36,missing=35
					35:leaf=-0.000704963866
					36:leaf=0.00217754836
				18:[f46<0.5] yes=37,no=38,missing=37
					37:leaf=-0.000189738799
					38:leaf=0.00187938381
		4:[f30<0.5] yes=9,no=10,missing=9
			9:[f29<0.5] yes=19,no=20,missing=19
				19:[f54<0.5] yes=39,no=40,missing=39
					39:leaf=-0.00222707749
					40:leaf=-0.000617727637
				20:[f46<2.5] yes=41,no=42,missing=41
					41:leaf=0.000203017407
					42:leaf=-0.000904411077
